svm_type c_svc
kernel_type rbf
gamma 3.05176e-05
nr_class 2
total_sv 366
rho -0.328034
label 0 1
probA -8.34795
probB 2.24259
nr_sv 252 114
SV
0.03598363077782169 0:1 1:2 2:3 3:4 4:5 5:6 6:7 7:8 8:9 9:10 10:11 11:12 12:13 13:14 14:15 15:16 
0.1897363749872736 0:8 1:10 2:17 3:18 4:19 5:20 6:21 7:22 8:23 9:24 10:25 11:26 12:27 13:28 14:29 15:30 16:31 17:32 18:33 19:34 20:35 21:36 
0.05503629567040207 0:10 1:50 2:71 3:73 4:74 5:75 6:76 7:77 
0.2937342694574537 0:14 1:18 2:52 3:71 4:86 5:87 6:88 7:89 8:90 9:91 10:92 11:93 12:94 13:95 14:96 15:97 
0.5256225432657791 0:8 1:10 2:18 3:22 4:25 5:33 6:57 7:59 8:98 9:99 10:100 11:101 12:102 13:103 14:104 15:105 16:106 17:107 18:108 19:109 20:110 
0.001390910994129996 0:111 1:112 
0.3305791657222603 0:10 1:113 2:114 3:115 4:116 5:117 6:118 7:119 8:120 
0.4040447693008411 0:3 1:14 2:26 3:52 4:121 5:122 6:123 7:124 8:125 9:126 10:127 11:128 12:129 13:130 14:131 
0.294697365554223 0:33 1:132 2:133 
0.4050784983188365 0:140 1:141 2:142 3:143 4:144 5:145 6:146 
0.0857497086153515 0:33 1:76 2:147 
0.1878762993728741 0:91 1:148 2:149 3:150 4:151 5:152 6:153 7:154 
0.6255444400995487 0:8 1:10 2:14 3:58 4:73 5:151 6:155 7:156 8:157 9:158 10:159 11:160 12:161 13:162 14:163 15:164 16:165 17:166 18:167 19:168 20:169 21:170 
0.5904158596643586 0:3 1:5 2:8 3:22 4:33 5:55 6:95 7:117 8:158 9:171 10:172 11:173 12:174 13:175 14:176 15:177 16:178 17:179 18:180 
0.6104791733134306 0:95 1:181 2:182 3:183 4:184 5:185 6:186 7:187 8:188 9:189 10:190 
0.6702383409740522 0:8 1:18 2:58 3:91 4:128 5:144 6:146 7:150 8:191 9:192 10:193 11:194 12:195 13:196 14:197 15:198 16:199 17:200 18:201 19:202 20:203 21:204 22:205 23:206 24:207 25:208 
0.5479725384674464 0:7 1:8 2:26 3:87 4:162 5:205 6:209 7:210 8:211 9:212 10:213 11:214 12:215 13:216 14:217 15:218 
0.4796419257350522 0:8 1:22 2:33 3:46 4:50 5:68 6:73 7:128 8:163 9:221 10:222 11:223 12:224 13:225 
0.5488666725994998 0:10 1:14 2:226 3:227 4:228 5:229 6:230 7:231 
0.5070610383623686 0:5 1:8 2:33 3:55 4:232 5:233 6:234 7:235 8:236 9:237 10:238 11:239 12:240 13:241 14:242 
0.658758018058359 0:38 1:73 2:156 3:243 4:244 5:245 6:246 7:247 8:248 9:249 10:250 11:251 12:252 13:253 14:254 15:255 16:256 
0.6132540938465606 0:237 1:259 2:260 3:261 
0.6080867340233271 0:262 1:263 
0.4491943133095477 0:8 1:22 2:239 3:264 4:265 5:266 6:267 7:268 8:269 9:270 
0.574585195182744 0:68 1:147 2:151 3:259 4:271 5:272 6:273 7:274 8:275 
0.5948363076862373 0:10 1:14 2:55 3:118 4:276 5:277 6:278 7:279 8:280 9:281 10:282 11:283 12:284 13:285 
0.6415897472562646 0:8 1:46 2:286 3:287 4:288 5:289 
0.4981283177993535 0:8 1:14 2:23 3:33 4:91 5:143 6:146 7:156 8:259 9:290 10:291 11:292 12:293 13:294 
0.6353880747997422 0:3 1:14 2:22 3:33 4:68 5:71 6:76 7:164 8:205 9:234 10:295 11:296 12:297 13:298 14:299 15:300 16:301 17:302 
0.6472142875435938 0:3 1:8 2:22 3:26 4:54 5:67 6:91 7:109 8:303 9:304 10:305 11:306 12:307 13:308 14:309 15:310 16:311 
0.4893808506357593 0:7 1:151 2:174 3:305 4:312 5:313 6:314 7:315 8:316 9:317 
0.6503873117375609 0:58 1:318 2:319 3:320 4:321 5:322 6:323 
0.6716362454171545 0:8 1:10 2:26 3:55 4:77 5:91 6:216 7:275 8:324 9:325 10:326 11:327 12:328 13:329 14:330 15:331 16:332 17:333 18:334 19:335 20:336 21:337 22:338 23:339 
0.652866499636847 0:14 1:33 2:50 3:52 4:71 5:163 6:340 7:341 8:342 
0.6656840077207417 0:343 1:344 2:345 3:346 4:347 
0.3378876979524834 0:348 1:349 2:350 
0.6669870188175624 0:3 1:8 2:10 3:14 4:22 5:33 6:50 7:87 8:216 9:237 10:315 11:351 12:352 13:353 14:354 15:355 16:356 17:357 18:358 19:359 20:360 21:361 22:362 23:363 24:364 
0.6660321167305884 0:5 1:8 2:59 3:71 4:128 5:150 6:151 7:180 8:259 9:335 10:365 11:366 12:367 13:368 14:369 15:370 16:371 17:372 18:373 
0.6670153621872479 0:14 1:18 2:22 3:33 4:58 5:68 6:76 7:106 8:108 9:318 10:374 11:375 
0.655061872203112 0:10 1:18 2:22 3:95 4:117 5:237 6:376 7:377 8:378 9:379 
0.650467689577354 0:23 1:141 2:237 3:380 4:381 5:382 6:383 7:384 
0.6701304907347435 0:10 1:33 2:73 3:87 4:216 5:237 6:352 7:385 8:386 9:387 10:388 11:389 12:390 13:391 14:392 
0.6608815982402527 0:3 1:8 2:22 3:23 4:52 5:73 6:163 7:252 8:357 9:393 10:394 11:395 12:396 13:397 14:398 15:399 16:400 17:401 
0.6467174363812295 0:18 1:33 2:174 3:269 4:402 5:403 6:404 
0.6680246320920957 0:8 1:14 2:22 3:33 4:46 5:52 6:55 7:68 8:91 9:96 10:118 11:150 12:203 13:357 14:405 15:406 16:407 17:408 18:409 19:410 20:411 21:412 22:413 23:414 24:415 
0.4436420565437903 0:416 1:417 2:418 
0.671178471472917 0:71 1:416 2:419 3:420 4:421 5:422 6:423 7:424 8:425 9:426 
0.672104321406532 0:26 1:181 2:427 3:428 4:429 5:430 6:431 7:432 8:433 9:434 10:435 11:436 12:437 13:438 14:439 15:440 16:441 17:442 18:443 19:444 
0.6716256301772958 0:22 1:33 2:106 3:108 4:397 5:445 6:446 7:447 8:448 9:449 10:450 
0.6580001177136577 0:48 1:95 2:202 3:259 4:335 5:451 6:452 7:453 8:454 9:455 10:456 11:457 12:458 13:459 14:460 15:461 16:462 
0.6719265414683155 0:3 1:8 2:10 3:22 4:25 5:68 6:73 7:74 8:96 9:416 10:463 11:464 12:465 13:466 14:467 15:468 16:469 17:470 18:471 19:472 20:473 21:474 
0.6695433344364988 0:5 1:22 2:33 3:73 4:96 5:106 6:108 7:178 8:475 9:476 10:477 11:478 12:479 13:480 14:481 15:482 16:483 17:484 18:485 
0.6100616181786507 0:5 1:10 2:14 3:18 4:52 5:71 6:73 7:91 8:96 9:237 10:259 11:486 12:487 13:488 14:489 15:490 16:491 17:492 18:493 19:494 20:495 21:496 22:497 
0.6579492781320868 0:8 1:22 2:58 3:68 4:259 5:269 6:498 7:499 8:500 9:501 10:502 11:503 12:504 13:505 14:506 15:507 16:508 
0.6720943954720804 0:8 1:10 2:54 3:466 4:509 5:510 6:511 7:512 8:513 9:514 10:515 11:516 12:517 13:518 14:519 15:520 16:521 17:522 
0.6721458671366138 0:5 1:8 2:22 3:33 4:68 5:73 6:144 7:156 8:163 9:237 10:259 11:399 12:523 13:524 14:525 15:526 16:527 17:528 18:529 19:530 20:531 21:532 22:533 23:534 
0.6721327552369716 0:3 1:5 2:14 3:22 4:38 5:119 6:269 7:425 8:535 9:536 10:537 11:538 12:539 13:540 14:541 15:542 
0.6683539262769783 0:3 1:33 2:67 3:87 4:151 5:252 6:543 7:544 8:545 9:546 10:547 11:548 12:549 13:550 14:551 
0.6718656740171296 0:8 1:10 2:14 3:33 4:58 5:59 6:73 7:99 8:108 9:178 10:246 11:335 12:412 13:552 14:553 15:554 16:555 
0.6102315648832084 0:3 1:8 2:22 3:23 4:26 5:38 6:73 7:77 8:151 9:205 10:255 11:357 12:556 13:557 14:558 15:559 16:560 17:561 18:562 19:563 20:564 21:565 22:566 
0.6721269759545565 0:10 1:22 2:567 3:568 4:569 5:570 6:571 7:572 
0.6722013571097999 0:8 1:10 2:26 3:246 4:259 5:269 6:340 7:573 8:574 9:575 10:576 11:577 12:578 13:579 
0.6719619476149195 0:3 1:8 2:73 3:96 4:582 5:618 6:619 7:620 8:621 
0.6719577095585962 0:3 1:10 2:14 3:22 4:73 5:75 6:91 7:95 8:96 9:108 10:353 11:544 12:564 13:620 14:622 15:623 16:624 17:625 18:626 19:627 20:628 
0.6715398080911055 0:3 1:582 2:629 3:630 4:631 
0.6721191307580561 0:3 1:8 2:26 3:50 4:58 5:73 6:318 7:599 8:631 9:659 10:660 11:661 12:662 13:663 14:664 15:665 16:666 17:667 18:668 19:669 20:670 
0.6722135486424106 0:3 1:8 2:22 3:82 4:128 5:200 6:235 7:259 8:620 9:671 10:672 11:673 
0.6722342049622398 0:3 1:8 2:10 3:38 4:101 5:162 6:294 7:325 8:551 9:565 10:620 11:674 12:675 13:676 14:677 15:678 16:679 17:680 
0.6823178370074324 0:11 1:14 2:22 3:58 4:205 5:264 6:681 7:682 8:683 9:684 10:685 11:686 12:687 13:688 14:689 
0.6719601903278412 0:22 1:117 2:135 3:180 4:335 5:612 6:690 7:691 
0.6803699850194362 0:3 1:8 2:22 3:33 4:54 5:55 6:59 7:119 8:237 9:269 10:479 11:665 12:692 13:693 14:694 15:695 16:696 17:697 18:698 19:699 
0.7149726049954209 0:151 1:237 2:565 3:700 4:701 5:702 6:703 7:704 8:705 9:706 
0.6717058236715565 0:8 1:10 2:22 3:23 4:58 5:73 6:108 7:118 8:141 9:150 10:162 11:163 12:201 13:246 14:531 15:701 16:724 17:725 18:726 19:727 20:728 21:729 22:730 23:731 24:732 
0.6722041061808841 0:8 1:18 2:32 3:33 4:71 5:73 6:237 7:259 8:399 9:696 10:746 11:752 12:753 13:754 14:755 15:756 16:757 17:758 18:759 19:760 20:761 21:762 
0.6721725102010423 0:3 1:8 2:14 3:18 4:33 5:55 6:68 7:237 8:620 9:622 10:746 11:765 12:766 13:767 14:768 15:769 16:770 17:771 18:772 19:773 20:774 
0.6717880805581753 0:3 1:55 2:95 3:237 4:746 5:799 6:800 7:801 8:802 9:803 
0.6722258045259288 0:5 1:8 2:10 3:73 4:178 5:336 6:368 7:454 8:536 9:612 10:825 11:826 12:827 13:828 14:829 15:830 16:831 
0.6720660934765443 0:3 1:8 2:33 3:59 4:73 5:95 6:99 7:178 8:206 9:216 10:259 11:269 12:424 13:582 14:717 15:734 16:832 17:833 18:834 19:835 20:836 21:837 22:838 
0.6721112984944286 0:52 1:91 2:128 3:239 4:246 5:249 6:259 7:269 8:270 9:629 10:854 11:868 12:869 13:870 14:871 
0.6072602862976418 0:872 1:873 2:874 3:875 4:876 5:877 
0.5713692907521433 0:878 
0.6745684687167484 0:255 1:879 2:880 3:881 4:882 5:883 6:884 7:885 8:886 9:887 
0.5363468415172211 0:888 1:889 2:890 3:891 4:892 
0.4974718946171784 0:879 1:880 2:893 3:894 
0.5582086558140957 0:904 1:905 2:906 
0.6721605503262151 0:920 1:921 2:922 3:923 4:924 5:925 6:926 7:927 8:928 9:929 10:930 11:931 
0.03684637769123356 0:935 1:936 2:937 3:938 4:939 5:940 
0.5543608759631358 0:947 1:948 
0.3460236330816823 0:952 1:953 2:954 3:955 4:956 5:957 6:958 7:959 8:960 9:961 
0.345746213452036 0:966 1:967 2:968 3:969 4:970 5:971 6:972 7:973 8:974 9:975 
0.5099864102692947 0:966 1:982 2:983 3:984 4:985 5:986 6:987 
0.5938275280883115 0:990 1:991 2:992 3:993 4:994 5:995 
0.233608937038068 0:1001 1:1002 2:1003 
0.6719311501859808 0:966 1:969 2:972 3:974 4:983 5:1004 6:1005 7:1006 
0.6721817743627053 0:3 1:52 2:75 3:270 4:1008 5:1009 
0.4145543352088895 0:879 1:880 2:1010 3:1011 4:1012 
0.3614765179034651 0:879 1:880 2:1018 3:1019 
0.3486876816391035 0:1020 1:1021 2:1022 3:1023 4:1024 
0.4055035341590698 0:3 1:18 2:1025 3:1026 4:1027 5:1028 6:1029 
0.4919824079313426 0:1032 1:1033 2:1034 3:1035 
0.671696650206862 0:26 1:1043 2:1044 3:1045 4:1046 
0.5095323037241801 0:1052 1:1053 2:1054 3:1055 4:1056 5:1057 6:1058 
0.6584883244449684 0:1059 1:1060 2:1061 3:1062 4:1063 5:1064 6:1065 7:1066 8:1067 
0.2638032872406709 0:1070 1:1071 
0.06088798487163907 0:1072 1:1073 2:1074 3:1075 4:1076 
0.4069185288092706 0:22 1:23 2:1077 3:1078 4:1079 5:1080 6:1081 
0.3132191285615653 0:1082 
0.3655884201697868 0:1083 1:1084 2:1085 3:1086 4:1087 5:1088 6:1089 7:1090 8:1091 9:1092 10:1093 11:1094 12:1095 13:1096 14:1097 
0.4713199514454656 0:1098 1:1099 2:1100 
0.3111741198436009 0:1101 1:1102 2:1103 3:1104 4:1105 
0.6720137261158117 0:966 1:969 2:970 3:974 4:983 5:1106 6:1107 7:1108 8:1109 9:1110 10:1111 11:1112 12:1113 13:1114 
0.05432032464793876 0:1115 
0.3631051219360264 0:1083 1:1087 2:1088 3:1091 4:1093 5:1094 6:1096 7:1116 8:1117 9:1118 10:1119 11:1120 12:1121 13:1122 14:1123 
0.5615391088691883 0:966 1:1129 2:1130 3:1131 4:1132 5:1133 6:1134 7:1135 8:1136 9:1137 10:1138 
0.5333559168878141 0:1139 1:1140 2:1141 3:1142 4:1143 5:1144 
0.3876334823556458 0:1157 1:1158 2:1159 3:1160 4:1161 5:1162 6:1163 7:1164 
0.5614301114059895 0:1165 1:1166 2:1167 3:1168 4:1169 5:1170 6:1171 7:1172 8:1173 9:1174 10:1175 
0.5724054244214147 0:1176 1:1177 2:1178 3:1179 4:1180 5:1181 6:1182 7:1183 8:1184 
0.4014578343874039 0:1185 1:1186 
0.4552590376997123 0:1020 1:1189 2:1190 3:1191 
0.3825263018072619 0:1192 1:1193 2:1194 3:1195 4:1196 5:1197 6:1198 7:1199 
0.4127955910492672 0:1205 1:1206 2:1207 3:1208 
0.6722941442707842 0:1209 1:1210 2:1211 3:1212 4:1213 5:1214 6:1215 7:1216 8:1217 9:1218 
0.513091646322015 0:1219 1:1220 2:1221 3:1222 4:1223 
0.4439105476655757 0:1072 1:1073 2:1225 3:1226 4:1227 
0.5470469955844663 0:1228 1:1229 2:1230 3:1231 4:1232 5:1233 
0.3590906286037492 0:1234 1:1235 2:1236 
0.3339137394490053 0:1237 1:1238 2:1239 3:1240 4:1241 5:1242 6:1243 
0.3482293649427703 0:1249 1:1250 2:1251 3:1252 4:1253 5:1254 6:1255 
0.5848337310144283 0:1260 1:1261 2:1262 3:1263 4:1264 5:1265 6:1266 7:1267 8:1268 
0.6718859678461928 0:1072 1:1269 2:1270 3:1271 4:1272 5:1273 6:1274 7:1275 8:1276 9:1277 10:1278 11:1279 12:1280 13:1281 14:1282 
0.5029861829115554 0:1284 
0.6716135999249312 0:1285 1:1286 2:1287 3:1288 4:1289 5:1290 6:1291 7:1292 8:1293 9:1294 10:1295 11:1296 12:1297 13:1298 14:1299 15:1300 
0.5373641467494883 0:1301 1:1302 2:1303 3:1304 4:1305 5:1306 6:1307 7:1308 8:1309 9:1310 10:1311 11:1312 12:1313 
0.09421069604653669 0:1247 1:1321 
0.4785576274284686 0:1327 1:1328 2:1329 3:1330 
0.1623140521878574 0:1331 1:1332 2:1333 
0.5802957346445597 0:1034 1:1336 2:1337 
0.6721756140175297 0:80 1:1338 2:1339 3:1340 4:1341 5:1342 6:1343 7:1344 8:1345 9:1346 
0.6712599791986033 0:1347 1:1348 2:1349 3:1350 4:1351 5:1352 6:1353 7:1354 
0.2338759730928528 0:1355 1:1356 2:1357 
0.5440475768257618 0:1358 1:1359 
0.5342385872229642 0:1360 1:1361 2:1362 3:1363 4:1364 5:1365 6:1366 7:1367 8:1368 9:1369 10:1370 11:1371 12:1372 
0.6716992864873322 0:1360 1:1361 2:1362 3:1363 4:1364 5:1373 6:1374 7:1375 8:1376 9:1377 10:1378 
0.6718529825343853 0:26 1:80 2:1379 3:1380 4:1381 5:1382 6:1383 7:1384 8:1385 9:1386 10:1387 11:1388 
0.6252893559362931 0:1034 1:1389 2:1390 3:1391 
0.1798201724228833 0:1392 1:1393 2:1394 3:1395 4:1396 5:1397 6:1398 7:1399 8:1400 
0.4886150204439925 0:1392 1:1393 2:1394 3:1395 4:1401 5:1402 6:1403 7:1404 8:1405 
0.6718881312593449 0:1406 1:1407 2:1408 3:1409 4:1410 5:1411 6:1412 7:1413 8:1414 9:1415 10:1416 11:1417 12:1418 13:1419 14:1420 15:1421 16:1422 
0.2164968454840328 0:1423 1:1424 2:1425 3:1426 
0.6721952841392453 0:80 1:1407 2:1415 3:1427 4:1428 5:1429 6:1430 7:1431 8:1432 9:1433 10:1434 11:1435 12:1436 13:1437 14:1438 15:1439 
0.6721479602484797 0:1420 1:1440 2:1441 3:1442 4:1443 5:1444 6:1445 7:1446 8:1447 9:1448 
0.6720137261158352 0:1420 1:1431 2:1432 3:1449 4:1450 5:1451 6:1452 7:1453 8:1454 9:1455 10:1456 11:1457 12:1458 13:1459 14:1460 15:1461 16:1462 17:1463 
0.3570448604698013 0:1467 1:1468 2:1469 3:1470 4:1471 
0.5762003062693918 0:1472 1:1473 2:1474 
0.6697018145930876 0:1478 1:1479 2:1480 3:1481 4:1482 5:1483 6:1484 7:1485 8:1486 9:1487 10:1488 11:1489 12:1490 
0.3573687414667418 0:1496 1:1497 2:1498 3:1499 4:1500 
0.535514580489358 0:1467 1:1501 2:1502 3:1503 
0.6720785708479211 0:8 1:22 2:23 3:26 4:33 5:91 6:95 7:163 8:351 9:533 10:612 11:666 12:1551 13:1552 14:1553 15:1554 16:1555 17:1556 18:1557 
0.6722015205372993 0:10 1:23 2:87 3:117 4:128 5:147 6:178 7:310 8:340 9:612 10:665 11:1558 12:1559 13:1560 14:1561 15:1562 16:1563 17:1564 18:1565 19:1566 20:1567 
0.6721605503262151 0:7 1:8 2:22 3:33 4:54 5:58 6:73 7:75 8:82 9:96 10:178 11:180 12:366 13:620 14:701 15:1581 16:1582 17:1583 18:1584 19:1585 
0.6723192377572611 0:3 1:10 2:73 3:288 4:1586 5:1587 6:1588 7:1589 8:1590 9:1591 10:1592 11:1593 12:1594 13:1595 14:1596 15:1597 
0.6723174966543903 0:18 1:59 2:163 3:744 4:1619 5:1620 
0.6718213361436842 0:22 1:73 2:612 3:766 4:1652 5:1653 6:1654 7:1655 8:1656 
0.6720893401294045 0:3 1:33 2:91 3:108 4:206 5:298 6:523 7:694 8:1657 9:1658 10:1659 11:1660 12:1661 
0.6721067392450801 0:5 1:8 2:10 3:14 4:18 5:55 6:96 7:240 8:259 9:335 10:414 11:424 12:564 13:620 14:626 15:634 16:677 17:694 18:1640 19:1662 20:1663 21:1664 22:1665 23:1666 24:1667 
0.6721067038364459 0:10 1:18 2:22 3:59 4:67 5:81 6:95 7:163 8:178 9:212 10:286 11:310 12:476 13:519 14:612 15:620 16:828 17:1668 18:1669 19:1670 20:1671 21:1672 22:1673 
0.6718265335218216 0:8 1:22 2:55 3:164 4:243 5:466 6:511 7:609 8:694 9:1674 10:1675 11:1676 12:1677 13:1678 14:1679 15:1680 16:1681 
0.6721558020720175 0:3 1:8 2:10 3:22 4:73 5:174 6:195 7:204 8:523 9:547 10:701 11:869 12:1696 13:1697 14:1698 15:1699 
0.6717768418273238 0:58 1:61 2:300 3:1588 4:1700 5:1701 6:1702 7:1703 8:1704 
0.6717295350075922 0:8 1:26 2:44 3:81 4:128 5:162 6:565 7:609 8:701 9:1705 10:1706 11:1707 12:1708 13:1709 14:1710 15:1711 16:1712 17:1713 
0.6722087021533354 0:8 1:141 2:150 3:151 4:156 5:462 6:564 7:612 8:665 9:836 10:1562 11:1714 12:1715 13:1716 14:1717 15:1718 
0.6721806867219253 0:10 1:33 2:73 3:89 4:96 5:106 6:119 7:128 8:163 9:313 10:353 11:479 12:551 13:557 14:564 15:581 16:838 17:1724 18:1725 19:1726 20:1727 21:1728 
0.6721480448637249 0:3 1:7 2:8 3:10 4:14 5:150 6:314 7:451 8:582 9:1739 10:1740 11:1741 12:1742 13:1743 14:1744 15:1745 16:1746 17:1747 18:1748 19:1749 20:1750 
0.6722095891832628 0:3 1:8 2:22 3:23 4:33 5:58 6:73 7:109 8:206 9:289 10:475 11:476 12:479 13:487 14:604 15:1556 16:1751 17:1752 18:1753 19:1754 20:1755 21:1756 
0.6718837849657402 0:3 1:14 2:582 3:593 4:632 5:793 6:1779 7:1780 
0.6713253864022278 0:3 1:5 2:26 3:58 4:71 5:123 6:580 7:582 8:830 9:1713 10:1729 11:1781 12:1782 13:1783 14:1784 15:1785 16:1786 
0.6718117646243048 0:22 1:73 2:91 3:96 4:157 5:180 6:593 7:1556 8:1791 9:1792 10:1793 
0.6715024996725003 0:26 1:43 2:60 3:163 4:530 5:582 6:619 7:1814 8:1815 9:1816 10:1817 11:1818 12:1819 
0.6719462721111391 0:3 1:8 2:33 3:132 4:177 5:581 6:1556 7:1820 8:1821 9:1822 
0.6716149210118252 0:3 1:8 2:22 3:309 4:340 5:403 6:581 7:582 8:601 9:671 10:819 11:1080 12:1823 13:1824 14:1825 15:1826 16:1827 17:1828 18:1829 
0.6690274434750272 0:3 1:75 2:259 3:310 4:370 5:425 6:582 7:593 8:595 9:793 10:1589 11:1830 12:1831 
0.6719624749145541 0:3 1:8 2:14 3:18 4:33 5:68 6:73 7:163 8:233 9:462 10:475 11:479 12:581 13:600 14:601 15:1556 16:1620 17:1832 
0.6684946824160901 0:3 1:14 2:44 3:162 4:565 5:582 6:593 7:632 8:660 9:793 10:1780 11:1833 12:1834 
0.6721537471631004 0:33 1:425 2:1552 3:1835 4:1836 5:1837 6:1838 
0.6719742556813606 0:106 1:593 2:1623 3:1801 4:1843 5:1844 
0.6721100031172492 0:8 1:10 2:25 3:52 4:58 5:73 6:91 7:106 8:110 9:117 10:150 11:479 12:564 13:696 14:697 15:807 16:1622 17:1623 18:1739 19:1854 20:1855 21:1856 22:1857 23:1858 24:1859 
0.6719672364495159 0:33 1:52 2:73 3:90 4:91 5:128 6:259 7:357 8:397 9:402 10:425 11:487 12:593 13:792 14:1862 15:1863 16:1864 
0.6719760442316417 0:8 1:25 2:96 3:156 4:164 5:259 6:581 7:697 8:792 9:1620 10:1741 11:1879 12:1880 13:1881 14:1882 15:1883 16:1884 17:1885 
0.6720990637666854 0:3 1:26 2:73 3:259 4:501 5:604 6:792 7:1892 8:1893 9:1894 10:1895 11:1896 12:1897 13:1898 14:1899 
0.672013731031931 0:3 1:57 2:70 3:807 4:1697 5:1896 6:1910 7:1911 8:1912 9:1913 
0.7927826822659733 0:3 1:593 2:792 3:1914 4:1915 
0.6718880301796858 0:8 1:83 2:601 3:1568 4:1916 5:1917 6:1918 7:1919 8:1920 9:1921 
0.6720137966679449 0:38 1:73 2:101 3:325 4:463 5:1568 6:1922 7:1923 8:1924 9:1925 
0.6721043099179455 0:3 1:10 2:22 3:26 4:58 5:94 6:129 7:371 8:451 9:461 10:534 11:582 12:644 13:717 14:1568 15:1668 16:1723 17:1727 18:1926 19:1927 20:1928 21:1929 22:1930 23:1931 24:1932 
0.6720488959990206 0:32 1:33 2:173 3:237 4:314 5:335 6:499 7:659 8:734 9:831 10:1568 11:1933 12:1934 13:1935 14:1936 
0.6723174966544607 0:1940 1:1941 2:1942 3:1943 4:1944 5:1945 6:1946 7:1947 8:1948 9:1949 10:1950 11:1951 12:1952 13:1953 14:1954 15:1955 16:1956 17:1957 18:1958 19:1959 20:1960 21:1961 22:1962 23:1963 24:1964 25:1965 
0.6723265603814099 0:34 1:1966 2:1967 3:1968 4:1969 5:1970 6:1971 7:1972 8:1973 9:1974 10:1975 11:1976 12:1977 13:1978 14:1979 15:1980 16:1981 17:1982 18:1983 19:1984 20:1985 21:1986 22:1987 23:1988 
0.5343991633578515 0:1989 1:1990 2:1991 3:1992 4:1993 5:1994 6:1995 7:1996 8:1997 9:1998 10:1999 11:2000 12:2001 13:2002 14:2003 15:2004 16:2005 17:2006 18:2007 19:2008 20:2009 21:2010 22:2011 23:2012 
0.6720990637666853 0:101 1:1963 2:2013 3:2014 4:2015 5:2016 6:2017 7:2018 8:2019 9:2020 10:2021 11:2022 12:2023 13:2024 14:2025 15:2026 16:2027 17:2028 18:2029 19:2030 20:2031 21:2032 22:2033 23:2034 24:2035 25:2036 
0.5340047600785393 0:1958 1:1981 2:2019 3:2037 4:2038 5:2039 6:2040 7:2041 8:2042 9:2043 10:2044 11:2045 12:2046 13:2047 14:2048 15:2049 16:2050 17:2051 18:2052 19:2053 20:2054 21:2055 22:2056 23:2057 
0.6716456993256001 0:3 1:8 2:26 3:70 4:73 5:310 6:582 7:593 8:723 9:1533 10:1720 11:1721 12:1894 13:2064 
0.6723335448962424 0:3 1:38 2:59 3:73 4:163 5:356 6:581 7:582 8:600 9:601 10:1666 11:2074 12:2075 13:2076 14:2077 15:2078 16:2079 17:2080 
0.6719760261407761 0:3 1:18 2:19 3:22 4:26 5:33 6:59 7:73 8:105 9:237 10:259 11:340 12:565 13:581 14:582 15:631 16:1545 17:1691 18:2081 19:2082 20:2083 21:2084 22:2085 23:2086 
0.6720605645754703 0:22 1:57 2:106 3:236 4:447 5:593 6:2094 7:2095 8:2096 9:2097 10:2098 
0.6721148672642415 0:8 1:10 2:14 3:52 4:91 5:128 6:162 7:259 8:294 9:499 10:521 11:551 12:632 13:734 14:1529 15:2116 16:2124 17:2125 18:2126 19:2127 20:2128 21:2129 
0.6718883370039468 0:14 1:77 2:289 3:1730 4:2116 5:2130 6:2131 7:2132 8:2133 9:2134 10:2135 11:2136 12:2137 13:2138 14:2139 15:2140 
0.6721257686386954 0:7 1:14 2:33 3:294 4:721 5:793 6:1896 7:2116 8:2141 9:2142 
0.6716864176613165 0:5 1:8 2:26 3:91 4:96 5:259 6:340 7:553 8:581 9:2143 10:2144 11:2145 12:2146 13:2147 14:2148 
0.6721034444027563 0:22 1:73 2:95 3:118 4:237 5:377 6:479 7:581 8:612 9:665 10:666 11:696 12:880 13:2165 14:2166 15:2167 16:2168 17:2169 18:2170 19:2171 20:2172 21:2173 22:2174 
0.6721043157201302 0:22 1:33 2:73 3:99 4:117 5:179 6:252 7:376 8:485 9:523 10:612 11:773 12:2145 13:2164 14:2175 15:2176 16:2177 17:2178 
0.6717459742364769 0:10 1:73 2:152 3:286 4:694 5:1652 6:2179 7:2180 8:2181 9:2182 10:2183 
0.6721084176586338 0:694 1:1739 2:2184 3:2185 4:2186 5:2187 
0.6720500273433242 0:58 1:701 2:2188 3:2189 4:2190 5:2191 6:2192 7:2193 
0.6719542210116609 0:8 1:18 2:33 3:55 4:523 5:701 6:726 7:1752 8:2223 9:2224 10:2225 11:2226 12:2227 13:2228 14:2229 15:2230 16:2231 17:2232 
0.6714586063987851 0:1575 1:1981 2:1991 3:2240 4:2241 5:2242 6:2243 7:2244 8:2245 9:2246 10:2247 11:2248 12:2249 13:2250 14:2251 15:2252 16:2253 17:2254 18:2255 19:2256 20:2257 21:2258 22:2259 
0.6716764137340703 0:110 1:349 2:1959 3:1984 4:1990 5:2040 6:2045 7:2118 8:2173 9:2260 10:2261 11:2262 12:2263 13:2264 14:2265 15:2266 16:2267 17:2268 18:2269 19:2270 20:2271 21:2272 22:2273 23:2274 24:2275 25:2276 
0.6716135999249312 0:349 1:1680 2:1942 3:1959 4:1961 5:1984 6:1990 7:2031 8:2037 9:2045 10:2173 11:2260 12:2261 13:2262 14:2263 15:2264 16:2268 17:2277 18:2278 19:2279 20:2280 21:2281 22:2282 23:2283 
0.6722145486818747 0:73 1:528 2:2284 3:2285 4:2286 5:2287 6:2288 7:2289 8:2290 9:2291 10:2292 11:2293 12:2294 13:2295 14:2296 15:2297 16:2298 17:2299 
0.6714826175577945 0:1945 1:1981 2:2019 3:2040 4:2240 5:2243 6:2248 7:2274 8:2300 9:2301 10:2302 11:2303 12:2304 13:2305 14:2306 15:2307 16:2308 17:2309 18:2310 19:2311 20:2312 21:2313 22:2314 
0.6720137261158352 0:821 1:2053 2:2315 3:2316 4:2317 5:2318 6:2319 7:2320 8:2321 9:2322 10:2323 11:2324 12:2325 13:2326 14:2327 15:2328 16:2329 17:2330 
0.6719920961228172 0:3 1:26 2:33 3:64 4:110 5:121 6:150 7:154 8:401 9:597 10:861 11:1576 12:2331 13:2332 14:2333 15:2334 16:2335 17:2336 18:2337 19:2338 20:2339 
0.6719788494416321 0:34 1:73 2:1542 3:2340 4:2341 5:2342 6:2343 7:2344 8:2345 9:2346 10:2347 11:2348 12:2349 13:2350 14:2351 15:2352 16:2353 17:2354 18:2355 19:2356 20:2357 21:2358 
0.67171043198415 0:14 1:71 2:96 3:259 4:565 5:582 6:793 7:807 8:1864 9:2359 10:2360 11:2361 12:2362 13:2363 14:2364 15:2365 16:2366 
0.6721482528595017 0:2367 
0.6718226231114706 0:1968 1:1998 2:2001 3:2003 4:2281 5:2312 6:2368 7:2369 8:2370 9:2371 10:2372 11:2373 12:2374 13:2375 14:2376 15:2377 16:2378 17:2379 18:2380 19:2381 20:2382 
0.672131529146284 0:1967 1:2016 2:2118 3:2309 4:2383 5:2384 6:2385 7:2386 8:2387 9:2388 10:2389 11:2390 12:2391 13:2392 14:2393 15:2394 16:2395 17:2396 18:2397 19:2398 20:2399 21:2400 22:2401 23:2402 24:2403 25:2404 
0.672126193199146 0:14 1:96 2:141 3:142 4:163 5:201 6:564 7:582 8:761 9:2363 10:2405 11:2406 12:2407 13:2408 14:2409 15:2410 16:2411 
0.6720932804953481 0:3 1:22 2:33 3:68 4:73 5:91 6:108 7:163 8:205 9:485 10:523 11:620 12:694 13:1668 14:2423 
0.6722239166493033 0:612 1:2429 2:2430 3:2431 4:2432 5:2433 6:2434 7:2435 8:2436 9:2437 
0.664752190326718 0:3 1:22 2:33 3:34 4:81 5:128 6:163 7:173 8:178 9:269 10:424 11:551 12:612 13:802 14:1763 15:2438 16:2439 17:2440 18:2441 19:2442 20:2443 
0.6719279717304644 0:22 1:33 2:68 3:91 4:479 5:612 6:1551 7:1741 8:1753 9:2460 10:2461 
0.671972144151439 0:8 1:10 2:26 3:164 4:206 5:612 6:659 7:665 8:703 9:722 10:1522 11:2470 12:2471 13:2472 14:2473 15:2474 16:2475 17:2476 
0.6720137261158117 0:18 1:33 2:90 3:95 4:96 5:249 6:534 7:612 8:677 9:880 10:2439 11:2477 12:2478 13:2479 14:2480 15:2481 16:2482 17:2483 18:2484 19:2485 20:2486 21:2487 
0.6734150442778465 0:3 1:8 2:89 3:129 4:163 5:340 6:582 7:593 8:1542 9:1671 10:2488 11:2489 12:2490 13:2491 14:2492 
0.6721263963632892 0:163 1:259 2:340 3:582 4:593 5:2488 6:2489 7:2490 8:2491 9:2493 10:2494 
0.6720904676447892 0:3 1:8 2:10 3:99 4:582 5:593 6:1924 7:2495 8:2496 9:2497 10:2498 11:2499 12:2500 13:2501 14:2502 15:2503 
0.6716775065634635 0:7 1:22 2:60 3:73 4:91 5:464 6:582 7:593 8:660 9:2504 10:2505 
0.6721972389941134 0:3 1:91 2:99 3:101 4:128 5:151 6:259 7:416 8:425 9:582 10:604 11:666 12:879 13:880 14:2366 15:2511 16:2512 17:2513 
0.6722942363395468 0:10 1:14 2:18 3:237 4:269 5:565 6:593 7:792 8:2514 9:2515 10:2516 11:2517 12:2518 13:2519 
0.6719913393173329 0:3 1:807 2:1623 3:2524 4:2525 5:2526 6:2527 7:2528 8:2529 9:2530 
0.671948448011326 0:73 1:564 2:593 3:792 4:1916 5:2534 6:2535 7:2536 8:2537 9:2538 10:2539 11:2540 12:2541 
0.6718529825343853 0:48 1:50 2:77 3:91 4:106 5:213 6:216 7:335 8:665 9:694 10:1249 11:1545 12:2542 13:2543 14:2544 15:2545 16:2546 17:2547 18:2548 
0.6717422873468486 0:3 1:8 2:22 3:139 4:159 5:162 6:268 7:475 8:612 9:728 10:2366 11:2549 12:2550 13:2551 14:2552 
0.6649868740109759 0:5 1:22 2:52 3:73 4:96 5:103 6:128 7:151 8:310 9:335 10:414 11:533 12:612 13:666 14:1640 15:2559 16:2560 17:2561 18:2562 19:2563 20:2564 
0.6721508604054618 0:14 1:66 2:73 3:96 4:129 5:259 6:335 7:619 8:766 9:1759 10:2564 11:2575 12:2576 13:2577 14:2578 
0.630419729019656 0:1570 
0.3204727758541847 0:64 
0.6719388013626082 0:10 1:14 2:18 3:22 4:58 5:73 6:338 7:619 8:2564 9:2577 10:2631 11:2632 12:2633 13:2634 14:2635 15:2636 16:2637 
0.6719531929215077 0:96 1:152 2:162 3:1533 4:2564 5:2638 6:2639 7:2640 
0.6722046071080526 0:10 1:18 2:55 3:68 4:73 5:74 6:95 7:121 8:177 9:178 10:179 11:237 12:298 13:310 14:322 15:414 16:487 17:551 18:665 19:1533 20:2581 21:2641 22:2642 23:2643 24:2644 25:2645 
0.6717058236723635 0:8 1:58 2:212 3:803 4:1533 5:2564 6:2646 
-1.328122552333081 0:3 1:73 2:75 3:151 4:371 5:565 6:580 7:581 8:582 9:583 
-1.328112153957536 0:3 1:73 2:259 3:582 4:584 5:585 6:586 7:587 8:588 9:589 10:590 11:591 12:592 13:593 14:594 15:595 16:596 17:597 18:598 
-1.32801365604885 0:3 1:10 2:55 3:162 4:249 5:565 6:582 7:599 8:600 9:601 10:602 11:603 12:604 13:605 14:606 15:607 
-1.328074528695788 0:3 1:22 2:26 3:33 4:70 5:71 6:73 7:75 8:551 9:581 10:582 11:608 12:609 13:610 14:611 15:612 16:613 17:614 18:615 19:616 20:617 
-1.328288428053508 0:631 1:632 2:633 3:634 4:635 5:636 6:637 7:638 8:639 9:640 10:641 
-1.327847831444493 0:22 1:25 2:310 3:581 4:620 5:642 6:643 7:644 8:645 9:646 10:647 11:648 12:649 13:650 
-1.328304874257872 0:631 1:651 2:652 3:653 4:654 5:655 6:656 7:657 8:658 
-1.3248461532675 0:382 1:707 2:708 3:709 4:710 5:711 6:712 7:713 8:714 9:715 
-1.316597396482116 0:3 1:10 2:70 3:170 4:592 5:595 6:701 7:716 8:717 9:718 10:719 11:720 12:721 13:722 14:723 
-1.328042491032366 0:95 1:701 2:733 3:734 4:735 5:736 6:737 
-0.9644418012222611 0:26 1:738 2:739 3:740 4:741 5:742 
-1.323271677381741 0:7 1:8 2:14 3:141 4:214 5:594 6:743 7:744 8:745 9:746 10:747 11:748 12:749 13:750 14:751 
-1.328073029480838 0:3 1:26 2:55 3:582 4:594 5:744 6:763 7:764 
-0.9815942806387113 0:96 1:595 2:609 3:740 4:775 5:776 
-1.328314850290803 0:23 1:63 2:597 3:631 4:746 5:777 6:778 7:779 8:780 9:781 10:782 11:783 12:784 
-1.210426661155711 0:14 1:26 2:476 3:740 4:785 5:786 6:787 7:788 8:789 9:790 
-1.328067001645746 0:3 1:73 2:75 3:96 4:128 5:162 6:565 7:582 8:631 9:746 10:791 11:792 12:793 13:794 14:795 15:796 16:797 17:798 
-1.332023449464403 0:3 1:22 2:26 3:38 4:44 5:55 6:58 7:75 8:81 9:249 10:581 11:582 12:815 13:816 14:817 15:818 16:819 17:820 18:821 19:822 
-1.149715853450867 0:259 1:701 2:792 3:807 4:823 5:824 
-1.325535450202198 0:594 1:595 2:839 3:840 4:841 5:842 6:843 7:844 8:845 9:846 
-0.6509166432947436 0:38 1:594 2:595 3:596 4:633 5:847 6:848 7:849 8:850 9:851 10:852 
-0.6782468969274459 0:38 1:594 2:595 3:596 4:633 5:839 6:848 7:849 8:850 9:851 10:853 
-1.327770642589011 0:22 1:594 2:595 3:854 4:855 5:856 6:857 7:858 8:859 9:860 10:861 11:862 12:863 
-1.191012072058961 0:82 1:83 2:594 3:595 4:763 5:844 6:864 7:865 8:866 9:867 
-1.327910654389871 0:26 1:633 2:635 3:697 4:723 5:1504 6:1505 7:1506 
-1.328114485613118 0:26 1:697 2:723 3:1504 4:1505 5:1507 6:1508 7:1509 
-1.328195661154318 0:26 1:635 2:697 3:723 4:1505 5:1510 6:1511 7:1512 
-1.328036972598609 0:3 1:26 2:54 3:57 4:73 5:620 6:723 7:1513 8:1514 9:1515 10:1516 11:1517 12:1518 13:1519 14:1520 15:1521 
-1.328038286718483 0:3 1:58 2:68 3:174 4:237 5:310 6:400 7:574 8:620 9:723 10:785 11:1522 12:1523 13:1524 14:1525 15:1526 16:1527 17:1528 18:1529 19:1530 20:1531 
-1.328312380885819 0:33 1:144 2:205 3:595 4:631 5:701 6:844 7:1523 8:1532 9:1533 10:1534 11:1535 12:1536 13:1537 14:1538 
-0.6741244319355763 0:144 1:205 2:595 3:620 4:701 5:844 6:1523 7:1532 8:1533 9:1534 10:1535 11:1536 12:1538 13:1539 14:1540 
-0.6576401091057615 0:144 1:205 2:595 3:631 4:701 5:836 6:1523 7:1533 8:1534 9:1535 10:1536 11:1537 12:1538 13:1541 14:1542 
-1.328312383706288 0:14 1:22 2:182 3:582 4:612 5:722 6:1543 7:1544 8:1545 9:1546 10:1547 11:1548 12:1549 13:1550 
-1.328385837842136 0:3 1:26 2:95 3:108 4:150 5:582 6:665 7:694 8:735 9:738 10:1568 11:1569 12:1570 13:1571 14:1572 15:1573 16:1574 17:1575 18:1576 19:1577 20:1578 21:1579 
-1.328304926646977 0:701 1:819 2:1580 
-1.328114740811757 0:55 1:205 2:701 3:1598 4:1599 5:1600 6:1601 7:1602 8:1603 9:1604 10:1605 11:1606 12:1607 13:1608 14:1609 15:1610 16:1611 
-1.221162343162016 0:33 1:38 2:73 3:108 4:694 5:748 6:1612 7:1613 8:1614 9:1615 10:1616 11:1617 12:1618 
-1.209928659460602 0:58 1:77 2:96 3:365 4:701 5:807 6:1529 7:1621 8:1622 9:1623 10:1624 11:1625 12:1626 
-1.328388403151523 0:3 1:26 2:55 3:205 4:259 5:701 6:1627 7:1628 8:1629 9:1630 10:1631 11:1632 12:1633 13:1634 14:1635 
-1.328233115570028 0:3 1:18 2:71 3:89 4:249 5:259 6:318 7:351 8:414 9:530 10:701 11:1539 12:1636 13:1637 14:1638 15:1639 16:1640 17:1641 18:1642 19:1643 
-1.328022930694133 0:237 1:620 2:631 3:701 4:723 5:1614 6:1644 7:1645 8:1646 9:1647 
-1.328025454600376 0:3 1:8 2:73 3:259 4:582 5:620 6:631 7:701 8:723 9:804 10:1614 11:1646 12:1648 13:1649 14:1650 15:1651 
-1.327907912038963 0:26 1:44 2:73 3:96 4:162 5:174 6:303 7:565 8:695 9:701 10:762 11:804 12:813 13:865 14:879 15:880 16:1682 17:1683 18:1684 19:1685 20:1686 21:1687 
-1.328080575329974 0:5 1:22 2:95 3:106 4:340 5:370 6:377 7:551 8:582 9:612 10:810 11:830 12:1589 13:1688 14:1689 15:1690 16:1691 
-1.328029495177797 0:205 1:615 2:660 3:701 4:1508 5:1692 6:1693 7:1694 8:1695 
-1.326502258949658 0:3 1:8 2:26 3:425 4:582 5:807 6:819 7:879 8:1719 9:1720 10:1721 11:1722 12:1723 
-1.328187872924577 0:3 1:26 2:73 3:95 4:150 5:531 6:581 7:582 8:1564 9:1729 10:1730 11:1731 12:1732 13:1733 14:1734 15:1735 16:1736 17:1737 18:1738 
-1.318220651895032 0:3 1:95 2:96 3:512 4:582 5:807 6:1623 7:1757 8:1758 9:1759 10:1760 11:1761 12:1762 
-1.328025776651293 0:3 1:52 2:95 3:237 4:259 5:551 6:582 7:593 8:1639 9:1685 10:1763 11:1764 12:1765 13:1766 14:1767 
-1.327609957334001 0:22 1:23 2:96 3:117 4:156 5:237 6:310 7:582 8:807 9:1768 10:1769 11:1770 12:1771 
-1.328028713818177 0:3 1:18 2:73 3:117 4:259 5:581 6:582 7:697 8:717 9:793 10:816 11:1521 12:1772 13:1773 14:1774 15:1775 
-1.327933902875606 0:3 1:8 2:22 3:44 4:73 5:162 6:259 7:335 8:565 9:581 10:582 11:660 12:792 13:793 14:1519 15:1520 16:1521 17:1776 18:1777 19:1778 
-1.328136842642947 0:3 1:26 2:73 3:259 4:582 5:593 6:620 7:793 8:1787 9:1788 10:1789 11:1790 
-1.328113211228859 0:3 1:581 2:582 3:637 4:1521 5:1612 6:1720 7:1794 8:1795 9:1796 10:1797 
-1.328081730521946 0:3 1:7 2:8 3:14 4:22 5:58 6:87 7:96 8:582 9:733 10:807 11:819 12:1673 13:1798 14:1799 15:1800 16:1801 17:1802 18:1803 19:1804 
-1.327795392891947 0:3 1:581 2:582 3:647 4:793 5:804 6:813 7:830 8:1526 9:1727 10:1805 11:1806 12:1807 13:1808 14:1809 15:1810 16:1811 17:1812 18:1813 
-1.328003697919985 0:3 1:14 2:22 3:73 4:174 5:237 6:310 7:336 8:447 9:551 10:582 11:645 12:647 13:804 14:805 15:806 16:807 17:808 18:809 19:810 20:811 21:812 22:813 23:814 
-1.327877586954143 0:58 1:649 2:807 3:859 4:1622 5:1623 6:1839 7:1840 8:1841 9:1842 
-1.328119925153597 0:96 1:581 2:601 3:1624 4:1845 5:1846 6:1847 7:1848 
-1.327643605994873 0:22 1:58 2:581 3:633 4:734 5:1622 6:1623 7:1839 8:1849 9:1850 10:1851 11:1852 12:1853 
-1.328236107458451 0:22 1:46 2:58 3:108 4:117 5:376 6:581 7:793 8:1622 9:1623 10:1860 11:1861 
-1.328016708184343 0:3 1:8 2:14 3:22 4:34 5:58 6:106 7:371 8:582 9:631 10:792 11:807 12:1795 13:1865 
-1.32801333376273 0:581 1:792 2:793 3:816 4:859 5:1866 6:1867 7:1868 8:1869 9:1870 10:1871 11:1872 
-1.327789251366505 0:3 1:8 2:10 3:22 4:26 5:33 6:73 7:95 8:217 9:475 10:593 11:792 12:793 13:1655 14:1763 15:1784 16:1873 17:1874 18:1875 19:1876 
-1.327847823001224 0:18 1:22 2:58 3:73 4:75 5:104 6:105 7:581 8:609 9:792 10:793 11:820 12:830 13:1868 14:1877 15:1878 
-1.327783448301533 0:38 1:40 2:581 3:859 4:1589 5:1719 6:1869 7:1886 8:1887 9:1888 10:1889 11:1890 12:1891 
-1.326540083505792 0:22 1:25 2:206 3:631 4:648 5:766 6:792 7:807 8:1639 9:1900 10:1901 11:1902 12:1903 
-1.327895690082054 0:34 1:68 2:151 3:246 4:581 5:620 6:792 7:1534 8:1904 9:1905 10:1906 11:1907 12:1908 13:1909 
-1.327841670234379 0:3 1:73 2:582 3:620 4:633 5:1691 6:1937 7:1938 8:1939 
-1.327907912038964 0:3 1:14 2:33 3:73 4:249 5:523 6:581 7:582 8:631 9:1381 10:2058 11:2059 12:2060 13:2061 14:2062 15:2063 
-1.327845260698835 0:3 1:22 2:33 3:55 4:121 5:249 6:523 7:581 8:582 9:792 10:1685 11:2065 12:2066 13:2067 14:2068 15:2069 16:2070 17:2071 18:2072 
-1.396804773365869 0:70 1:581 2:582 3:1834 4:2073 
-1.328294176334969 0:3 1:18 2:73 3:259 4:581 5:582 6:717 7:793 8:816 9:1521 10:1772 11:1773 12:1774 13:2087 14:2088 
-1.327983195090681 0:26 1:58 2:59 3:237 4:259 5:310 6:603 7:604 8:647 9:701 10:1559 11:1622 12:2067 13:2089 14:2090 15:2091 16:2092 17:2093 
-1.327969764458356 0:8 1:391 2:593 3:652 4:660 5:724 6:792 7:793 8:1534 9:1639 10:1898 11:2099 12:2100 13:2101 14:2102 15:2103 16:2104 17:2105 
-1.327748141759535 0:96 1:581 2:633 3:1504 4:2106 5:2107 6:2108 7:2109 
-1.328032763550484 0:581 1:715 2:1924 3:2110 4:2111 5:2112 6:2113 7:2114 8:2115 
-1.328515343093214 0:38 1:593 2:596 3:715 4:734 5:850 6:2116 7:2117 8:2118 9:2119 10:2120 11:2121 12:2122 13:2123 
-1.3281170913691 0:22 1:58 2:59 3:70 4:73 5:95 6:96 7:259 8:310 9:318 10:512 11:581 12:582 13:609 14:612 15:1717 16:2149 17:2150 18:2151 19:2152 
-1.058743335034499 0:10 1:73 2:259 3:340 4:551 5:581 6:701 7:804 8:1729 9:2106 10:2153 11:2154 12:2155 13:2156 14:2157 
-1.327804715860767 0:3 1:8 2:44 3:58 4:212 5:582 6:631 7:701 8:793 9:804 10:807 11:819 12:2158 13:2159 14:2160 15:2161 16:2162 17:2163 18:2164 
-1.328254025763523 0:10 1:18 2:22 3:37 4:55 5:71 6:259 7:275 8:462 9:576 10:582 11:612 12:705 13:756 14:1834 15:2194 16:2195 17:2196 18:2197 19:2198 
-1.059169132954746 0:3 1:7 2:162 3:370 4:594 5:637 6:701 7:854 8:1784 9:2199 10:2200 11:2201 12:2202 13:2203 14:2204 
-0.6557636703117041 0:8 1:10 2:71 3:594 4:701 5:854 6:2200 7:2201 8:2202 9:2205 10:2206 11:2207 12:2208 13:2209 14:2210 15:2211 
-1.328385078988199 0:10 1:22 2:507 3:701 4:816 5:1521 6:1734 7:2212 8:2213 9:2214 10:2215 11:2216 12:2217 13:2218 14:2219 15:2220 16:2221 
-0.6746297526875482 0:8 1:10 2:71 3:594 4:701 5:854 6:2200 7:2201 8:2202 9:2205 10:2206 11:2207 12:2208 13:2209 14:2210 15:2222 
-1.327847799216708 0:3 1:5 2:10 3:22 4:73 5:75 6:249 7:294 8:365 9:582 10:701 11:1519 12:1520 13:1709 14:1734 15:2233 16:2234 17:2235 18:2236 19:2237 20:2238 
-1.327954221379152 0:3 1:75 2:249 3:701 4:1519 5:1520 6:2233 7:2234 8:2235 9:2239 
-1.327776856853831 0:812 1:2201 2:2412 3:2413 4:2414 5:2415 6:2416 7:2417 8:2418 9:2419 10:2420 
-1.327949972656721 0:33 1:205 2:701 3:1612 4:1617 5:2421 6:2422 
-1.328299817074926 0:8 1:23 2:26 3:55 4:259 5:625 6:701 7:804 8:1676 9:2424 10:2425 11:2426 12:2427 13:2428 
-1.327705470059648 0:5 1:22 2:26 3:73 4:119 5:310 6:582 7:612 8:1655 9:2164 10:2444 11:2445 12:2446 13:2447 14:2448 15:2449 16:2450 17:2451 
-1.327847042717678 0:3 1:5 2:73 3:701 4:2452 5:2453 6:2454 
-1.328497500327511 0:3 1:10 2:44 3:425 4:595 5:701 6:804 7:819 8:820 9:2212 10:2455 11:2456 12:2457 13:2458 14:2459 
-1.32801832722886 0:14 1:25 2:55 3:212 4:259 5:551 6:595 7:701 8:2462 9:2463 10:2464 11:2465 12:2466 13:2467 14:2468 15:2469 
-1.327796064759278 0:3 1:22 2:37 3:58 4:75 5:370 6:582 7:793 8:804 9:807 10:1589 11:1806 12:2498 13:2506 14:2507 15:2508 16:2509 17:2510 
-1.327792896334729 0:166 1:581 2:620 3:652 4:792 5:793 6:1589 7:1905 8:2520 
-1.327986273916767 0:33 1:581 2:633 3:792 4:1612 5:1617 6:1794 7:2521 8:2522 9:2523 
-1.328097789552461 0:581 1:792 2:793 3:2531 4:2532 5:2533 
-1.32782438598247 0:34 1:73 2:151 3:259 4:310 5:551 6:565 7:701 8:1381 9:2059 10:2553 11:2554 12:2555 
-1.32804342681076 0:205 1:701 2:724 3:1644 4:1773 5:2478 6:2556 7:2557 8:2558 
-1.327776083350713 0:3 1:14 2:33 3:55 4:58 5:68 6:99 7:144 8:498 9:581 10:582 11:600 12:601 13:1759 14:2551 15:2565 16:2566 17:2567 
-1.328517398726799 0:10 1:14 2:33 3:68 4:73 5:91 6:151 7:212 8:237 9:310 10:565 11:609 12:820 13:1874 14:2564 15:2568 16:2569 17:2570 18:2571 19:2572 20:2573 21:2574 
-1.328017074967025 0:26 1:63 2:303 3:594 4:1733 5:2451 6:2572 7:2579 8:2580 9:2581 10:2582 11:2583 12:2584 13:2585 14:2586 15:2587 
-1.323789989930388 0:33 1:68 2:73 3:91 4:101 5:150 6:376 7:475 8:632 9:671 10:809 11:810 12:1763 13:2331 14:2588 15:2589 16:2590 17:2591 18:2592 19:2593 
-1.327863357751113 0:3 1:8 2:22 3:73 4:95 5:294 6:447 7:793 8:810 9:813 10:880 11:1760 12:1800 13:2594 14:2595 15:2596 16:2597 
-1.327969764458356 0:3 1:33 2:95 3:150 4:259 5:432 6:551 7:725 8:810 9:1800 10:2598 11:2599 12:2600 13:2601 14:2602 15:2603 16:2604 17:2605 18:2606 19:2607 20:2608 
-1.328053727853105 0:3 1:73 2:75 3:95 4:117 5:150 6:151 7:565 8:582 9:635 10:810 11:1564 12:2609 
-1.32804342681076 0:10 1:14 2:26 3:38 4:73 5:95 6:99 7:237 8:551 9:771 10:806 11:810 12:1523 13:1533 14:1628 15:1729 16:2564 17:2608 18:2610 19:2611 20:2612 21:2613 
-1.327906161684706 0:3 1:8 2:10 3:22 4:26 5:146 6:425 7:807 8:810 9:1723 10:1874 11:2116 12:2572 13:2614 14:2615 15:2616 16:2617 17:2618 18:2619 
-1.327900996005499 0:8 1:58 2:73 3:370 4:530 5:558 6:660 7:1533 8:1589 9:2564 10:2608 11:2620 
-1.328594025128874 0:8 1:33 2:68 3:73 4:370 5:558 6:660 7:804 8:1533 9:1589 10:2564 11:2608 12:2621 13:2622 14:2623 
-1.327893260752512 0:99 1:495 2:1533 3:2564 4:2624 5:2625 
-1.323507591984759 0:14 1:44 2:73 3:150 4:151 5:237 6:269 7:565 8:706 9:804 10:879 11:880 12:1523 13:2564 14:2572 15:2626 16:2627 17:2628 18:2629 19:2630 
