svm_type c_svc
kernel_type rbf
gamma 0.125
nr_class 2
total_sv 499
rho -0.435949
label 0 1
probA -8.2
probB 2.60728
nr_sv 384 115
SV
0.4021033418029814 1:1 2:1 3:1 4:1 5:1 6:1 7:1 8:1 9:1 10:1 11:1 12:1 13:1 14:1 15:1 16:1 17:1 
0.3990531497999686 5:1 9:1 11:1 18:1 19:1 20:1 21:1 22:1 23:1 24:1 25:1 26:1 27:1 28:1 29:1 30:1 31:1 32:1 33:1 34:1 35:1 
0.46124470797788 15:1 36:1 37:1 38:1 39:1 40:1 41:1 42:1 43:1 44:1 45:1 46:1 47:1 48:1 
0.3256906009631187 54:1 55:1 56:1 57:1 58:1 59:1 
0.2218091002121484 23:1 60:1 61:1 62:1 63:1 64:1 
0.3173665160066007 32:1 65:1 66:1 67:1 68:1 69:1 70:1 71:1 72:1 73:1 
0.1378588996893103 11:1 50:1 72:1 74:1 75:1 76:1 77:1 78:1 
0.4048842630922553 79:1 80:1 81:1 82:1 83:1 84:1 85:1 86:1 
0.2926869956546099 5:1 15:1 19:1 52:1 72:1 87:1 88:1 89:1 90:1 91:1 92:1 93:1 94:1 95:1 96:1 97:1 98:1 
0.4178062354675923 9:1 11:1 19:1 23:1 26:1 32:1 57:1 59:1 99:1 100:1 101:1 102:1 103:1 104:1 105:1 106:1 107:1 108:1 109:1 110:1 111:1 
0.3046209194331682 11:1 112:1 113:1 114:1 115:1 116:1 117:1 118:1 119:1 
0.3374591084083899 3:1 15:1 27:1 52:1 120:1 121:1 122:1 123:1 124:1 125:1 126:1 127:1 128:1 129:1 130:1 
0.2830462827733959 58:1 72:1 133:1 134:1 135:1 136:1 137:1 138:1 139:1 
0.3459489421877692 5:1 140:1 141:1 142:1 143:1 144:1 145:1 146:1 
0.435691186252221 5:1 9:1 11:1 15:1 58:1 74:1 152:1 156:1 157:1 158:1 159:1 160:1 161:1 162:1 163:1 164:1 165:1 166:1 167:1 168:1 169:1 170:1 171:1 172:1 
0.3850669107768068 3:1 5:1 6:1 9:1 23:1 32:1 55:1 96:1 116:1 159:1 173:1 174:1 175:1 176:1 177:1 178:1 179:1 180:1 181:1 182:1 
0.4015495191459689 96:1 183:1 184:1 185:1 186:1 187:1 188:1 189:1 190:1 191:1 192:1 
0.4877551420534277 9:1 19:1 58:1 92:1 127:1 144:1 146:1 151:1 193:1 194:1 195:1 196:1 197:1 198:1 199:1 200:1 201:1 202:1 203:1 204:1 205:1 206:1 207:1 208:1 209:1 210:1 
0.4477320380799252 5:1 8:1 9:1 27:1 88:1 164:1 207:1 211:1 212:1 213:1 214:1 215:1 216:1 217:1 218:1 219:1 220:1 
0.009302686806518511 221:1 222:1 
0.1199948990738175 9:1 23:1 32:1 45:1 50:1 69:1 74:1 127:1 165:1 223:1 224:1 225:1 226:1 227:1 
0.2160456440146913 11:1 15:1 228:1 229:1 230:1 231:1 232:1 233:1 
0.3450337011985698 6:1 9:1 32:1 55:1 234:1 235:1 236:1 237:1 238:1 239:1 240:1 241:1 242:1 
0.4308645249964256 5:1 37:1 74:1 157:1 243:1 244:1 245:1 246:1 247:1 248:1 249:1 250:1 251:1 252:1 253:1 254:1 255:1 256:1 
0.00934785114957597 257:1 258:1 
0.1918625185974946 239:1 259:1 260:1 261:1 
0.1593255527509376 9:1 23:1 262:1 263:1 264:1 265:1 266:1 267:1 268:1 269:1 
0.323916012426585 48:1 69:1 147:1 152:1 259:1 270:1 271:1 272:1 273:1 274:1 275:1 276:1 
0.4192598753073745 11:1 15:1 55:1 117:1 277:1 278:1 279:1 280:1 281:1 282:1 283:1 284:1 285:1 286:1 
0.05978683539834665 9:1 45:1 287:1 288:1 289:1 290:1 
0.1843315296883941 9:1 15:1 24:1 32:1 92:1 143:1 146:1 157:1 259:1 291:1 292:1 293:1 294:1 295:1 296:1 
0.354002683629057 3:1 15:1 23:1 32:1 69:1 72:1 77:1 166:1 207:1 236:1 297:1 298:1 299:1 300:1 301:1 302:1 303:1 304:1 
0.3523074995505494 3:1 9:1 23:1 27:1 48:1 54:1 68:1 92:1 110:1 305:1 306:1 307:1 308:1 309:1 310:1 311:1 312:1 313:1 
0.3044610108714728 8:1 48:1 152:1 176:1 307:1 314:1 315:1 316:1 317:1 318:1 319:1 
0.3894088699673367 58:1 320:1 321:1 322:1 323:1 324:1 325:1 
0.4579120847256919 9:1 11:1 27:1 55:1 92:1 218:1 275:1 326:1 327:1 328:1 329:1 330:1 331:1 332:1 333:1 334:1 335:1 336:1 337:1 338:1 
0.1193068829076112 342:1 343:1 344:1 
0.450361128188939 3:1 5:1 9:1 11:1 15:1 23:1 32:1 50:1 88:1 218:1 239:1 317:1 345:1 346:1 347:1 348:1 349:1 350:1 351:1 352:1 353:1 354:1 355:1 356:1 357:1 358:1 
0.3959224211422565 6:1 9:1 59:1 72:1 127:1 151:1 152:1 182:1 259:1 334:1 359:1 360:1 361:1 362:1 363:1 364:1 365:1 366:1 367:1 
0.1722274058271723 15:1 19:1 23:1 32:1 58:1 69:1 77:1 107:1 109:1 320:1 368:1 369:1 
0.2620216157382336 5:1 11:1 19:1 23:1 96:1 116:1 239:1 370:1 371:1 372:1 373:1 
0.2957107614875891 24:1 141:1 239:1 374:1 375:1 376:1 377:1 378:1 
0.3158421086116189 11:1 32:1 48:1 74:1 88:1 218:1 239:1 346:1 379:1 380:1 381:1 382:1 383:1 384:1 385:1 386:1 
0.2682746448937138 3:1 9:1 23:1 24:1 52:1 74:1 165:1 252:1 351:1 387:1 388:1 389:1 390:1 391:1 392:1 393:1 394:1 395:1 
0.05276723148324881 19:1 32:1 48:1 176:1 268:1 396:1 397:1 398:1 
0.4469597390654834 9:1 15:1 23:1 32:1 45:1 48:1 52:1 55:1 69:1 92:1 97:1 117:1 151:1 205:1 351:1 399:1 400:1 401:1 402:1 403:1 404:1 405:1 406:1 407:1 408:1 409:1 
0.02968685802429649 410:1 411:1 412:1 
0.3430059818288245 5:1 72:1 410:1 413:1 414:1 415:1 416:1 417:1 418:1 419:1 420:1 
0.5165081934082024 27:1 183:1 421:1 422:1 423:1 424:1 425:1 426:1 427:1 428:1 429:1 430:1 431:1 432:1 433:1 434:1 435:1 436:1 437:1 438:1 439:1 
0.2796474452957697 23:1 32:1 48:1 107:1 109:1 391:1 440:1 441:1 442:1 443:1 444:1 445:1 
0.4314124402374154 47:1 96:1 204:1 259:1 334:1 446:1 447:1 448:1 449:1 450:1 451:1 452:1 453:1 454:1 455:1 456:1 457:1 
0.4384245545492361 3:1 9:1 11:1 23:1 26:1 69:1 74:1 75:1 97:1 410:1 458:1 459:1 460:1 461:1 462:1 463:1 464:1 465:1 466:1 467:1 468:1 469:1 
0.3926244518943878 6:1 23:1 32:1 74:1 97:1 107:1 109:1 180:1 470:1 471:1 472:1 473:1 474:1 475:1 476:1 477:1 478:1 479:1 480:1 
0.4341921245220742 6:1 9:1 11:1 15:1 19:1 48:1 52:1 72:1 74:1 92:1 97:1 239:1 259:1 481:1 482:1 483:1 484:1 485:1 486:1 487:1 488:1 489:1 490:1 491:1 492:1 
0.4036830039175594 9:1 23:1 58:1 69:1 259:1 268:1 493:1 494:1 495:1 496:1 497:1 498:1 499:1 500:1 501:1 502:1 503:1 
0.4434627027957743 9:1 11:1 54:1 461:1 504:1 505:1 506:1 507:1 508:1 509:1 510:1 511:1 512:1 513:1 514:1 515:1 516:1 517:1 
0.4484843215731867 5:1 6:1 9:1 23:1 32:1 69:1 74:1 144:1 157:1 165:1 239:1 259:1 393:1 518:1 519:1 520:1 521:1 522:1 523:1 524:1 525:1 526:1 527:1 528:1 529:1 
0.3785509900462906 3:1 6:1 15:1 23:1 37:1 118:1 268:1 419:1 530:1 531:1 532:1 533:1 534:1 535:1 536:1 537:1 
0.3197244725640815 3:1 32:1 48:1 68:1 88:1 152:1 252:1 538:1 539:1 540:1 541:1 542:1 543:1 544:1 545:1 546:1 
0.2884243549140442 9:1 11:1 15:1 32:1 58:1 59:1 74:1 100:1 109:1 180:1 246:1 334:1 406:1 547:1 548:1 549:1 550:1 
0.4159355672122422 3:1 9:1 23:1 24:1 27:1 37:1 74:1 78:1 152:1 207:1 255:1 351:1 551:1 552:1 553:1 554:1 555:1 556:1 557:1 558:1 559:1 560:1 561:1 
0.2771134907009239 11:1 23:1 562:1 563:1 564:1 565:1 566:1 567:1 
0.3648648558388089 9:1 11:1 27:1 48:1 246:1 259:1 268:1 339:1 568:1 569:1 570:1 571:1 572:1 573:1 574:1 
0.3670044662988255 3:1 9:1 74:1 97:1 577:1 609:1 610:1 611:1 612:1 
0.4303039356292171 3:1 11:1 15:1 23:1 48:1 74:1 76:1 92:1 96:1 97:1 109:1 347:1 539:1 559:1 611:1 613:1 614:1 615:1 616:1 617:1 618:1 619:1 
1.145990664307355 3:1 577:1 620:1 621:1 622:1 
0.5010730614089652 3:1 9:1 27:1 50:1 58:1 74:1 320:1 592:1 622:1 650:1 651:1 652:1 653:1 654:1 655:1 656:1 657:1 658:1 659:1 660:1 661:1 
0.2403013744169356 3:1 9:1 23:1 83:1 127:1 202:1 237:1 259:1 611:1 662:1 663:1 664:1 
0.4770930634927651 3:1 9:1 11:1 37:1 102:1 164:1 295:1 546:1 560:1 611:1 665:1 666:1 667:1 668:1 669:1 670:1 671:1 672:1 
0.4393348619969017 12:1 15:1 23:1 58:1 207:1 262:1 673:1 674:1 675:1 676:1 677:1 678:1 679:1 680:1 681:1 
0.2732569583547532 5:1 23:1 116:1 134:1 182:1 334:1 605:1 682:1 683:1 
0.3792333653030564 3:1 9:1 23:1 32:1 54:1 55:1 59:1 118:1 239:1 268:1 474:1 656:1 684:1 685:1 686:1 687:1 688:1 689:1 690:1 691:1 
0.9577988583125361 5:1 152:1 239:1 560:1 692:1 693:1 694:1 695:1 696:1 697:1 698:1 699:1 
0.5214268855952937 9:1 11:1 23:1 24:1 58:1 74:1 109:1 117:1 141:1 151:1 164:1 165:1 203:1 246:1 526:1 693:1 717:1 718:1 719:1 720:1 721:1 722:1 723:1 724:1 725:1 
0.4457081559874522 9:1 19:1 31:1 32:1 72:1 74:1 239:1 259:1 393:1 688:1 739:1 745:1 746:1 747:1 748:1 749:1 750:1 751:1 752:1 753:1 754:1 755:1 756:1 
0.4445882840248933 3:1 9:1 15:1 19:1 32:1 55:1 69:1 239:1 611:1 613:1 739:1 759:1 760:1 761:1 762:1 763:1 764:1 765:1 766:1 767:1 768:1 
0.4618864957545521 3:1 55:1 96:1 239:1 274:1 739:1 793:1 794:1 795:1 796:1 797:1 
0.4221905581196839 6:1 9:1 11:1 74:1 180:1 335:1 362:1 449:1 531:1 605:1 820:1 821:1 822:1 823:1 824:1 825:1 826:1 
0.503691783229996 3:1 9:1 32:1 59:1 74:1 96:1 100:1 180:1 208:1 218:1 259:1 268:1 418:1 577:1 710:1 727:1 827:1 828:1 829:1 830:1 831:1 832:1 833:1 
0.4464788099841971 52:1 92:1 127:1 246:1 249:1 259:1 263:1 268:1 269:1 588:1 620:1 850:1 863:1 864:1 865:1 866:1 
0.1320314701859369 867:1 868:1 869:1 
0.3145204099761056 255:1 871:1 872:1 873:1 874:1 875:1 876:1 877:1 878:1 879:1 
0.05610812927054333 871:1 872:1 882:1 883:1 
0.05617159729656659 871:1 872:1 884:1 885:1 
0.3647123453557687 5:1 886:1 887:1 888:1 889:1 890:1 891:1 
0.05673887474136251 871:1 872:1 892:1 893:1 
0.1320483766175768 894:1 895:1 896:1 
0.1305430507209731 302:1 401:1 901:1 902:1 903:1 
0.009234691593784837 912:1 913:1 
0.1320459196828786 914:1 915:1 916:1 
0.01155734604876063 59:1 917:1 918:1 
0.2889158113503894 906:1 907:1 908:1 909:1 910:1 911:1 
0.2506912947777091 921:1 922:1 923:1 924:1 925:1 
0.1319387078984644 926:1 927:1 928:1 
0.2884112924296869 933:1 934:1 935:1 936:1 937:1 938:1 
0.2511123408429727 939:1 940:1 941:1 942:1 943:1 
0.08510182128240584 946:1 947:1 948:1 
0.3371891786350255 3:1 52:1 76:1 269:1 950:1 951:1 
0.1623509534793793 871:1 872:1 952:1 953:1 954:1 
0.05608892462884577 871:1 872:1 955:1 956:1 
0.05673887474136247 871:1 872:1 958:1 959:1 
0.0560889246288454 871:1 872:1 960:1 961:1 
0.225306135750013 962:1 963:1 964:1 965:1 966:1 
0.1009092668553618 3:1 19:1 967:1 968:1 969:1 970:1 971:1 
0.2509626861222386 975:1 976:1 977:1 978:1 979:1 
0.3063507454713527 27:1 980:1 981:1 982:1 983:1 
0.2516134684455953 984:1 985:1 986:1 987:1 988:1 
0.3198331027684999 989:1 990:1 991:1 992:1 993:1 994:1 995:1 
0.1319139598289742 996:1 997:1 998:1 
0.1407590798448081 23:1 24:1 1004:1 1005:1 1006:1 1007:1 1008:1 
0.2018920515775847 1010:1 1011:1 1012:1 1013:1 
0.2506756767510357 1014:1 1015:1 1016:1 1017:1 1018:1 
0.2351984528045546 1019:1 1020:1 1021:1 1022:1 1023:1 1024:1 
0.2389347659002343 946:1 1025:1 1026:1 1027:1 1028:1 
0.2017958095508141 1030:1 1031:1 1032:1 1033:1 
0.2985955535300516 811:1 1035:1 1036:1 1037:1 
0.2320513311156336 1046:1 1047:1 1048:1 1049:1 1050:1 
0.009428823166178308 1051:1 1052:1 
0.009490334027373743 1053:1 1054:1 
0.174961284168951 48:1 962:1 1055:1 
0.3124526739929869 120:1 903:1 1056:1 1057:1 1058:1 1059:1 1060:1 1061:1 
0.00988090559066556 1064:1 1065:1 
0.00591650071368837 1074:1 1075:1 
0.1503875630904045 302:1 1080:1 1081:1 1082:1 1083:1 
0.1051462585612977 1002:1 1084:1 1085:1 
0.2956033566658685 5:1 1089:1 1090:1 1091:1 
0.009566550079249352 1092:1 1093:1 
0.0104027697268685 1095:1 1096:1 
0.008107953636160365 1074:1 1097:1 
0.00969655883841058 1098:1 1099:1 
0.01023591972448522 1100:1 1101:1 
0.1316441636631287 1103:1 1104:1 1105:1 
0.1571516117332619 1114:1 1115:1 1116:1 1117:1 
0.1960054391976917 1114:1 1118:1 1119:1 1120:1 1121:1 
0.3455946404291329 27:1 81:1 1038:1 1120:1 1122:1 1123:1 1124:1 1125:1 1126:1 
0.2019446362492301 1130:1 1131:1 1132:1 1133:1 
0.1458111277562696 302:1 1080:1 1139:1 1140:1 1141:1 
0.01005093596164488 1145:1 1146:1 
0.1322653635131174 1147:1 1148:1 1149:1 
0.2986572297294365 9:1 23:1 24:1 27:1 32:1 92:1 96:1 165:1 345:1 528:1 605:1 657:1 1198:1 1199:1 1200:1 1201:1 1202:1 1203:1 1204:1 
0.4889895007164801 11:1 24:1 88:1 116:1 127:1 147:1 180:1 312:1 339:1 605:1 656:1 1205:1 1206:1 1207:1 1208:1 1209:1 1210:1 1211:1 1212:1 1213:1 1214:1 
0.5852764961535049 8:1 9:1 23:1 32:1 48:1 54:1 58:1 74:1 76:1 83:1 97:1 180:1 182:1 360:1 611:1 693:1 1226:1 1227:1 1228:1 1229:1 1230:1 
0.407058074180048 3:1 11:1 74:1 289:1 1231:1 1232:1 1233:1 1234:1 1235:1 1236:1 1237:1 1238:1 1239:1 1240:1 1241:1 1242:1 
0.1564340522647823 19:1 59:1 165:1 737:1 1260:1 1261:1 
0.3001525257145217 23:1 74:1 605:1 760:1 1294:1 1295:1 1296:1 1297:1 1298:1 
0.2865619124759636 3:1 32:1 92:1 109:1 208:1 300:1 518:1 686:1 1299:1 1300:1 1301:1 1302:1 1303:1 
0.4837322545875131 6:1 9:1 11:1 15:1 19:1 48:1 55:1 97:1 259:1 334:1 408:1 418:1 559:1 611:1 617:1 625:1 669:1 686:1 1281:1 1304:1 1305:1 1306:1 1307:1 1308:1 1309:1 1310:1 
0.4779001897850273 11:1 19:1 23:1 59:1 68:1 82:1 96:1 165:1 180:1 214:1 287:1 312:1 471:1 514:1 605:1 611:1 823:1 1023:1 1311:1 1312:1 1313:1 1314:1 1315:1 1316:1 
0.4538642913090579 9:1 23:1 55:1 166:1 243:1 461:1 506:1 602:1 686:1 1317:1 1318:1 1319:1 1320:1 1321:1 1322:1 
0.6194579492485639 3:1 9:1 11:1 23:1 74:1 176:1 197:1 206:1 518:1 542:1 693:1 864:1 1339:1 1340:1 1341:1 1342:1 
0.3234742493692826 58:1 61:1 302:1 1233:1 1343:1 1344:1 1345:1 1346:1 1347:1 
0.7150726234996649 9:1 27:1 43:1 82:1 127:1 164:1 560:1 602:1 693:1 1348:1 1349:1 1350:1 1351:1 1352:1 1353:1 1354:1 1355:1 1356:1 
0.3393052576559785 9:1 141:1 151:1 152:1 157:1 457:1 559:1 605:1 656:1 831:1 1209:1 1357:1 1358:1 1359:1 1360:1 1361:1 
0.4962771797089344 11:1 32:1 74:1 90:1 97:1 107:1 118:1 127:1 165:1 315:1 347:1 474:1 546:1 552:1 559:1 576:1 833:1 1367:1 1368:1 1369:1 1370:1 1371:1 
0.4376147229539196 3:1 8:1 9:1 11:1 15:1 151:1 316:1 446:1 577:1 1381:1 1382:1 1383:1 1384:1 1385:1 1386:1 1387:1 1388:1 1389:1 1390:1 
0.3681983655499246 3:1 9:1 23:1 24:1 32:1 58:1 74:1 110:1 208:1 290:1 470:1 471:1 474:1 482:1 597:1 1203:1 1391:1 1392:1 1393:1 1394:1 1395:1 1396:1 
0.5164386653515195 3:1 15:1 577:1 586:1 623:1 787:1 1418:1 1419:1 
0.6106304786324134 3:1 5:1 6:1 27:1 58:1 72:1 122:1 575:1 577:1 597:1 825:1 1356:1 1372:1 1420:1 1421:1 1422:1 1423:1 1424:1 1425:1 
0.09443503663897358 23:1 74:1 92:1 97:1 158:1 182:1 586:1 1203:1 1430:1 1431:1 1432:1 
0.4193531939488269 27:1 42:1 60:1 165:1 525:1 577:1 610:1 1454:1 1455:1 1456:1 1457:1 1458:1 1459:1 
0.5023140764914713 3:1 9:1 32:1 131:1 179:1 576:1 1203:1 1460:1 1461:1 1462:1 
0.6868113529819917 3:1 9:1 23:1 311:1 339:1 397:1 576:1 577:1 594:1 662:1 814:1 1007:1 1464:1 1465:1 1466:1 1467:1 1468:1 1469:1 1470:1 
1.094049713004557 3:1 76:1 259:1 312:1 364:1 419:1 577:1 586:1 588:1 787:1 1234:1 1471:1 1472:1 
0.397446519146458 3:1 9:1 15:1 19:1 32:1 69:1 74:1 165:1 235:1 457:1 470:1 474:1 576:1 593:1 594:1 1203:1 1261:1 1473:1 
0.7853426977317859 3:1 15:1 43:1 164:1 560:1 577:1 586:1 623:1 651:1 787:1 1419:1 1474:1 1475:1 
0.2367008562603727 32:1 48:1 419:1 1048:1 1199:1 1476:1 1477:1 1478:1 
0.3413006600415113 107:1 586:1 1264:1 1441:1 1483:1 1484:1 
0.5209721752519859 9:1 11:1 26:1 48:1 52:1 58:1 74:1 92:1 107:1 111:1 116:1 151:1 474:1 559:1 688:1 689:1 801:1 1263:1 1264:1 1381:1 1490:1 1491:1 1492:1 1493:1 1494:1 1495:1 
0.34797671007127 32:1 52:1 74:1 91:1 92:1 127:1 259:1 351:1 391:1 396:1 419:1 482:1 586:1 786:1 1498:1 1499:1 1500:1 
0.6627941077951582 9:1 26:1 97:1 157:1 166:1 259:1 576:1 689:1 786:1 1261:1 1383:1 1514:1 1515:1 1516:1 1517:1 1518:1 1519:1 1520:1 
0.4932063088136711 3:1 27:1 74:1 259:1 496:1 597:1 786:1 863:1 1527:1 1528:1 1529:1 1530:1 1531:1 1532:1 1533:1 
0.6028984281002125 3:1 57:1 71:1 801:1 1340:1 1530:1 1545:1 1546:1 1547:1 1548:1 
0.8663061008814196 3:1 586:1 786:1 1549:1 1550:1 
0.3115767842660019 9:1 84:1 594:1 919:1 1215:1 1551:1 1552:1 1553:1 1554:1 1555:1 
0.2281240745129214 37:1 74:1 102:1 458:1 665:1 1215:1 1556:1 1557:1 1558:1 1559:1 
0.5297320549166135 3:1 11:1 23:1 27:1 58:1 95:1 128:1 446:1 456:1 529:1 577:1 1215:1 1311:1 1366:1 1370:1 1560:1 1561:1 1562:1 1563:1 1564:1 1565:1 1566:1 
0.4566121910267836 5:1 31:1 32:1 175:1 239:1 316:1 334:1 494:1 650:1 727:1 826:1 1215:1 1567:1 1568:1 1569:1 1570:1 
0.3453290800262381 32:1 74:1 111:1 556:1 638:1 816:1 1220:1 1573:1 1574:1 1575:1 1576:1 1577:1 1578:1 1579:1 1580:1 1581:1 1582:1 1583:1 1584:1 1585:1 1586:1 
0.408190202745248 32:1 33:1 64:1 111:1 442:1 642:1 816:1 1107:1 1220:1 1577:1 1578:1 1585:1 1587:1 1588:1 1589:1 1590:1 1591:1 1592:1 1593:1 1594:1 1595:1 1596:1 1597:1 1598:1 
0.3254197770442655 32:1 64:1 111:1 442:1 556:1 638:1 642:1 816:1 1220:1 1574:1 1577:1 1585:1 1587:1 1594:1 1599:1 1600:1 1601:1 1602:1 1603:1 1604:1 1605:1 1606:1 
0.4180116797515053 23:1 32:1 64:1 102:1 111:1 556:1 638:1 642:1 1107:1 1220:1 1221:1 1321:1 1574:1 1577:1 1578:1 1584:1 1587:1 1589:1 1592:1 1594:1 1607:1 1608:1 1609:1 1610:1 1611:1 
0.2337826084481644 32:1 74:1 111:1 442:1 556:1 638:1 642:1 816:1 1220:1 1577:1 1579:1 1581:1 1583:1 1587:1 1592:1 1602:1 1609:1 1612:1 1613:1 1614:1 1615:1 
0.8844121829559748 3:1 9:1 27:1 71:1 74:1 312:1 577:1 586:1 716:1 863:1 1180:1 1363:1 1364:1 1622:1 
0.651354087746429 3:1 37:1 59:1 74:1 165:1 350:1 576:1 577:1 593:1 594:1 1309:1 1632:1 1633:1 1634:1 1635:1 1636:1 
0.6549480028611163 3:1 19:1 20:1 23:1 27:1 32:1 59:1 74:1 106:1 239:1 259:1 339:1 560:1 576:1 577:1 622:1 1192:1 1333:1 1637:1 1638:1 1639:1 1640:1 1641:1 1642:1 
0.4081195815732212 23:1 57:1 107:1 238:1 442:1 586:1 1263:1 1650:1 1651:1 1652:1 1653:1 1654:1 1655:1 
0.4741522928605395 9:1 11:1 15:1 48:1 52:1 92:1 127:1 164:1 259:1 295:1 494:1 516:1 546:1 623:1 727:1 1176:1 1667:1 1679:1 1680:1 1681:1 1682:1 1683:1 1684:1 
0.4557245230516042 15:1 78:1 290:1 903:1 1080:1 1109:1 1120:1 1373:1 1667:1 1685:1 1686:1 1687:1 1688:1 1689:1 1690:1 1691:1 1692:1 1693:1 
0.4461627946601254 8:1 15:1 32:1 295:1 714:1 787:1 1530:1 1667:1 1694:1 1695:1 
0.517256112262571 6:1 9:1 27:1 48:1 92:1 97:1 259:1 339:1 548:1 576:1 1332:1 1696:1 1697:1 1698:1 1699:1 1700:1 
0.5149885489417158 23:1 74:1 96:1 117:1 239:1 371:1 474:1 576:1 605:1 656:1 657:1 688:1 872:1 1023:1 1651:1 1718:1 1719:1 1720:1 1721:1 1722:1 1723:1 1724:1 1725:1 1726:1 
0.4606067510672519 5:1 23:1 32:1 74:1 100:1 116:1 181:1 252:1 370:1 480:1 518:1 605:1 767:1 1697:1 1717:1 1727:1 1728:1 1729:1 1730:1 
0.1941296762286199 11:1 74:1 153:1 287:1 686:1 876:1 1038:1 1294:1 1731:1 1732:1 1733:1 1734:1 
0.3149531909621464 48:1 686:1 1381:1 1735:1 1736:1 1737:1 1738:1 
1.510904476902634 58:1 693:1 1739:1 1740:1 1741:1 1742:1 
0.6209084273253108 9:1 19:1 32:1 55:1 518:1 693:1 719:1 1392:1 1771:1 1772:1 1773:1 1774:1 1775:1 1776:1 1777:1 1778:1 1779:1 1780:1 
0.3059839049220381 32:1 74:1 111:1 638:1 642:1 816:1 878:1 1038:1 1220:1 1321:1 1573:1 1577:1 1583:1 1585:1 1592:1 1594:1 1599:1 1602:1 1788:1 1789:1 1790:1 
0.3311268902758872 32:1 111:1 343:1 359:1 442:1 556:1 638:1 642:1 816:1 1220:1 1577:1 1579:1 1583:1 1585:1 1587:1 1592:1 1594:1 1602:1 1614:1 1674:1 1725:1 1791:1 1792:1 1793:1 1794:1 
0.2927041523499816 32:1 64:1 111:1 343:1 442:1 638:1 642:1 816:1 1220:1 1579:1 1583:1 1585:1 1587:1 1592:1 1602:1 1608:1 1725:1 1795:1 1796:1 1797:1 1798:1 
0.5325530941129777 74:1 523:1 556:1 638:1 1221:1 1585:1 1587:1 1602:1 1611:1 1799:1 1800:1 1801:1 1802:1 1803:1 1804:1 1805:1 1806:1 1807:1 1808:1 1809:1 1810:1 1811:1 1812:1 1813:1 1814:1 1815:1 1816:1 1817:1 1818:1 1819:1 1820:1 
0.3609958145606274 32:1 74:1 111:1 359:1 638:1 1573:1 1575:1 1577:1 1579:1 1583:1 1585:1 1587:1 1592:1 1594:1 1614:1 1788:1 1821:1 1822:1 1823:1 1824:1 1825:1 
0.3832089424750049 111:1 442:1 638:1 642:1 816:1 1220:1 1221:1 1574:1 1578:1 1583:1 1587:1 1592:1 1595:1 1602:1 1613:1 1826:1 1827:1 1828:1 1829:1 1830:1 
0.4759721097530073 3:1 27:1 32:1 64:1 111:1 120:1 151:1 155:1 395:1 590:1 1221:1 1588:1 1831:1 1832:1 1833:1 1834:1 1835:1 1836:1 1837:1 1838:1 1839:1 
0.4970975762442901 33:1 64:1 74:1 1189:1 1833:1 1840:1 1841:1 1842:1 1843:1 1844:1 1845:1 1846:1 1847:1 1848:1 1849:1 1850:1 1851:1 1852:1 1853:1 1854:1 1855:1 1856:1 1857:1 
0.6817612462457605 15:1 72:1 97:1 259:1 560:1 577:1 787:1 801:1 1500:1 1858:1 1859:1 1860:1 1861:1 1862:1 1863:1 1864:1 1865:1 
0.3122659963390868 32:1 64:1 111:1 638:1 1220:1 1574:1 1583:1 1585:1 1587:1 1592:1 1594:1 1603:1 1604:1 1866:1 1867:1 1868:1 1869:1 1870:1 
0.3067506161006353 32:1 64:1 74:1 111:1 442:1 556:1 638:1 642:1 816:1 1220:1 1221:1 1574:1 1578:1 1579:1 1581:1 1583:1 1585:1 1587:1 1588:1 1592:1 1594:1 1602:1 1611:1 1674:1 1871:1 1872:1 1873:1 
0.4617392618290411 15:1 97:1 141:1 142:1 165:1 203:1 559:1 577:1 755:1 1862:1 1874:1 1875:1 1876:1 1877:1 1878:1 1879:1 1880:1 
0.2429018496945541 3:1 23:1 32:1 48:1 69:1 74:1 92:1 109:1 165:1 207:1 480:1 518:1 611:1 686:1 1311:1 1892:1 
0.4462622108562594 605:1 1898:1 1899:1 1900:1 1901:1 1902:1 1903:1 1904:1 1905:1 1906:1 
0.4262744873314234 3:1 23:1 32:1 33:1 82:1 127:1 165:1 175:1 180:1 268:1 418:1 546:1 605:1 796:1 1402:1 1907:1 1908:1 1909:1 1910:1 1911:1 1912:1 
0.2115503199574081 23:1 32:1 69:1 92:1 296:1 474:1 605:1 1198:1 1383:1 1393:1 1927:1 1928:1 
0.4581481039016025 9:1 11:1 27:1 166:1 208:1 605:1 650:1 656:1 696:1 715:1 1169:1 1936:1 1937:1 1938:1 1939:1 1940:1 1941:1 1942:1 
0.5062669157609058 19:1 32:1 91:1 96:1 97:1 249:1 529:1 605:1 669:1 872:1 1908:1 1943:1 1944:1 1945:1 1946:1 1947:1 1948:1 1949:1 1950:1 1951:1 1952:1 1953:1 
0.3608846343934673 3:1 9:1 48:1 90:1 128:1 165:1 339:1 577:1 586:1 1189:1 1314:1 1954:1 1955:1 1956:1 1957:1 1958:1 
0.3596610646850487 165:1 259:1 339:1 577:1 586:1 1954:1 1955:1 1956:1 1957:1 1959:1 1960:1 
0.5140361597473058 3:1 9:1 11:1 100:1 577:1 586:1 1558:1 1961:1 1962:1 1963:1 1964:1 1965:1 1966:1 1967:1 1968:1 1969:1 
0.3073304548936176 8:1 23:1 60:1 74:1 92:1 459:1 577:1 586:1 651:1 1970:1 1971:1 
0.4465980134069092 3:1 48:1 92:1 100:1 102:1 127:1 152:1 259:1 410:1 419:1 577:1 597:1 657:1 871:1 872:1 1865:1 1977:1 1978:1 1979:1 
0.4723527895859176 11:1 15:1 19:1 239:1 268:1 560:1 586:1 593:1 786:1 1547:1 1980:1 1981:1 1982:1 1983:1 1984:1 
0.6917164995481563 3:1 801:1 844:1 1058:1 1264:1 1989:1 1990:1 1991:1 1992:1 1993:1 1994:1 
0.4703018595622271 74:1 559:1 586:1 786:1 1551:1 1998:1 1999:1 2000:1 2001:1 2002:1 2003:1 2004:1 2005:1 2006:1 
0.442036232342006 5:1 47:1 50:1 78:1 92:1 107:1 215:1 218:1 334:1 656:1 686:1 1076:1 1192:1 2007:1 2008:1 2009:1 2010:1 2011:1 2012:1 2013:1 
0.4033287561441729 3:1 9:1 23:1 48:1 138:1 160:1 164:1 267:1 470:1 605:1 721:1 1865:1 2014:1 2015:1 2016:1 2017:1 
0.4460901903037808 6:1 23:1 48:1 52:1 74:1 97:1 104:1 127:1 152:1 312:1 334:1 408:1 528:1 605:1 657:1 1281:1 2024:1 2025:1 2026:1 2027:1 2028:1 2029:1 
0.3584464642129743 15:1 48:1 67:1 74:1 97:1 128:1 259:1 296:1 334:1 610:1 760:1 1023:1 1399:1 2029:1 2040:1 2041:1 2042:1 2043:1 
0.3302035270560724 11:1 15:1 19:1 23:1 58:1 74:1 337:1 610:1 2029:1 2042:1 2097:1 2098:1 2099:1 2100:1 2101:1 2102:1 2103:1 
0.8022460255048096 97:1 153:1 164:1 1180:1 2029:1 2104:1 2105:1 2106:1 
0.5007061499210222 11:1 19:1 55:1 69:1 74:1 75:1 96:1 120:1 179:1 180:1 181:1 239:1 300:1 312:1 324:1 408:1 482:1 546:1 656:1 1180:1 2107:1 2108:1 2109:1 2110:1 2111:1 2112:1 
0.8922057553548042 5:1 9:1 58:1 214:1 797:1 1180:1 2029:1 2113:1 
0.1651129324595992 410:1 544:1 1465:1 1723:1 2114:1 
0.3444751906968873 5:1 23:1 27:1 54:1 58:1 74:1 92:1 96:1 100:1 151:1 249:1 259:1 351:1 525:1 808:1 1402:1 2045:1 2115:1 2116:1 2117:1 2118:1 
0.458556019839663 13:1 15:1 27:1 74:1 88:1 91:1 97:1 146:1 171:1 207:1 252:1 259:1 577:1 2119:1 2120:1 2121:1 2122:1 2123:1 2124:1 2125:1 2126:1 
0.4838185475197 3:1 15:1 24:1 27:1 48:1 54:1 74:1 147:1 157:1 259:1 337:1 401:1 473:1 571:1 577:1 611:1 776:1 917:1 1023:1 1411:1 1500:1 2127:1 2128:1 2129:1 2130:1 2131:1 
0.3342392934132277 15:1 27:1 52:1 72:1 74:1 92:1 96:1 152:1 166:1 249:1 689:1 1166:1 2030:1 2132:1 2133:1 2134:1 2135:1 2136:1 2137:1 2138:1 2139:1 
0.2207879367214507 23:1 27:1 74:1 141:1 151:1 259:1 385:1 1402:1 2140:1 2141:1 2142:1 2143:1 2144:1 2145:1 
0.3474950738420019 6:1 15:1 19:1 23:1 24:1 48:1 58:1 74:1 96:1 157:1 177:1 442:1 470:1 546:1 548:1 1201:1 2029:1 2146:1 2147:1 2148:1 2149:1 
0.4215423145915325 3:1 5:1 19:1 23:1 27:1 33:1 74:1 88:1 96:1 116:1 152:1 370:1 371:1 688:1 756:1 798:1 1203:1 1402:1 1784:1 2150:1 2151:1 2152:1 2153:1 2154:1 2155:1 
0.5210402781685342 3:1 23:1 27:1 32:1 48:1 55:1 74:1 76:1 152:1 577:1 656:1 687:1 1381:1 2062:1 2156:1 2157:1 2158:1 2159:1 2160:1 2161:1 
0.5784123212476269 15:1 27:1 48:1 100:1 207:1 239:1 577:1 2162:1 2163:1 2164:1 2165:1 2166:1 2167:1 2168:1 
0.4079118009306451 3:1 48:1 69:1 96:1 151:1 152:1 546:1 577:1 971:1 1038:1 1405:1 2169:1 2170:1 2171:1 
0.4948503532340429 37:1 74:1 106:1 164:1 183:1 695:1 798:1 814:1 1038:1 1221:1 2029:1 2159:1 2172:1 2173:1 2174:1 2175:1 2176:1 2177:1 2178:1 2179:1 
0.4630538255025236 55:1 58:1 69:1 74:1 152:1 315:1 546:1 650:1 689:1 798:1 2180:1 2181:1 2182:1 2183:1 2184:1 2185:1 2186:1 2187:1 2188:1 2189:1 2190:1 
0.6073419574826805 33:1 74:1 96:1 259:1 470:1 626:1 787:1 1333:1 1399:1 2056:1 2191:1 2192:1 
0.5811740641165402 3:1 5:1 6:1 8:1 15:1 23:1 33:1 55:1 88:1 116:1 546:1 560:1 577:1 656:1 1217:1 1366:1 1372:1 1709:1 2193:1 2194:1 
0.6328578351473949 24:1 27:1 48:1 446:1 525:1 588:1 689:1 1933:1 1980:1 2195:1 2196:1 
0.3668236604742519 5:1 23:1 24:1 27:1 96:1 109:1 226:1 312:1 492:1 878:1 1405:1 2061:1 2197:1 2198:1 2199:1 
0.2483046261238423 27:1 69:1 74:1 78:1 96:1 151:1 152:1 249:1 441:1 1379:1 1432:1 2059:1 2200:1 2201:1 2202:1 2203:1 
0.1252756697257937 96:1 100:1 151:1 152:1 371:1 441:1 470:1 546:1 1405:1 2204:1 
0.3912940262206093 5:1 33:1 96:1 151:1 152:1 312:1 376:1 396:1 546:1 808:1 2205:1 2206:1 2207:1 2208:1 2209:1 2210:1 
0.3215583955690874 3:1 69:1 74:1 96:1 109:1 133:1 151:1 152:1 239:1 371:1 546:1 1402:1 2211:1 2212:1 2213:1 2214:1 
0.5764016204109936 3:1 9:1 11:1 26:1 27:1 31:1 48:1 55:1 58:1 218:1 408:1 528:1 611:1 651:1 724:1 779:1 814:1 1750:1 2215:1 2216:1 2217:1 2218:1 2219:1 2220:1 2221:1 2222:1 
0.1924883802157364 3:1 23:1 24:1 27:1 74:1 96:1 151:1 152:1 157:1 182:1 295:1 528:1 1432:1 1479:1 2223:1 2224:1 2225:1 
0.4258894609852072 15:1 23:1 27:1 32:1 33:1 74:1 96:1 268:1 546:1 549:1 944:1 1700:1 2226:1 2227:1 2228:1 2229:1 2230:1 2231:1 2232:1 2233:1 2234:1 2235:1 2236:1 2237:1 
0.979834281712839 3:1 72:1 74:1 259:1 287:1 346:1 693:1 2238:1 2239:1 
0.5594736033732657 3:1 27:1 259:1 577:1 2240:1 2241:1 2242:1 2243:1 
0.4913096008467855 576:1 626:1 2244:1 
0.64691440430888 576:1 1264:1 2244:1 2246:1 
0.05555625687166871 576:1 1717:1 2244:1 2245:1 
1.284375837219904 576:1 787:1 1744:1 2244:1 
1.948301285779876 576:1 786:1 1215:1 2244:1 
0.4093794770317266 3:1 74:1 259:1 577:1 2247:1 
0.02746945170351335 493:1 576:1 2244:1 2248:1 
0.1784051520631357 576:1 787:1 1215:1 2244:1 
0.3041176601840828 3:1 37:1 74:1 577:1 611:1 
0.9534315110135573 3:1 27:1 259:1 577:1 1234:1 2249:1 
1.880433895986069 3:1 74:1 577:1 611:1 
0.3180352575032068 3:1 19:1 27:1 74:1 577:1 1835:1 2250:1 
0.5916431478725983 3:1 52:1 54:1 71:1 214:1 378:1 406:1 419:1 576:1 593:1 645:1 652:1 798:1 1199:1 1268:1 2251:1 2252:1 2253:1 
0.5034090352585994 55:1 805:1 2254:1 2255:1 2256:1 2257:1 2258:1 2259:1 2260:1 2261:1 
0.7431589218051678 3:1 15:1 787:1 798:1 801:1 1440:1 2262:1 2263:1 2264:1 2265:1 2266:1 
0.5908504209361196 9:1 23:1 26:1 69:1 146:1 151:1 152:1 202:1 312:1 628:1 693:1 725:1 741:1 1392:1 2267:1 2268:1 
0.4909668043311096 23:1 32:1 48:1 55:1 69:1 78:1 96:1 109:1 110:1 152:1 268:1 312:1 507:1 518:1 525:1 577:1 650:1 658:1 805:1 1399:1 1971:1 2269:1 2270:1 2271:1 
0.4510097655002713 27:1 43:1 48:1 96:1 151:1 152:1 479:1 560:1 805:1 1023:1 1405:1 1461:1 2032:1 2074:1 2272:1 2273:1 2274:1 2275:1 2276:1 2277:1 
0.5503999686042996 9:1 15:1 55:1 97:1 259:1 560:1 856:1 902:1 1412:1 1485:1 1750:1 2052:1 2278:1 2279:1 2280:1 2281:1 2282:1 2283:1 2284:1 2285:1 2286:1 2287:1 2288:1 
0.5389176803910314 11:1 58:1 337:1 364:1 798:1 857:1 876:1 1221:1 1234:1 1331:1 1500:1 1831:1 2060:1 2294:1 2295:1 2296:1 2297:1 2298:1 2299:1 2300:1 2301:1 2302:1 
0.2364793540594734 19:1 23:1 32:1 96:1 151:1 152:1 182:1 312:1 442:1 689:1 805:1 2303:1 2304:1 2305:1 2306:1 
0.1478254108633885 32:1 74:1 92:1 96:1 312:1 470:1 798:1 805:1 2307:1 2308:1 
0.5166511656334983 23:1 48:1 55:1 74:1 90:1 96:1 107:1 151:1 152:1 259:1 312:1 546:1 560:1 577:1 806:1 1182:1 1477:1 2309:1 2310:1 2311:1 2312:1 2313:1 2314:1 2315:1 
0.646249967883466 3:1 11:1 76:1 107:1 118:1 577:1 589:1 798:1 1785:1 2316:1 2317:1 2318:1 2319:1 2320:1 
1.966718187605805 3:1 5:1 116:1 622:1 693:1 2321:1 2322:1 
0.5071844881045708 8:1 23:1 88:1 107:1 208:1 249:1 262:1 309:1 364:1 787:1 793:1 798:1 1234:1 2293:1 2323:1 2324:1 2325:1 2326:1 2327:1 2328:1 
0.5447583542163249 3:1 9:1 208:1 364:1 556:1 588:1 798:1 1170:1 1234:1 1247:1 1309:1 1587:1 2289:1 2290:1 2291:1 2292:1 2293:1 
0.4997102964554984 11:1 23:1 27:1 96:1 116:1 442:1 602:1 798:1 1221:1 1308:1 2329:1 2330:1 2331:1 2332:1 2333:1 2334:1 2335:1 2336:1 2337:1 2338:1 2339:1 
0.3913753794840813 23:1 27:1 52:1 74:1 100:1 152:1 350:1 446:1 471:1 611:1 619:1 689:1 2340:1 2341:1 2342:1 2343:1 2344:1 2345:1 2346:1 2347:1 
0.5370114165762614 23:1 27:1 100:1 207:1 378:1 553:1 575:1 698:1 811:1 1002:1 2348:1 2349:1 2350:1 2351:1 2352:1 2353:1 
0.5002927081102119 3:1 15:1 23:1 48:1 52:1 55:1 74:1 90:1 96:1 97:1 246:1 249:1 507:1 594:1 665:1 808:1 832:1 1402:1 1785:1 2209:1 2354:1 2355:1 2356:1 2357:1 2358:1 
0.4985134974591861 3:1 9:1 11:1 23:1 27:1 48:1 69:1 74:1 151:1 152:1 208:1 249:1 368:1 393:1 560:1 577:1 1278:1 2218:1 2239:1 2359:1 2360:1 2361:1 2362:1 2363:1 2364:1 2365:1 2366:1 2367:1 
0.3815671630000846 24:1 27:1 48:1 107:1 157:1 525:1 577:1 971:1 2368:1 2369:1 2370:1 2371:1 
0.1200616254957917 23:1 27:1 32:1 74:1 76:1 96:1 151:1 152:1 182:1 252:1 518:1 546:1 658:1 1405:1 2117:1 2372:1 2373:1 2374:1 2375:1 
0.5724736411687078 3:1 23:1 27:1 58:1 74:1 95:1 112:1 577:1 588:1 798:1 811:1 1309:1 1332:1 1702:1 2062:1 2376:1 2377:1 2378:1 2379:1 2380:1 2381:1 2382:1 2383:1 
0.2276768484396036 23:1 27:1 32:1 74:1 76:1 96:1 151:1 152:1 182:1 252:1 518:1 546:1 658:1 1405:1 2117:1 2373:1 2374:1 2375:1 2384:1 2385:1 
0.4696102975415604 5:1 15:1 74:1 88:1 97:1 100:1 216:1 259:1 525:1 1166:1 1465:1 2029:1 2386:1 2387:1 2388:1 2389:1 
0.467875426058108 6:1 27:1 48:1 215:1 798:1 871:1 872:1 1176:1 2191:1 2293:1 2390:1 2391:1 2392:1 2393:1 2394:1 2395:1 2396:1 
0.386107503812292 27:1 32:1 33:1 74:1 96:1 175:1 208:1 252:1 653:1 798:1 1359:1 1587:1 2397:1 2398:1 2399:1 2400:1 2401:1 2402:1 2403:1 2404:1 
0.471854563789702 6:1 19:1 27:1 69:1 116:1 146:1 249:1 259:1 268:1 296:1 365:1 798:1 1038:1 1965:1 1980:1 2062:1 2187:1 2216:1 2369:1 2405:1 2406:1 2407:1 2408:1 
0.4615477293546379 23:1 27:1 643:1 2029:1 2409:1 2410:1 2411:1 2412:1 2413:1 
0.4513050239017787 27:1 152:1 166:1 179:1 249:1 419:1 689:1 724:1 798:1 1500:1 2074:1 2112:1 2414:1 2415:1 2416:1 2417:1 2418:1 2419:1 
0.4195432938096454 5:1 15:1 23:1 24:1 58:1 74:1 96:1 152:1 345:1 507:1 689:1 760:1 805:1 872:1 1285:1 1925:1 2420:1 2421:1 2422:1 2423:1 2424:1 
0.5412080722047234 5:1 33:1 151:1 152:1 546:1 714:1 731:1 787:1 2176:1 2425:1 2426:1 2427:1 2428:1 
0.5944253913432496 3:1 23:1 26:1 55:1 58:1 88:1 133:1 208:1 239:1 320:1 345:1 576:1 1372:1 1381:1 1479:1 2293:1 2429:1 2430:1 2431:1 
0.5169655097110937 3:1 27:1 96:1 160:1 295:1 302:1 364:1 798:1 811:1 860:1 1023:1 1234:1 1416:1 1707:1 2031:1 2032:1 2274:1 2432:1 2433:1 2434:1 2435:1 2436:1 
0.9145318117642381 58:1 626:1 787:1 1122:1 1263:1 1264:1 2018:1 2437:1 2438:1 2439:1 2440:1 2441:1 
0.5351515148740665 5:1 23:1 27:1 37:1 43:1 48:1 74:1 152:1 312:1 560:1 577:1 761:1 785:1 871:1 872:1 1671:1 2216:1 2442:1 2443:1 2444:1 2445:1 2446:1 2447:1 2448:1 
0.2347437758523696 27:1 32:1 45:1 74:1 96:1 385:1 689:1 1484:1 1579:1 2449:1 2450:1 2451:1 
0.3089427498022763 3:1 8:1 23:1 48:1 55:1 74:1 96:1 287:1 611:1 971:1 1402:1 2452:1 2453:1 2454:1 2455:1 
0.4558322957243455 5:1 27:1 48:1 72:1 74:1 141:1 152:1 179:1 207:1 689:1 724:1 798:1 2030:1 2319:1 2456:1 2457:1 2458:1 2459:1 2460:1 2461:1 2462:1 2463:1 2464:1 
0.481026067609278 5:1 31:1 48:1 54:1 74:1 92:1 96:1 97:1 151:1 152:1 249:1 317:1 478:1 546:1 550:1 562:1 689:1 811:1 1140:1 1443:1 1697:1 2317:1 2465:1 2466:1 2467:1 2468:1 2469:1 2470:1 
0.5207070364749913 5:1 6:1 74:1 152:1 249:1 312:1 546:1 560:1 871:1 872:1 969:1 1402:1 2471:1 2472:1 2473:1 2474:1 
0.3626962308340947 5:1 88:1 96:1 689:1 750:1 798:1 808:1 1402:1 2475:1 
0.5509976615892833 27:1 144:1 365:1 556:1 1280:1 1831:1 1881:1 2476:1 2477:1 2478:1 2479:1 2480:1 2481:1 2482:1 2483:1 2484:1 2485:1 2486:1 2487:1 
0.4986565409297491 15:1 27:1 32:1 69:1 74:1 100:1 160:1 237:1 239:1 312:1 471:1 651:1 689:1 1283:1 1483:1 1490:1 2417:1 2488:1 2489:1 2490:1 2491:1 2492:1 2493:1 
0.8513859363268049 3:1 208:1 490:1 577:1 787:1 815:1 1366:1 2446:1 2494:1 2495:1 
0.6590592893103485 5:1 23:1 33:1 48:1 58:1 152:1 312:1 474:1 576:1 593:1 814:1 1007:1 1409:1 1663:1 2293:1 2496:1 2497:1 2498:1 
0.509991954659997 3:1 5:1 23:1 27:1 55:1 74:1 160:1 208:1 577:1 610:1 930:1 1165:1 1441:1 1569:1 2029:1 2239:1 2499:1 2500:1 2501:1 2502:1 2503:1 2504:1 
0.439989350485188 15:1 23:1 27:1 48:1 97:1 779:1 1309:1 2029:1 2068:1 2435:1 2505:1 2506:1 2507:1 2508:1 2509:1 2510:1 
0.4522644082710819 24:1 33:1 74:1 92:1 96:1 151:1 152:1 218:1 239:1 312:1 345:1 378:1 801:1 1264:1 1564:1 2293:1 2511:1 2512:1 2513:1 2514:1 2515:1 
0.4127174197678798 23:1 27:1 74:1 210:1 1166:1 2008:1 2029:1 2516:1 2517:1 2518:1 2519:1 2520:1 2521:1 2522:1 2523:1 2524:1 2525:1 
0.3178911953324805 19:1 24:1 26:1 27:1 48:1 74:1 157:1 442:1 546:1 815:1 1405:1 2183:1 2367:1 2526:1 2527:1 2528:1 2529:1 
0.4382720380122334 5:1 8:1 11:1 15:1 23:1 27:1 33:1 74:1 96:1 100:1 133:1 207:1 689:1 1230:1 1372:1 1585:1 2118:1 2530:1 2531:1 2532:1 2533:1 2534:1 2535:1 
0.3969034689732882 24:1 27:1 32:1 37:1 69:1 74:1 249:1 662:1 771:1 826:1 1319:1 1762:1 2536:1 2537:1 2538:1 2539:1 2540:1 2541:1 
0.4422680198554129 3:1 23:1 27:1 48:1 69:1 100:1 141:1 152:1 164:1 814:1 2542:1 2543:1 2544:1 2545:1 2546:1 2547:1 2548:1 2549:1 2550:1 
0.3692775409397384 27:1 74:1 167:1 259:1 289:1 525:1 798:1 1691:1 2271:1 2551:1 2552:1 2553:1 2554:1 2555:1 2556:1 
0.4592844115298096 5:1 27:1 59:1 74:1 96:1 546:1 798:1 1372:1 1405:1 1558:1 1702:1 1975:1 2074:1 2314:1 2557:1 2558:1 
0.3439640293710874 15:1 19:1 27:1 74:1 96:1 97:1 151:1 152:1 160:1 542:1 560:1 805:1 2074:1 2239:1 2559:1 2560:1 2561:1 2562:1 
0.4195451231111179 6:1 15:1 19:1 27:1 72:1 74:1 91:1 96:1 100:1 151:1 207:1 417:1 2165:1 2491:1 2563:1 2564:1 2565:1 2566:1 2567:1 2568:1 2569:1 2570:1 2571:1 
0.6735941053524039 48:1 92:1 97:1 152:1 157:1 396:1 577:1 805:1 814:1 2572:1 
0.5336766374167444 15:1 27:1 96:1 97:1 574:1 577:1 1706:1 1719:1 2573:1 2574:1 
0.4051264536166256 15:1 27:1 32:1 50:1 69:1 72:1 74:1 91:1 141:1 146:1 152:1 207:1 249:1 546:1 560:1 688:1 2369:1 2575:1 2576:1 2577:1 2578:1 2579:1 2580:1 
0.4789573924064269 3:1 15:1 69:1 74:1 107:1 151:1 152:1 166:1 237:1 312:1 419:1 546:1 560:1 577:1 808:1 1107:1 2456:1 2581:1 2582:1 2583:1 
0.4223543216268673 3:1 23:1 27:1 74:1 624:1 2377:1 2584:1 2585:1 2586:1 2587:1 2588:1 
0.4756468305847741 5:1 74:1 88:1 96:1 111:1 141:1 194:1 242:1 787:1 2029:1 2049:1 2129:1 2589:1 2590:1 2591:1 2592:1 
0.5000635434035632 5:1 27:1 32:1 33:1 58:1 64:1 69:1 74:1 90:1 96:1 116:1 153:1 312:1 442:1 525:1 548:1 569:1 860:1 872:1 1360:1 2594:1 2595:1 2596:1 2597:1 2598:1 2599:1 2600:1 2601:1 
0.4543953822541307 3:1 15:1 24:1 72:1 74:1 88:1 96:1 143:1 151:1 152:1 252:1 577:1 805:1 1366:1 1719:1 1908:1 2431:1 2602:1 2603:1 2604:1 2605:1 2606:1 2607:1 
0.6644838064286518 5:1 8:1 9:1 69:1 334:1 442:1 693:1 787:1 1115:1 1551:1 1975:1 2062:1 2456:1 2608:1 2609:1 2610:1 2611:1 2612:1 2613:1 
0.4341351317301383 9:1 23:1 27:1 96:1 151:1 152:1 417:1 471:1 475:1 560:1 805:1 1038:1 1885:1 2029:1 2074:1 2614:1 2615:1 2616:1 2617:1 
0.3865156677071643 3:1 74:1 577:1 611:1 776:1 2618:1 2619:1 
0.5389116512770051 3:1 74:1 577:1 626:1 798:1 1372:1 1532:1 2421:1 2620:1 2621:1 2622:1 2623:1 2624:1 2625:1 
0.2126883269962294 23:1 24:1 27:1 48:1 74:1 173:1 259:1 351:1 1234:1 1402:1 2274:1 2626:1 2627:1 2628:1 2629:1 
0.4824310258341448 3:1 23:1 27:1 151:1 152:1 182:1 207:1 259:1 350:1 549:1 588:1 1441:1 2036:1 2225:1 2271:1 2411:1 2630:1 2631:1 2632:1 2633:1 2634:1 2635:1 
0.3788530462462256 23:1 33:1 48:1 59:1 74:1 92:1 96:1 109:1 151:1 152:1 207:1 371:1 442:1 446:1 470:1 546:1 1038:1 1405:1 1617:1 2636:1 2637:1 2638:1 2639:1 2640:1 
0.2650282305520255 19:1 27:1 32:1 34:1 69:1 74:1 92:1 96:1 151:1 152:1 207:1 1314:1 1402:1 1864:1 2314:1 2641:1 2642:1 2643:1 2644:1 
0.7073380008398039 27:1 54:1 110:1 383:1 576:1 1958:1 2645:1 2646:1 
0.4673117640681216 5:1 23:1 27:1 55:1 96:1 172:1 259:1 312:1 610:1 689:1 750:1 1402:1 2596:1 2647:1 2648:1 2649:1 2650:1 2651:1 2652:1 
0.4649827496223455 5:1 27:1 32:1 48:1 109:1 143:1 146:1 151:1 152:1 207:1 268:1 396:1 418:1 470:1 518:1 525:1 546:1 689:1 808:1 2012:1 2653:1 2654:1 2655:1 2656:1 2657:1 2658:1 
0.4359933482925977 22:1 23:1 24:1 27:1 55:1 74:1 92:1 96:1 104:1 107:1 173:1 259:1 312:1 418:1 525:1 559:1 798:1 1351:1 1510:1 1710:1 2142:1 2317:1 2659:1 2660:1 2661:1 
1.591993642853379 587:1 738:1 1155:1 1673:1 
0.4513961020586719 23:1 27:1 259:1 577:1 1971:1 2379:1 2435:1 2662:1 2663:1 2664:1 2665:1 2666:1 
0.6728919646048622 24:1 72:1 254:1 268:1 312:1 477:1 693:1 1478:1 2029:1 2501:1 2667:1 2668:1 2669:1 2670:1 2671:1 2672:1 
0.4268597545396707 5:1 23:1 27:1 43:1 96:1 141:1 151:1 152:1 218:1 410:1 805:1 811:1 1269:1 1416:1 1984:1 2074:1 2304:1 2543:1 2673:1 2674:1 2675:1 
0.3745407377959501 19:1 23:1 24:1 27:1 32:1 58:1 88:1 96:1 100:1 101:1 151:1 207:1 345:1 417:1 2165:1 2676:1 2677:1 2678:1 2679:1 2680:1 2681:1 
0.3537625442977608 27:1 52:1 74:1 78:1 96:1 259:1 300:1 814:1 1709:1 2682:1 2683:1 2684:1 2685:1 2686:1 2687:1 
0.3838374632885829 3:1 23:1 74:1 259:1 549:1 577:1 611:1 741:1 1306:1 2111:1 2688:1 
0.4214556410240011 27:1 37:1 43:1 74:1 249:1 811:1 872:1 876:1 1038:1 1326:1 1724:1 1731:1 1744:1 2211:1 2689:1 2690:1 2691:1 2692:1 
0.5566042587591614 9:1 15:1 23:1 27:1 37:1 58:1 259:1 295:1 351:1 364:1 588:1 651:1 1306:1 1316:1 2029:1 2693:1 2694:1 2695:1 
0.4606075644004152 5:1 6:1 27:1 32:1 48:1 55:1 69:1 74:1 246:1 470:1 611:1 1307:1 1372:1 1393:1 1458:1 2696:1 2697:1 2698:1 2699:1 
0.4629508763186337 3:1 6:1 19:1 27:1 67:1 74:1 96:1 97:1 296:1 732:1 808:1 1023:1 2700:1 2701:1 2702:1 2703:1 2704:1 2705:1 2706:1 
0.3461475091384958 5:1 23:1 96:1 152:1 164:1 239:1 249:1 296:1 470:1 689:1 719:1 805:1 808:1 1207:1 2707:1 
0.5074980448461959 3:1 5:1 23:1 27:1 74:1 81:1 259:1 577:1 1265:1 2356:1 2627:1 2708:1 2709:1 2710:1 2711:1 2712:1 2713:1 2714:1 2715:1 
0.6185728177904576 74:1 249:1 624:1 741:1 2716:1 2717:1 2718:1 
0.3263594860904805 15:1 23:1 27:1 48:1 67:1 74:1 151:1 152:1 334:1 560:1 798:1 808:1 1372:1 2056:1 2074:1 2586:1 2719:1 2720:1 2721:1 
0.60524533173534 27:1 55:1 97:1 259:1 577:1 876:1 1195:1 1379:1 2722:1 2723:1 2724:1 2725:1 2726:1 2727:1 2728:1 2729:1 2730:1 
0.2474752720153064 6:1 23:1 24:1 26:1 27:1 74:1 110:1 157:1 207:1 219:1 351:1 1509:1 2165:1 2731:1 
0.314394837032574 19:1 24:1 27:1 48:1 78:1 96:1 152:1 855:1 1393:1 1405:1 1432:1 2029:1 2732:1 2733:1 2734:1 2735:1 
0.4652555716608565 74:1 97:1 249:1 798:1 1509:1 1750:1 2153:1 2293:1 2736:1 2737:1 2738:1 2739:1 2740:1 2741:1 
0.3161763036164654 15:1 27:1 55:1 74:1 249:1 2282:1 2586:1 2742:1 2743:1 2744:1 2745:1 2746:1 2747:1 
0.2996350496797473 5:1 23:1 32:1 50:1 74:1 96:1 151:1 152:1 335:1 441:1 525:1 805:1 2748:1 2749:1 2750:1 2751:1 2752:1 
0.3563967652283346 24:1 27:1 55:1 74:1 76:1 97:1 157:1 219:1 876:1 1023:1 2753:1 
0.5958851112927663 3:1 9:1 27:1 55:1 96:1 151:1 252:1 546:1 577:1 610:1 1211:1 1333:1 1364:1 1372:1 1405:1 2029:1 2754:1 2755:1 2756:1 2757:1 
0.3372936034201242 23:1 27:1 48:1 74:1 249:1 262:1 471:1 689:1 2182:1 2343:1 2344:1 2758:1 2759:1 2760:1 2761:1 
0.3507984666433125 15:1 48:1 55:1 74:1 236:1 347:1 1782:1 2029:1 2762:1 2763:1 2764:1 2765:1 
0.4753126770969733 11:1 19:1 27:1 74:1 96:1 151:1 236:1 345:1 560:1 864:1 2029:1 2049:1 2766:1 2767:1 2768:1 2769:1 2770:1 2771:1 2772:1 2773:1 2774:1 2775:1 2776:1 
0.3979338176584344 23:1 27:1 46:1 69:1 74:1 96:1 141:1 151:1 152:1 316:1 351:1 492:1 529:1 750:1 814:1 1381:1 2274:1 2708:1 2777:1 2778:1 2779:1 2780:1 2781:1 2782:1 
0.5882201834456362 27:1 32:1 48:1 52:1 207:1 546:1 814:1 1737:1 2783:1 
0.3559778429620173 27:1 48:1 74:1 96:1 101:1 141:1 152:1 207:1 252:1 268:1 385:1 470:1 1380:1 1432:1 1478:1 2224:1 2784:1 2785:1 2786:1 2787:1 
0.3791939514089046 23:1 32:1 48:1 74:1 96:1 97:1 106:1 107:1 133:1 151:1 152:1 296:1 470:1 546:1 1405:1 2053:1 2160:1 2239:1 2788:1 2789:1 2790:1 2791:1 2792:1 2793:1 
0.4393345143689759 6:1 15:1 27:1 74:1 75:1 96:1 97:1 179:1 239:1 577:1 609:1 1879:1 2794:1 2795:1 2796:1 2797:1 2798:1 
0.5208855079083896 23:1 24:1 58:1 71:1 74:1 446:1 490:1 587:1 2799:1 2800:1 
0.4433815019482145 27:1 37:1 54:1 74:1 249:1 514:1 603:1 1199:1 1750:1 1835:1 2111:1 2801:1 2802:1 2803:1 2804:1 2805:1 2806:1 2807:1 2808:1 
0.444749141350809 5:1 11:1 15:1 23:1 27:1 33:1 72:1 152:1 382:1 525:1 577:1 763:1 776:1 1458:1 1569:1 1971:1 2445:1 2809:1 2810:1 2811:1 2812:1 
0.4232645918124175 8:1 23:1 27:1 32:1 59:1 74:1 92:1 153:1 364:1 513:1 525:1 546:1 571:1 724:1 814:1 1234:1 1405:1 1484:1 1551:1 2813:1 2814:1 2815:1 
0.4604558407267641 5:1 9:1 23:1 24:1 33:1 74:1 78:1 106:1 116:1 152:1 157:1 202:1 220:1 546:1 580:1 587:1 611:1 1458:1 2274:1 2816:1 2817:1 2818:1 2819:1 
0.3584982803549169 27:1 52:1 74:1 96:1 249:1 259:1 558:1 2820:1 2821:1 2822:1 2823:1 2824:1 2825:1 2826:1 2827:1 2828:1 2829:1 
0.7260144214753222 74:1 76:1 576:1 1687:1 2830:1 2831:1 2832:1 2833:1 2834:1 2835:1 
-1.351320229248854 3:1 5:1 74:1 76:1 152:1 365:1 560:1 575:1 576:1 577:1 578:1 
-1.423080142806119 3:1 74:1 259:1 577:1 579:1 580:1 581:1 582:1 583:1 584:1 585:1 586:1 587:1 588:1 589:1 590:1 591:1 
-1.500546695521 3:1 11:1 55:1 164:1 249:1 560:1 577:1 592:1 593:1 594:1 595:1 596:1 597:1 598:1 599:1 600:1 
-1.363316413287383 3:1 23:1 27:1 32:1 71:1 72:1 74:1 76:1 546:1 576:1 577:1 601:1 602:1 603:1 604:1 605:1 606:1 607:1 608:1 
-1.486222199454767 622:1 623:1 624:1 625:1 626:1 627:1 628:1 629:1 630:1 631:1 632:1 
-1.435346901341879 23:1 26:1 312:1 576:1 611:1 633:1 634:1 635:1 636:1 637:1 638:1 639:1 640:1 641:1 
-1.794596819298163 622:1 642:1 643:1 644:1 645:1 646:1 647:1 648:1 649:1 
-1.679905908331817 376:1 605:1 700:1 701:1 702:1 703:1 704:1 705:1 706:1 707:1 708:1 
-1.121553032422642 3:1 11:1 71:1 172:1 585:1 588:1 693:1 709:1 710:1 711:1 712:1 713:1 714:1 715:1 716:1 
-1.326261150512452 96:1 693:1 726:1 727:1 728:1 729:1 730:1 
-2.204963925692621 27:1 731:1 732:1 733:1 734:1 735:1 
-1.633235652367442 8:1 9:1 15:1 48:1 141:1 216:1 587:1 736:1 737:1 738:1 739:1 740:1 741:1 742:1 743:1 744:1 
-1.869543478284874 3:1 27:1 55:1 577:1 587:1 737:1 757:1 758:1 
-1.626694597481304 97:1 588:1 602:1 733:1 769:1 770:1 
-1.627088274078656 24:1 63:1 590:1 622:1 739:1 771:1 772:1 773:1 774:1 775:1 776:1 777:1 778:1 
-1.817835812052538 15:1 27:1 471:1 733:1 779:1 780:1 781:1 782:1 783:1 784:1 
-1.23806812148453 3:1 74:1 76:1 97:1 127:1 164:1 560:1 577:1 622:1 739:1 785:1 786:1 787:1 788:1 789:1 790:1 791:1 792:1 
-0.7905583672733317 3:1 15:1 23:1 74:1 176:1 239:1 312:1 335:1 442:1 546:1 577:1 636:1 638:1 798:1 799:1 800:1 801:1 802:1 803:1 804:1 805:1 806:1 807:1 808:1 809:1 
-1.264324588616441 3:1 23:1 27:1 37:1 43:1 55:1 58:1 76:1 82:1 249:1 576:1 577:1 810:1 811:1 812:1 813:1 814:1 815:1 816:1 817:1 
-0.7840448079276516 259:1 693:1 786:1 801:1 818:1 819:1 
-1.305041526968062 587:1 588:1 834:1 835:1 836:1 837:1 838:1 839:1 840:1 841:1 
-0.8602275545907535 587:1 588:1 624:1 842:1 843:1 844:1 845:1 846:1 847:1 848:1 
-0.7327359128839201 587:1 588:1 624:1 834:1 843:1 844:1 845:1 846:1 847:1 849:1 
-1.365216878898059 23:1 587:1 588:1 850:1 851:1 852:1 853:1 854:1 855:1 856:1 857:1 858:1 
-1.300901995913077 83:1 84:1 587:1 588:1 757:1 839:1 859:1 860:1 861:1 862:1 
-0.7754843675174877 27:1 624:1 626:1 689:1 716:1 1151:1 1152:1 1153:1 
-1.543806955246607 27:1 689:1 716:1 1151:1 1152:1 1154:1 1155:1 1156:1 
-1.266264049209495 27:1 626:1 689:1 716:1 787:1 1152:1 1157:1 1158:1 1159:1 
-1.591474849294543 3:1 27:1 48:1 54:1 57:1 74:1 611:1 716:1 1160:1 1161:1 1162:1 1163:1 1164:1 1165:1 1166:1 1167:1 1168:1 
-1.459982609637087 3:1 58:1 69:1 176:1 239:1 312:1 394:1 569:1 611:1 716:1 779:1 1169:1 1170:1 1171:1 1172:1 1173:1 1174:1 1175:1 1176:1 1177:1 1178:1 
-0.4459440467729939 32:1 48:1 144:1 207:1 588:1 622:1 693:1 839:1 1170:1 1179:1 1180:1 1181:1 1182:1 1183:1 1184:1 1185:1 
-0.6805085832259041 48:1 144:1 207:1 588:1 611:1 693:1 839:1 1170:1 1179:1 1180:1 1181:1 1182:1 1183:1 1185:1 1186:1 1187:1 
-0.721534634542949 48:1 144:1 207:1 588:1 622:1 693:1 831:1 1170:1 1180:1 1181:1 1182:1 1183:1 1184:1 1185:1 1188:1 1189:1 
-1.637602237648524 15:1 23:1 184:1 577:1 605:1 715:1 1190:1 1191:1 1192:1 1193:1 1194:1 1195:1 1196:1 1197:1 
-1.499668319030588 3:1 27:1 48:1 96:1 109:1 151:1 577:1 656:1 686:1 728:1 731:1 1215:1 1216:1 1217:1 1218:1 1219:1 1220:1 1221:1 1222:1 1223:1 1224:1 
-2.041616562357323 48:1 693:1 814:1 1225:1 
-1.234927625401829 55:1 207:1 693:1 1243:1 1244:1 1245:1 1246:1 1247:1 1248:1 1249:1 1250:1 1251:1 1252:1 
-1.651411809080221 5:1 32:1 37:1 48:1 74:1 109:1 686:1 741:1 1253:1 1254:1 1255:1 1256:1 1257:1 1258:1 1259:1 
-0.767094867976197 58:1 97:1 359:1 693:1 801:1 1262:1 1263:1 1264:1 1265:1 1266:1 1267:1 
-1.287656524697027 3:1 27:1 55:1 207:1 259:1 693:1 1268:1 1269:1 1270:1 1271:1 1272:1 1273:1 1274:1 1275:1 1276:1 
-1.432803427427664 3:1 19:1 72:1 90:1 249:1 259:1 320:1 345:1 408:1 525:1 693:1 1186:1 1277:1 1278:1 1279:1 1280:1 1281:1 1282:1 1283:1 1284:1 
-0.9432349178130074 239:1 611:1 622:1 693:1 716:1 1255:1 1285:1 1286:1 1287:1 1288:1 
-1.200102046264114 3:1 5:1 9:1 74:1 259:1 577:1 611:1 622:1 693:1 716:1 798:1 1255:1 1287:1 1289:1 1290:1 1291:1 1292:1 1293:1 
-1.39042532460077 27:1 43:1 74:1 97:1 164:1 176:1 305:1 560:1 687:1 693:1 756:1 798:1 808:1 860:1 871:1 872:1 1323:1 1324:1 1325:1 1326:1 1327:1 1328:1 1329:1 
-1.455380778471484 5:1 6:1 23:1 59:1 96:1 102:1 107:1 339:1 364:1 371:1 546:1 577:1 605:1 805:1 825:1 1168:1 1234:1 1330:1 1331:1 1332:1 1333:1 
-1.239129335221183 207:1 651:1 693:1 1155:1 1334:1 1335:1 1336:1 1337:1 1338:1 
-1.346321178940139 3:1 9:1 27:1 48:1 419:1 577:1 786:1 801:1 814:1 871:1 1362:1 1363:1 1364:1 1365:1 1366:1 
-1.463968844311302 3:1 27:1 74:1 96:1 151:1 576:1 577:1 1211:1 1372:1 1373:1 1374:1 1375:1 1376:1 1377:1 1378:1 1379:1 1380:1 
-1.453489223487658 3:1 96:1 97:1 507:1 577:1 738:1 801:1 1264:1 1397:1 1398:1 1399:1 1400:1 1401:1 
-1.734030542083504 3:1 48:1 52:1 96:1 239:1 259:1 546:1 577:1 586:1 1280:1 1326:1 1402:1 1403:1 1404:1 1405:1 1406:1 
-1.64173582345896 23:1 24:1 97:1 116:1 157:1 239:1 312:1 577:1 801:1 1407:1 1408:1 1409:1 1410:1 
-0.8730696285852595 3:1 19:1 74:1 116:1 259:1 576:1 577:1 689:1 710:1 787:1 811:1 1168:1 1411:1 1412:1 1413:1 1414:1 
-1.165966666325471 3:1 9:1 23:1 43:1 74:1 164:1 259:1 334:1 560:1 576:1 577:1 651:1 786:1 787:1 1166:1 1167:1 1168:1 1415:1 1416:1 1417:1 
-2.07841087062895 3:1 27:1 74:1 259:1 577:1 586:1 611:1 787:1 1426:1 1427:1 1428:1 1429:1 
-1.236917121691024 3:1 576:1 577:1 628:1 1168:1 1215:1 1253:1 1363:1 1433:1 1434:1 1435:1 1436:1 1437:1 
-1.420641932554133 3:1 8:1 9:1 15:1 23:1 58:1 88:1 97:1 577:1 726:1 801:1 814:1 1316:1 1438:1 1439:1 1440:1 1441:1 1442:1 1443:1 1444:1 
-1.329687238582486 3:1 48:1 111:1 576:1 577:1 638:1 787:1 798:1 808:1 825:1 1173:1 1370:1 1445:1 1446:1 1447:1 1448:1 1449:1 1450:1 1451:1 1452:1 1453:1 
-0.7912802931291206 3:1 15:1 23:1 74:1 176:1 239:1 312:1 335:1 442:1 546:1 577:1 636:1 638:1 798:1 800:1 801:1 802:1 803:1 804:1 805:1 806:1 807:1 808:1 809:1 1463:1 
-1.375449586127076 58:1 640:1 801:1 855:1 1263:1 1264:1 1479:1 1480:1 1481:1 1482:1 
-1.271571544521542 97:1 576:1 594:1 787:1 1264:1 1265:1 1267:1 1485:1 1486:1 
-1.046193910668092 23:1 58:1 576:1 624:1 727:1 1263:1 1264:1 1479:1 1487:1 1488:1 1489:1 
-1.350069058486208 23:1 45:1 58:1 109:1 116:1 370:1 576:1 787:1 1263:1 1264:1 1496:1 1497:1 
-1.373105911704208 3:1 9:1 15:1 23:1 33:1 58:1 107:1 365:1 577:1 622:1 786:1 801:1 1435:1 1501:1 
-1.015107050815581 576:1 786:1 787:1 811:1 855:1 1362:1 1502:1 1503:1 1504:1 1505:1 1506:1 1507:1 
-1.585599257910468 3:1 9:1 11:1 23:1 27:1 32:1 74:1 96:1 219:1 470:1 586:1 786:1 787:1 1297:1 1402:1 1423:1 1508:1 1509:1 1510:1 1511:1 
-1.184313995603867 19:1 23:1 58:1 74:1 76:1 105:1 106:1 576:1 602:1 786:1 787:1 815:1 825:1 1362:1 1512:1 1513:1 
-1.396382040885523 39:1 786:1 855:1 1234:1 1362:1 1504:1 1521:1 1522:1 1523:1 1524:1 1525:1 1526:1 
-1.338483175745501 23:1 26:1 208:1 622:1 638:1 639:1 760:1 786:1 801:1 1280:1 1534:1 1535:1 1536:1 1537:1 1538:1 
-1.410689211802976 33:1 69:1 152:1 246:1 576:1 611:1 786:1 1181:1 1539:1 1540:1 1541:1 1542:1 1543:1 1544:1 
-1.733212229230788 3:1 5:1 74:1 577:1 611:1 624:1 786:1 1215:1 1333:1 1571:1 1572:1 
-1.46991447552029 3:1 15:1 32:1 74:1 249:1 518:1 576:1 577:1 622:1 1122:1 1616:1 1617:1 1618:1 1619:1 1620:1 1621:1 
-1.261594014679199 3:1 23:1 32:1 55:1 120:1 249:1 518:1 576:1 577:1 786:1 1326:1 1623:1 1624:1 1625:1 1626:1 1627:1 1628:1 1629:1 1630:1 
-1.860720472731916 5:1 71:1 576:1 577:1 1475:1 1631:1 
-0.8649608037680919 3:1 19:1 74:1 259:1 576:1 577:1 710:1 787:1 811:1 1168:1 1411:1 1412:1 1413:1 1643:1 1644:1 
-1.295976083606921 27:1 58:1 59:1 239:1 259:1 312:1 596:1 597:1 638:1 693:1 727:1 1206:1 1263:1 1625:1 1645:1 1646:1 1647:1 1648:1 1649:1 
-1.367824925519614 9:1 385:1 586:1 643:1 651:1 717:1 786:1 787:1 1181:1 1280:1 1532:1 1656:1 1657:1 1658:1 1659:1 1660:1 1661:1 1662:1 
-1.257305148075368 97:1 576:1 624:1 1151:1 1663:1 1664:1 1665:1 1666:1 
-1.369092221467771 576:1 708:1 727:1 1558:1 1667:1 1668:1 1669:1 1670:1 1671:1 1672:1 
-1.611829121395544 37:1 586:1 589:1 708:1 727:1 1577:1 1667:1 1673:1 1674:1 1675:1 1676:1 1677:1 1678:1 
-1.341446216778973 23:1 58:1 59:1 71:1 74:1 96:1 97:1 259:1 312:1 320:1 507:1 576:1 577:1 602:1 605:1 1360:1 1701:1 1702:1 1703:1 1704:1 
-1.311417933470779 11:1 74:1 259:1 274:1 339:1 546:1 576:1 693:1 798:1 1372:1 1663:1 1705:1 1706:1 1707:1 1708:1 1709:1 1710:1 
-1.135691787345841 3:1 5:1 9:1 43:1 58:1 214:1 577:1 622:1 693:1 787:1 798:1 801:1 814:1 1711:1 1712:1 1713:1 1714:1 1715:1 1716:1 1717:1 
-1.532727159785963 11:1 19:1 23:1 36:1 55:1 72:1 259:1 275:1 457:1 571:1 577:1 605:1 698:1 750:1 1475:1 1743:1 1744:1 1745:1 1746:1 1747:1 
-1.15315506402699 3:1 8:1 164:1 364:1 587:1 628:1 693:1 850:1 1423:1 1748:1 1749:1 1750:1 1751:1 1752:1 1753:1 
-0.7142914451985591 9:1 11:1 72:1 587:1 693:1 850:1 1749:1 1750:1 1751:1 1754:1 1755:1 1756:1 1757:1 1758:1 1759:1 1760:1 
-1.320815548987693 11:1 502:1 575:1 693:1 1761:1 1762:1 1763:1 1764:1 1765:1 1766:1 1767:1 1768:1 1769:1 
-0.7150836961216008 9:1 11:1 72:1 587:1 693:1 850:1 1749:1 1750:1 1751:1 1754:1 1755:1 1756:1 1757:1 1758:1 1759:1 1770:1 
-1.160479714118914 3:1 6:1 11:1 23:1 74:1 76:1 249:1 295:1 359:1 577:1 693:1 1352:1 1376:1 1781:1 1782:1 1783:1 1784:1 1785:1 1786:1 
-1.226628527168284 3:1 76:1 249:1 693:1 1781:1 1782:1 1783:1 1787:1 
-1.731524159481694 694:1 807:1 1750:1 1881:1 1882:1 1883:1 1884:1 1885:1 1886:1 1887:1 1888:1 
-1.192449731602306 5:1 32:1 207:1 324:1 693:1 1253:1 1258:1 1889:1 1890:1 1891:1 
-1.459456218306742 9:1 24:1 27:1 55:1 259:1 489:1 616:1 693:1 798:1 1893:1 1894:1 1895:1 1896:1 1897:1 
-1.468829337064783 6:1 23:1 27:1 74:1 118:1 312:1 577:1 605:1 624:1 791:1 1297:1 1717:1 1913:1 1914:1 1915:1 1916:1 1917:1 1918:1 1919:1 
-2.051299844798999 3:1 6:1 74:1 693:1 1920:1 1921:1 1922:1 
-1.142506007833982 3:1 11:1 43:1 48:1 419:1 588:1 693:1 798:1 814:1 815:1 1328:1 1761:1 1923:1 1924:1 1925:1 1926:1 
-1.198458020367697 5:1 55:1 214:1 259:1 546:1 588:1 693:1 1929:1 1930:1 1931:1 1932:1 1933:1 1934:1 1935:1 
-1.290008579145447 3:1 23:1 36:1 58:1 76:1 111:1 364:1 577:1 787:1 798:1 801:1 1168:1 1234:1 1446:1 1964:1 1972:1 1973:1 1974:1 1975:1 1976:1 
-1.001030003335647 168:1 576:1 611:1 643:1 786:1 787:1 1234:1 1540:1 1985:1 
-0.9747255649133427 5:1 32:1 576:1 624:1 786:1 1253:1 1258:1 1433:1 1434:1 1986:1 1987:1 1988:1 
-1.359051503874529 576:1 786:1 787:1 1995:1 1996:1 1997:1 
-1.544020559788753 5:1 33:1 74:1 152:1 259:1 312:1 546:1 560:1 693:1 1122:1 1617:1 2018:1 2019:1 2020:1 
-1.164324125571106 207:1 693:1 717:1 1285:1 1412:1 1944:1 2021:1 2022:1 2023:1 
-1.435919447483998 3:1 15:1 32:1 48:1 55:1 58:1 69:1 100:1 144:1 493:1 576:1 577:1 593:1 594:1 1399:1 2016:1 2030:1 2031:1 2032:1 
-1.532136651178119 5:1 11:1 15:1 32:1 69:1 74:1 92:1 152:1 214:1 239:1 312:1 560:1 602:1 815:1 1509:1 2029:1 2033:1 2034:1 2035:1 2036:1 2037:1 2038:1 2039:1 
-1.480094452788259 27:1 63:1 305:1 587:1 1919:1 2037:1 2044:1 2045:1 2046:1 2047:1 2048:1 2049:1 2050:1 2051:1 
-1.633221236074591 32:1 48:1 69:1 74:1 92:1 102:1 151:1 370:1 470:1 623:1 662:1 805:1 1157:1 1402:1 1831:1 2053:1 2054:1 2055:1 2056:1 2057:1 2058:1 
-1.703707338018186 3:1 9:1 23:1 74:1 96:1 295:1 442:1 738:1 787:1 805:1 808:1 872:1 1440:1 2059:1 2060:1 2061:1 2062:1 
-1.5198856239174 3:1 32:1 96:1 151:1 259:1 427:1 546:1 718:1 805:1 1440:1 2063:1 2064:1 2065:1 2066:1 2067:1 2068:1 2069:1 2070:1 2071:1 2072:1 2073:1 2074:1 
-1.839127505384294 3:1 74:1 76:1 96:1 116:1 151:1 152:1 560:1 577:1 626:1 805:1 1211:1 2075:1 
-1.492213860274508 5:1 11:1 15:1 27:1 37:1 74:1 96:1 100:1 239:1 546:1 765:1 800:1 805:1 1170:1 1180:1 1269:1 1372:1 2029:1 2074:1 2076:1 2077:1 2078:1 2079:1 
-1.484953185288197 3:1 9:1 11:1 23:1 27:1 146:1 419:1 801:1 805:1 1366:1 1509:1 1667:1 2037:1 2080:1 2081:1 2082:1 2083:1 2084:1 2085:1 
-1.557852032777403 5:1 9:1 58:1 74:1 364:1 525:1 553:1 651:1 1180:1 1234:1 2029:1 2074:1 2086:1 
-1.298213970026122 5:1 9:1 32:1 69:1 74:1 364:1 553:1 651:1 798:1 1180:1 1234:1 2029:1 2074:1 2087:1 2088:1 2089:1 
-2.580558160367085 100:1 490:1 1180:1 2029:1 2090:1 2091:1 
-1.59006081780071 5:1 15:1 43:1 74:1 151:1 152:1 239:1 268:1 560:1 699:1 798:1 871:1 872:1 1170:1 2029:1 2037:1 2092:1 2093:1 2094:1 2095:1 2096:1 
