svm_type c_svc
kernel_type rbf
gamma 0.00195312
nr_class 2
total_sv 395
rho 5.96201
label 0 1
probA -3.54955
probB 0.400511
nr_sv 291 104
SV
9.800594966207987 14:1 37:1 38:1 39:1 40:1 41:1 42:1 43:1 44:1 45:1 46:1 47:1 48:1 
1.043374815312871 33:1 49:1 50:1 51:1 52:1 53:1 
5.321325793284691 54:1 55:1 56:1 57:1 58:1 59:1 
7.767758624848871 22:1 60:1 61:1 62:1 63:1 64:1 
6.761456490418471 33:1 65:1 66:1 67:1 68:1 69:1 70:1 71:1 72:1 
1.753430291467063 78:1 79:1 80:1 81:1 82:1 83:1 84:1 85:1 
2.314494929824083 111:1 112:1 
5.109396953396169 10:1 113:1 114:1 115:1 116:1 117:1 118:1 119:1 120:1 
6.281617891855658 140:1 141:1 142:1 143:1 144:1 145:1 146:1 
8.894171133547662 95:1 181:1 182:1 183:1 184:1 185:1 186:1 187:1 188:1 189:1 190:1 
4.972293598617185 7:1 8:1 26:1 87:1 162:1 205:1 209:1 210:1 211:1 212:1 213:1 214:1 215:1 216:1 217:1 218:1 
2.332115679823797 219:1 220:1 
3.525050068648441 10:1 14:1 226:1 227:1 228:1 229:1 230:1 231:1 
3.473068741552145 5:1 8:1 33:1 55:1 232:1 233:1 234:1 235:1 236:1 237:1 238:1 239:1 240:1 241:1 242:1 
3.201897495206085 38:1 73:1 156:1 243:1 244:1 245:1 246:1 247:1 248:1 249:1 250:1 251:1 252:1 253:1 254:1 255:1 256:1 
2.332770766323143 257:1 258:1 
2.31661369279388 262:1 263:1 
6.656585793731343 68:1 147:1 151:1 259:1 271:1 272:1 273:1 274:1 275:1 
5.428504000627949 10:1 14:1 55:1 118:1 276:1 277:1 278:1 279:1 280:1 281:1 282:1 283:1 284:1 285:1 
0.8705424506503704 3:1 14:1 22:1 33:1 68:1 71:1 76:1 164:1 205:1 234:1 295:1 296:1 297:1 298:1 299:1 300:1 301:1 302:1 
5.266510629355478 58:1 318:1 319:1 320:1 321:1 322:1 323:1 
1.523354434980112 8:1 10:1 26:1 55:1 77:1 91:1 216:1 275:1 324:1 325:1 326:1 327:1 328:1 329:1 330:1 331:1 332:1 333:1 334:1 335:1 336:1 337:1 338:1 339:1 
3.051977574636914 343:1 344:1 345:1 346:1 347:1 
1.775301766715202 348:1 349:1 350:1 
12.37894614369035 14:1 18:1 22:1 33:1 58:1 68:1 76:1 106:1 108:1 318:1 374:1 375:1 
16.47349968623672 10:1 18:1 22:1 95:1 117:1 237:1 376:1 377:1 378:1 379:1 
5.110231308472173 23:1 141:1 237:1 380:1 381:1 382:1 383:1 384:1 
3.981979822202511 8:1 14:1 22:1 33:1 46:1 52:1 55:1 68:1 91:1 96:1 118:1 150:1 203:1 357:1 405:1 406:1 407:1 408:1 409:1 410:1 411:1 412:1 413:1 414:1 415:1 
1.952086855191943 416:1 417:1 418:1 
0.7350986642016422 71:1 416:1 419:1 420:1 421:1 422:1 423:1 424:1 425:1 426:1 
5.098317560259607 26:1 181:1 427:1 428:1 429:1 430:1 431:1 432:1 433:1 434:1 435:1 436:1 437:1 438:1 439:1 440:1 441:1 442:1 443:1 444:1 
7.450940373550782 22:1 33:1 106:1 108:1 397:1 445:1 446:1 447:1 448:1 449:1 450:1 
0.2558692943205595 48:1 95:1 202:1 259:1 335:1 451:1 452:1 453:1 454:1 455:1 456:1 457:1 458:1 459:1 460:1 461:1 462:1 
0.2892087301519993 3:1 8:1 10:1 22:1 25:1 68:1 73:1 74:1 96:1 416:1 463:1 464:1 465:1 466:1 467:1 468:1 469:1 470:1 471:1 472:1 473:1 474:1 
2.23535032662297 5:1 22:1 33:1 73:1 96:1 106:1 108:1 178:1 475:1 476:1 477:1 478:1 479:1 480:1 481:1 482:1 483:1 484:1 485:1 
3.099023659023505 8:1 22:1 58:1 68:1 259:1 269:1 498:1 499:1 500:1 501:1 502:1 503:1 504:1 505:1 506:1 507:1 508:1 
0.9203347092173095 8:1 10:1 54:1 466:1 509:1 510:1 511:1 512:1 513:1 514:1 515:1 516:1 517:1 518:1 519:1 520:1 521:1 522:1 
2.893216027268783 3:1 5:1 14:1 22:1 38:1 119:1 269:1 425:1 535:1 536:1 537:1 538:1 539:1 540:1 541:1 542:1 
2.654124738619081 3:1 8:1 22:1 23:1 26:1 38:1 73:1 77:1 151:1 205:1 255:1 357:1 556:1 557:1 558:1 559:1 560:1 561:1 562:1 563:1 564:1 565:1 566:1 
5.550735516102676 10:1 22:1 567:1 568:1 569:1 570:1 571:1 572:1 
4.352265891732227 8:1 10:1 26:1 246:1 259:1 269:1 340:1 573:1 574:1 575:1 576:1 577:1 578:1 579:1 
6.462484664243366 3:1 8:1 73:1 96:1 582:1 618:1 619:1 620:1 621:1 
6.655036328420006 3:1 10:1 14:1 22:1 73:1 75:1 91:1 95:1 96:1 108:1 353:1 544:1 564:1 620:1 622:1 623:1 624:1 625:1 626:1 627:1 628:1 
32 3:1 582:1 629:1 630:1 631:1 
8.050074265466876 3:1 8:1 26:1 50:1 58:1 73:1 318:1 599:1 631:1 659:1 660:1 661:1 662:1 663:1 664:1 665:1 666:1 667:1 668:1 669:1 670:1 
0.6857802119392306 3:1 8:1 10:1 38:1 101:1 162:1 294:1 325:1 551:1 565:1 620:1 674:1 675:1 676:1 677:1 678:1 679:1 680:1 
8.814361655977637 11:1 14:1 22:1 58:1 205:1 264:1 681:1 682:1 683:1 684:1 685:1 686:1 687:1 688:1 689:1 
9.810717529396184 22:1 117:1 135:1 180:1 335:1 612:1 690:1 691:1 
32 151:1 237:1 565:1 700:1 701:1 702:1 703:1 704:1 705:1 706:1 
14.64325752654366 8:1 10:1 22:1 23:1 58:1 73:1 108:1 118:1 141:1 150:1 162:1 163:1 201:1 246:1 531:1 701:1 724:1 725:1 726:1 727:1 728:1 729:1 730:1 731:1 732:1 
3.409599496363286 3:1 8:1 14:1 18:1 33:1 55:1 68:1 237:1 620:1 622:1 746:1 765:1 766:1 767:1 768:1 769:1 770:1 771:1 772:1 773:1 774:1 
18.2489611997107 3:1 55:1 95:1 237:1 746:1 799:1 800:1 801:1 802:1 803:1 
2.211288635624677 5:1 8:1 10:1 73:1 178:1 336:1 368:1 454:1 536:1 612:1 825:1 826:1 827:1 828:1 829:1 830:1 831:1 
4.593549234898273 3:1 8:1 33:1 59:1 73:1 95:1 99:1 178:1 206:1 216:1 259:1 269:1 424:1 582:1 717:1 734:1 832:1 833:1 834:1 835:1 836:1 837:1 838:1 
3.117765103146658 872:1 873:1 874:1 875:1 876:1 877:1 
1.135106739758956 878:1 
1.227474947649519 255:1 879:1 880:1 881:1 882:1 883:1 884:1 885:1 886:1 887:1 
3.035200120744996 888:1 889:1 890:1 891:1 892:1 
8.404698358472876 879:1 880:1 893:1 894:1 
8.392941977932589 879:1 880:1 895:1 896:1 
3.03991924681212 897:1 898:1 899:1 900:1 901:1 
8.421677672065568 879:1 880:1 902:1 903:1 
2.715802943196549 904:1 905:1 906:1 
2.722495515458684 907:1 908:1 909:1 
2.740657053539505 910:1 911:1 912:1 
2.72522953080001 913:1 914:1 915:1 
2.924897607431022 916:1 917:1 918:1 919:1 
3.335216971542897 920:1 921:1 922:1 923:1 924:1 925:1 926:1 927:1 928:1 929:1 930:1 931:1 
2.722349426580259 932:1 933:1 934:1 
3.130916520190659 935:1 936:1 937:1 938:1 939:1 940:1 
2.373531005786056 947:1 948:1 
2.723711112815616 949:1 950:1 951:1 
2.723389313454076 952:1 953:1 954:1 955:1 956:1 957:1 958:1 959:1 960:1 961:1 
2.91985672080427 962:1 963:1 964:1 965:1 
3.128692745179846 941:1 942:1 943:1 944:1 945:1 946:1 
1.766754772931807 966:1 967:1 968:1 969:1 970:1 971:1 972:1 973:1 974:1 975:1 
2.336467739187363 976:1 977:1 
2.91035342012032 978:1 979:1 980:1 981:1 
1.791153129293762 966:1 982:1 983:1 984:1 985:1 986:1 987:1 
2.334603319315447 988:1 989:1 
3.124949388589953 990:1 991:1 992:1 993:1 994:1 995:1 
3.05070407526883 996:1 997:1 998:1 999:1 1000:1 
2.72811709994168 1001:1 1002:1 1003:1 
0.44498203657046 966:1 969:1 972:1 974:1 983:1 1004:1 1005:1 1006:1 
1.148124407253678 1007:1 
5.399383991360397 3:1 52:1 75:1 270:1 1008:1 1009:1 
6.800583778617291 879:1 880:1 1010:1 1011:1 1012:1 
8.404698358473235 879:1 880:1 1013:1 1014:1 
1.143611698789675 1015:1 
8.420248188670461 879:1 880:1 1016:1 1017:1 
8.432970443885823 879:1 880:1 1018:1 1019:1 
2.577231428353743 1020:1 1021:1 1022:1 1023:1 1024:1 
2.324832543624467 1030:1 1031:1 
2.059226031993039 1032:1 1033:1 1034:1 1035:1 
2.322545546534123 1036:1 1037:1 
3.036712384341874 1038:1 1039:1 1040:1 1041:1 1042:1 
9.577382188383117 26:1 1043:1 1044:1 1045:1 1046:1 
3.039252968805645 1047:1 1048:1 1049:1 1050:1 1051:1 
3.176411106410522 1052:1 1053:1 1054:1 1055:1 1056:1 1057:1 1058:1 
3.253112533345706 1059:1 1060:1 1061:1 1062:1 1063:1 1064:1 1065:1 1066:1 1067:1 
1.141772092816248 1068:1 
1.168409623408967 1069:1 
2.328723574766884 1070:1 1071:1 
1.725860190946204 1072:1 1073:1 1074:1 1075:1 1076:1 
1.191032008916133 1082:1 
2.315698731341481 1083:1 1084:1 1085:1 1086:1 1087:1 1088:1 1089:1 1090:1 1091:1 1092:1 1093:1 1094:1 1095:1 1096:1 1097:1 
2.714974665111395 1098:1 1099:1 1100:1 
3.053553445555713 1101:1 1102:1 1103:1 1104:1 1105:1 
2.298123160573731 966:1 969:1 970:1 974:1 983:1 1106:1 1107:1 1108:1 1109:1 1110:1 1111:1 1112:1 1113:1 1114:1 
1.138885707756476 1115:1 
2.319763851838403 1083:1 1087:1 1088:1 1091:1 1093:1 1094:1 1096:1 1116:1 1117:1 1118:1 1119:1 1120:1 1121:1 1122:1 1123:1 
3.032119387135444 1124:1 1125:1 1126:1 1127:1 1128:1 
2.756854252052353 966:1 1129:1 1130:1 1131:1 1132:1 1133:1 1134:1 1135:1 1136:1 1137:1 1138:1 
3.132784314926496 1139:1 1140:1 1141:1 1142:1 1143:1 1144:1 
3.036118289070541 1145:1 1146:1 1147:1 1148:1 1149:1 
1.216697187361366 1150:1 
3.130589568191004 1151:1 1152:1 1153:1 1154:1 1155:1 1156:1 
3.220510190572021 1157:1 1158:1 1159:1 1160:1 1161:1 1162:1 1163:1 1164:1 
3.313218771949628 1165:1 1166:1 1167:1 1168:1 1169:1 1170:1 1171:1 1172:1 1173:1 1174:1 1175:1 
3.259581654754216 1176:1 1177:1 1178:1 1179:1 1180:1 1181:1 1182:1 1183:1 1184:1 
2.311929888413547 1185:1 1186:1 
2.321674349688276 1187:1 1188:1 
2.290717586107279 1020:1 1189:1 1190:1 1191:1 
3.226701033496277 1192:1 1193:1 1194:1 1195:1 1196:1 1197:1 1198:1 1199:1 
3.046407432562625 1200:1 1201:1 1202:1 1203:1 1204:1 
2.912080701608597 1205:1 1206:1 1207:1 1208:1 
3.289011825871772 1209:1 1210:1 1211:1 1212:1 1213:1 1214:1 1215:1 1216:1 1217:1 1218:1 
3.042550085874811 1219:1 1220:1 1221:1 1222:1 1223:1 
1.15664171121613 1224:1 
1.750219328519109 1072:1 1073:1 1225:1 1226:1 1227:1 
3.12501544982712 1228:1 1229:1 1230:1 1231:1 1232:1 1233:1 
2.713454744858534 1234:1 1235:1 1236:1 
3.182658742813413 1237:1 1238:1 1239:1 1240:1 1241:1 1242:1 1243:1 
2.707471584335633 1244:1 1245:1 1246:1 
1.546006573316471 1247:1 1248:1 
3.170413605395219 1249:1 1250:1 1251:1 1252:1 1253:1 1254:1 1255:1 
1.159918082852186 1256:1 
2.724007537225842 1257:1 1258:1 1259:1 
3.256453021210583 1260:1 1261:1 1262:1 1263:1 1264:1 1265:1 1266:1 1267:1 1268:1 
3.157179209432041 1072:1 1269:1 1270:1 1271:1 1272:1 1273:1 1274:1 1275:1 1276:1 1277:1 1278:1 1279:1 1280:1 1281:1 1282:1 
1.157124628224123 1283:1 
1.155727398298225 1284:1 
3.394039784598424 1285:1 1286:1 1287:1 1288:1 1289:1 1290:1 1291:1 1292:1 1293:1 1294:1 1295:1 1296:1 1297:1 1298:1 1299:1 1300:1 
3.355009935350914 1301:1 1302:1 1303:1 1304:1 1305:1 1306:1 1307:1 1308:1 1309:1 1310:1 1311:1 1312:1 1313:1 
2.335024383786446 1314:1 1315:1 
2.360171429987803 1316:1 1317:1 
2.712653779865561 1318:1 1319:1 1320:1 
1.57066412505949 1247:1 1321:1 
2.713845216150177 1322:1 1323:1 1324:1 
2.339341524890429 1325:1 1326:1 
2.924826762647643 1327:1 1328:1 1329:1 1330:1 
2.733153806206414 1331:1 1332:1 1333:1 
2.329952740640284 1334:1 1335:1 
1.345763108808248 1034:1 1336:1 1337:1 
1.984557497133306 80:1 1338:1 1339:1 1340:1 1341:1 1342:1 1343:1 1344:1 1345:1 1346:1 
3.22613229032346 1347:1 1348:1 1349:1 1350:1 1351:1 1352:1 1353:1 1354:1 
2.728281114839214 1355:1 1356:1 1357:1 
2.322754803542698 1358:1 1359:1 
2.521538685633628 1360:1 1361:1 1362:1 1363:1 1364:1 1365:1 1366:1 1367:1 1368:1 1369:1 1370:1 1371:1 1372:1 
2.181194823747084 1360:1 1361:1 1362:1 1363:1 1364:1 1373:1 1374:1 1375:1 1376:1 1377:1 1378:1 
9.669851352379196 26:1 80:1 1379:1 1380:1 1381:1 1382:1 1383:1 1384:1 1385:1 1386:1 1387:1 1388:1 
2.067246329503655 1034:1 1389:1 1390:1 1391:1 
2.267898340824313 1392:1 1393:1 1394:1 1395:1 1396:1 1397:1 1398:1 1399:1 1400:1 
2.270796643622134 1392:1 1393:1 1394:1 1395:1 1401:1 1402:1 1403:1 1404:1 1405:1 
2.874340860168209 1406:1 1407:1 1408:1 1409:1 1410:1 1411:1 1412:1 1413:1 1414:1 1415:1 1416:1 1417:1 1418:1 1419:1 1420:1 1421:1 1422:1 
2.919560900056375 1423:1 1424:1 1425:1 1426:1 
1.874122009602847 80:1 1407:1 1415:1 1427:1 1428:1 1429:1 1430:1 1431:1 1432:1 1433:1 1434:1 1435:1 1436:1 1437:1 1438:1 1439:1 
2.73731699437417 1420:1 1440:1 1441:1 1442:1 1443:1 1444:1 1445:1 1446:1 1447:1 1448:1 
2.910653783696784 1420:1 1431:1 1432:1 1449:1 1450:1 1451:1 1452:1 1453:1 1454:1 1455:1 1456:1 1457:1 1458:1 1459:1 1460:1 1461:1 1462:1 1463:1 
2.708627725965044 1464:1 1465:1 1466:1 
2.295455760163959 1467:1 1468:1 1469:1 1470:1 1471:1 
2.726490600236519 1472:1 1473:1 1474:1 
1.880527001911012 1467:1 1475:1 1476:1 1477:1 
3.355009935350973 1478:1 1479:1 1480:1 1481:1 1482:1 1483:1 1484:1 1485:1 1486:1 1487:1 1488:1 1489:1 1490:1 
3.046945054787389 1491:1 1492:1 1493:1 1494:1 1495:1 
3.053581938361597 1496:1 1497:1 1498:1 1499:1 1500:1 
1.889821978045435 1467:1 1501:1 1502:1 1503:1 
4.087627744253806 10:1 23:1 87:1 117:1 128:1 147:1 178:1 310:1 340:1 612:1 665:1 1558:1 1559:1 1560:1 1561:1 1562:1 1563:1 1564:1 1565:1 1566:1 1567:1 
26.56524231868764 7:1 8:1 22:1 33:1 54:1 58:1 73:1 75:1 82:1 96:1 178:1 180:1 366:1 620:1 701:1 1581:1 1582:1 1583:1 1584:1 1585:1 
4.048700994849926 3:1 10:1 73:1 288:1 1586:1 1587:1 1588:1 1589:1 1590:1 1591:1 1592:1 1593:1 1594:1 1595:1 1596:1 1597:1 
18.90525917273684 22:1 73:1 612:1 766:1 1652:1 1653:1 1654:1 1655:1 1656:1 
1.791039474453751 3:1 33:1 91:1 108:1 206:1 298:1 523:1 694:1 1657:1 1658:1 1659:1 1660:1 1661:1 
0.1965466508297752 5:1 8:1 10:1 14:1 18:1 55:1 96:1 240:1 259:1 335:1 414:1 424:1 564:1 620:1 626:1 634:1 677:1 694:1 1640:1 1662:1 1663:1 1664:1 1665:1 1666:1 1667:1 
0.4908898381409144 10:1 18:1 22:1 59:1 67:1 81:1 95:1 163:1 178:1 212:1 286:1 310:1 476:1 519:1 612:1 620:1 828:1 1668:1 1669:1 1670:1 1671:1 1672:1 1673:1 
12.21015511906359 8:1 22:1 55:1 164:1 243:1 466:1 511:1 609:1 694:1 1674:1 1675:1 1676:1 1677:1 1678:1 1679:1 1680:1 1681:1 
19.05435043629737 3:1 8:1 10:1 22:1 73:1 174:1 195:1 204:1 523:1 547:1 701:1 869:1 1696:1 1697:1 1698:1 1699:1 
2.051514901511375 58:1 61:1 300:1 1588:1 1700:1 1701:1 1702:1 1703:1 1704:1 
22.72366986293557 8:1 26:1 44:1 81:1 128:1 162:1 565:1 609:1 701:1 1705:1 1706:1 1707:1 1708:1 1709:1 1710:1 1711:1 1712:1 1713:1 
9.236389846603434 10:1 33:1 73:1 89:1 96:1 106:1 119:1 128:1 163:1 313:1 353:1 479:1 551:1 557:1 564:1 581:1 838:1 1724:1 1725:1 1726:1 1727:1 1728:1 
20.85834483603474 3:1 14:1 582:1 593:1 632:1 793:1 1779:1 1780:1 
17.51815028013113 3:1 5:1 26:1 58:1 71:1 123:1 580:1 582:1 830:1 1713:1 1729:1 1781:1 1782:1 1783:1 1784:1 1785:1 1786:1 
5.890842349820462 26:1 43:1 60:1 163:1 530:1 582:1 619:1 1814:1 1815:1 1816:1 1817:1 1818:1 1819:1 
16.79625302771749 3:1 8:1 33:1 132:1 177:1 581:1 1556:1 1820:1 1821:1 1822:1 
26.54659118047585 3:1 8:1 22:1 309:1 340:1 403:1 581:1 582:1 601:1 671:1 819:1 1080:1 1823:1 1824:1 1825:1 1826:1 1827:1 1828:1 1829:1 
32 3:1 75:1 259:1 310:1 370:1 425:1 582:1 593:1 595:1 793:1 1589:1 1830:1 1831:1 
7.888454043234368 3:1 8:1 14:1 18:1 33:1 68:1 73:1 163:1 233:1 462:1 475:1 479:1 581:1 600:1 601:1 1556:1 1620:1 1832:1 
32 3:1 14:1 44:1 162:1 565:1 582:1 593:1 632:1 660:1 793:1 1780:1 1833:1 1834:1 
6.686973395294788 33:1 425:1 1552:1 1835:1 1836:1 1837:1 1838:1 
11.81068883565361 106:1 593:1 1623:1 1801:1 1843:1 1844:1 
12.13768390171464 8:1 10:1 25:1 52:1 58:1 73:1 91:1 106:1 110:1 117:1 150:1 479:1 564:1 696:1 697:1 807:1 1622:1 1623:1 1739:1 1854:1 1855:1 1856:1 1857:1 1858:1 1859:1 
25.6658866389594 8:1 25:1 96:1 156:1 164:1 259:1 581:1 697:1 792:1 1620:1 1741:1 1879:1 1880:1 1881:1 1882:1 1883:1 1884:1 1885:1 
9.916768655940787 3:1 26:1 73:1 259:1 501:1 604:1 792:1 1892:1 1893:1 1894:1 1895:1 1896:1 1897:1 1898:1 1899:1 
16.56592130283738 3:1 57:1 70:1 807:1 1697:1 1896:1 1910:1 1911:1 1912:1 1913:1 
29.93851211853222 3:1 593:1 792:1 1914:1 1915:1 
2.972094849227776 38:1 73:1 101:1 325:1 463:1 1568:1 1922:1 1923:1 1924:1 1925:1 
11.23754501576577 3:1 10:1 22:1 26:1 58:1 94:1 129:1 371:1 451:1 461:1 534:1 582:1 644:1 717:1 1568:1 1668:1 1723:1 1727:1 1926:1 1927:1 1928:1 1929:1 1930:1 1931:1 1932:1 
3.059829659407185 1940:1 1941:1 1942:1 1943:1 1944:1 1945:1 1946:1 1947:1 1948:1 1949:1 1950:1 1951:1 1952:1 1953:1 1954:1 1955:1 1956:1 1957:1 1958:1 1959:1 1960:1 1961:1 1962:1 1963:1 1964:1 1965:1 
2.399340660568251 34:1 1966:1 1967:1 1968:1 1969:1 1970:1 1971:1 1972:1 1973:1 1974:1 1975:1 1976:1 1977:1 1978:1 1979:1 1980:1 1981:1 1982:1 1983:1 1984:1 1985:1 1986:1 1987:1 1988:1 
2.841113927881532 1989:1 1990:1 1991:1 1992:1 1993:1 1994:1 1995:1 1996:1 1997:1 1998:1 1999:1 2000:1 2001:1 2002:1 2003:1 2004:1 2005:1 2006:1 2007:1 2008:1 2009:1 2010:1 2011:1 2012:1 
4.032718828325523 101:1 1963:1 2013:1 2014:1 2015:1 2016:1 2017:1 2018:1 2019:1 2020:1 2021:1 2022:1 2023:1 2024:1 2025:1 2026:1 2027:1 2028:1 2029:1 2030:1 2031:1 2032:1 2033:1 2034:1 2035:1 2036:1 
2.372509499343272 1958:1 1981:1 2019:1 2037:1 2038:1 2039:1 2040:1 2041:1 2042:1 2043:1 2044:1 2045:1 2046:1 2047:1 2048:1 2049:1 2050:1 2051:1 2052:1 2053:1 2054:1 2055:1 2056:1 2057:1 
32 3:1 8:1 26:1 70:1 73:1 310:1 582:1 593:1 723:1 1533:1 1720:1 1721:1 1894:1 2064:1 
22.09738542820484 3:1 38:1 59:1 73:1 163:1 356:1 581:1 582:1 600:1 601:1 1666:1 2074:1 2075:1 2076:1 2077:1 2078:1 2079:1 2080:1 
30.96513751408883 3:1 18:1 19:1 22:1 26:1 33:1 59:1 73:1 105:1 237:1 259:1 340:1 565:1 581:1 582:1 631:1 1545:1 1691:1 2081:1 2082:1 2083:1 2084:1 2085:1 2086:1 
3.151337234297866 22:1 57:1 106:1 236:1 447:1 593:1 2094:1 2095:1 2096:1 2097:1 2098:1 
2.414566425774074 8:1 10:1 14:1 52:1 91:1 128:1 162:1 259:1 294:1 499:1 521:1 551:1 632:1 734:1 1529:1 2116:1 2124:1 2125:1 2126:1 2127:1 2128:1 2129:1 
4.225905382059325 14:1 77:1 289:1 1730:1 2116:1 2130:1 2131:1 2132:1 2133:1 2134:1 2135:1 2136:1 2137:1 2138:1 2139:1 2140:1 
15.12967538294458 7:1 14:1 33:1 294:1 721:1 793:1 1896:1 2116:1 2141:1 2142:1 
13.70768538667578 5:1 8:1 26:1 91:1 96:1 259:1 340:1 553:1 581:1 2143:1 2144:1 2145:1 2146:1 2147:1 2148:1 
6.849449147203655 22:1 73:1 95:1 118:1 237:1 377:1 479:1 581:1 612:1 665:1 666:1 696:1 880:1 2165:1 2166:1 2167:1 2168:1 2169:1 2170:1 2171:1 2172:1 2173:1 2174:1 
8.94207961417789 22:1 33:1 73:1 99:1 117:1 179:1 252:1 376:1 485:1 523:1 612:1 773:1 2145:1 2164:1 2175:1 2176:1 2177:1 2178:1 
6.04610887278777 694:1 1739:1 2184:1 2185:1 2186:1 2187:1 
32 58:1 701:1 2188:1 2189:1 2190:1 2191:1 2192:1 2193:1 
17.91218330828868 8:1 18:1 33:1 55:1 523:1 701:1 726:1 1752:1 2223:1 2224:1 2225:1 2226:1 2227:1 2228:1 2229:1 2230:1 2231:1 2232:1 
4.166218647185602 1575:1 1981:1 1991:1 2240:1 2241:1 2242:1 2243:1 2244:1 2245:1 2246:1 2247:1 2248:1 2249:1 2250:1 2251:1 2252:1 2253:1 2254:1 2255:1 2256:1 2257:1 2258:1 2259:1 
2.681254006542448 110:1 349:1 1959:1 1984:1 1990:1 2040:1 2045:1 2118:1 2173:1 2260:1 2261:1 2262:1 2263:1 2264:1 2265:1 2266:1 2267:1 2268:1 2269:1 2270:1 2271:1 2272:1 2273:1 2274:1 2275:1 2276:1 
0.2850101800742185 349:1 1680:1 1942:1 1959:1 1961:1 1984:1 1990:1 2031:1 2037:1 2045:1 2173:1 2260:1 2261:1 2262:1 2263:1 2264:1 2268:1 2277:1 2278:1 2279:1 2280:1 2281:1 2282:1 2283:1 
2.229425339309253 73:1 528:1 2284:1 2285:1 2286:1 2287:1 2288:1 2289:1 2290:1 2291:1 2292:1 2293:1 2294:1 2295:1 2296:1 2297:1 2298:1 2299:1 
1.556643161518005 1945:1 1981:1 2019:1 2040:1 2240:1 2243:1 2248:1 2274:1 2300:1 2301:1 2302:1 2303:1 2304:1 2305:1 2306:1 2307:1 2308:1 2309:1 2310:1 2311:1 2312:1 2313:1 2314:1 
3.345321950658793 821:1 2053:1 2315:1 2316:1 2317:1 2318:1 2319:1 2320:1 2321:1 2322:1 2323:1 2324:1 2325:1 2326:1 2327:1 2328:1 2329:1 2330:1 
9.612089005098412 3:1 26:1 33:1 64:1 110:1 121:1 150:1 154:1 401:1 597:1 861:1 1576:1 2331:1 2332:1 2333:1 2334:1 2335:1 2336:1 2337:1 2338:1 2339:1 
2.080155750430028 34:1 73:1 1542:1 2340:1 2341:1 2342:1 2343:1 2344:1 2345:1 2346:1 2347:1 2348:1 2349:1 2350:1 2351:1 2352:1 2353:1 2354:1 2355:1 2356:1 2357:1 2358:1 
32 14:1 71:1 96:1 259:1 565:1 582:1 793:1 807:1 1864:1 2359:1 2360:1 2361:1 2362:1 2363:1 2364:1 2365:1 2366:1 
1.152226044822792 2367:1 
2.865489750164174 1968:1 1998:1 2001:1 2003:1 2281:1 2312:1 2368:1 2369:1 2370:1 2371:1 2372:1 2373:1 2374:1 2375:1 2376:1 2377:1 2378:1 2379:1 2380:1 2381:1 2382:1 
4.292182779485341 1967:1 2016:1 2118:1 2309:1 2383:1 2384:1 2385:1 2386:1 2387:1 2388:1 2389:1 2390:1 2391:1 2392:1 2393:1 2394:1 2395:1 2396:1 2397:1 2398:1 2399:1 2400:1 2401:1 2402:1 2403:1 2404:1 
8.885447415566073 612:1 2429:1 2430:1 2431:1 2432:1 2433:1 2434:1 2435:1 2436:1 2437:1 
3.849863756442006 22:1 33:1 68:1 91:1 479:1 612:1 1551:1 1741:1 1753:1 2460:1 2461:1 
1.266464108730082 8:1 10:1 26:1 164:1 206:1 612:1 659:1 665:1 703:1 722:1 1522:1 2470:1 2471:1 2472:1 2473:1 2474:1 2475:1 2476:1 
11.85552411343144 18:1 33:1 90:1 95:1 96:1 249:1 534:1 612:1 677:1 880:1 2439:1 2477:1 2478:1 2479:1 2480:1 2481:1 2482:1 2483:1 2484:1 2485:1 2486:1 2487:1 
5.874751218734088 3:1 8:1 10:1 99:1 582:1 593:1 1924:1 2495:1 2496:1 2497:1 2498:1 2499:1 2500:1 2501:1 2502:1 2503:1 
7.202516431189225 7:1 22:1 60:1 73:1 91:1 464:1 582:1 593:1 660:1 2504:1 2505:1 
1.430140235564948 3:1 91:1 99:1 101:1 128:1 151:1 259:1 416:1 425:1 582:1 604:1 666:1 879:1 880:1 2366:1 2511:1 2512:1 2513:1 
9.852523141623069 10:1 14:1 18:1 237:1 269:1 565:1 593:1 792:1 2514:1 2515:1 2516:1 2517:1 2518:1 2519:1 
22.65189111832166 3:1 807:1 1623:1 2524:1 2525:1 2526:1 2527:1 2528:1 2529:1 2530:1 
6.980369175043694 73:1 564:1 593:1 792:1 1916:1 2534:1 2535:1 2536:1 2537:1 2538:1 2539:1 2540:1 2541:1 
13.27739233873535 5:1 22:1 52:1 73:1 96:1 103:1 128:1 151:1 310:1 335:1 414:1 533:1 612:1 666:1 1640:1 2559:1 2560:1 2561:1 2562:1 2563:1 2564:1 
3.570536030655934 14:1 66:1 73:1 96:1 129:1 259:1 335:1 619:1 766:1 1759:1 2564:1 2575:1 2576:1 2577:1 2578:1 
30.63923277949412 1570:1 
2.322329641603506 10:1 14:1 18:1 22:1 58:1 73:1 338:1 619:1 2564:1 2577:1 2631:1 2632:1 2633:1 2634:1 2635:1 2636:1 2637:1 
20.68314099716908 96:1 152:1 162:1 1533:1 2564:1 2638:1 2639:1 2640:1 
4.999319399604627 10:1 18:1 55:1 68:1 73:1 74:1 95:1 121:1 177:1 178:1 179:1 237:1 298:1 310:1 322:1 414:1 487:1 551:1 665:1 1533:1 2581:1 2641:1 2642:1 2643:1 2644:1 2645:1 
24.46286866150362 8:1 58:1 212:1 803:1 1533:1 2564:1 2646:1 
19.15920199472062 22:1 26:1 54:1 58:1 73:1 91:1 95:1 99:1 150:1 249:1 259:1 357:1 530:1 813:1 1763:1 2582:1 2648:1 2649:1 2650:1 2651:1 
11.6391612035105 12:1 14:1 26:1 73:1 87:1 90:1 96:1 146:1 169:1 205:1 252:1 259:1 582:1 2652:1 2653:1 2654:1 2655:1 2656:1 2657:1 2658:1 2659:1 
5.921842260941844 3:1 14:1 23:1 26:1 54:1 73:1 147:1 156:1 259:1 338:1 407:1 478:1 576:1 582:1 620:1 782:1 953:1 1772:1 1864:1 2660:1 2661:1 2662:1 2663:1 2664:1 
9.091505560482794 14:1 26:1 52:1 71:1 73:1 91:1 95:1 151:1 164:1 249:1 697:1 1519:1 2565:1 2665:1 2666:1 2667:1 2668:1 2669:1 2670:1 2671:1 2672:1 
11.90759196673759 22:1 26:1 73:1 141:1 150:1 259:1 391:1 1763:1 2673:1 2674:1 2675:1 2676:1 2677:1 2678:1 
10.43891408655146 5:1 14:1 18:1 22:1 23:1 58:1 73:1 95:1 156:1 175:1 447:1 475:1 551:1 553:1 1554:1 2564:1 2679:1 2680:1 2681:1 2682:1 
8.485753333254102 3:1 18:1 22:1 26:1 34:1 73:1 87:1 95:1 117:1 151:1 376:1 377:1 696:1 762:1 804:1 1556:1 1763:1 2236:1 2683:1 2684:1 2685:1 2686:1 2687:1 2688:1 
18.38205651552855 3:1 22:1 26:1 33:1 55:1 73:1 75:1 151:1 582:1 665:1 695:1 1739:1 2597:1 2689:1 2690:1 2691:1 2692:1 2693:1 2694:1 
24.78445217132716 14:1 26:1 99:1 205:1 237:1 582:1 2695:1 2696:1 2697:1 2698:1 2699:1 2700:1 2701:1 
23.12213993458184 3:1 68:1 95:1 150:1 151:1 551:1 582:1 1029:1 1766:1 2702:1 2703:1 2704:1 2705:1 
11.90652419650551 38:1 73:1 105:1 162:1 804:1 819:1 1576:1 2564:1 2692:1 2702:1 2706:1 2707:1 2708:1 2709:1 2710:1 2711:1 2712:1 2713:1 2714:1 
14.39109205386336 55:1 58:1 68:1 73:1 151:1 313:1 551:1 659:1 697:1 804:1 2715:1 2716:1 2717:1 2718:1 2719:1 2720:1 2721:1 2722:1 2723:1 2724:1 2725:1 
32 34:1 73:1 95:1 259:1 475:1 635:1 793:1 809:1 1691:1 1759:1 2726:1 2727:1 
28.94883700783648 3:1 5:1 7:1 14:1 22:1 34:1 55:1 87:1 117:1 551:1 565:1 582:1 665:1 1572:1 1723:1 1729:1 2157:1 2728:1 2729:1 
28.77308874583635 23:1 26:1 451:1 530:1 595:1 697:1 2467:1 2514:1 2730:1 2731:1 
23.25138808416295 22:1 23:1 26:1 95:1 108:1 224:1 310:1 497:1 886:1 1766:1 2596:1 2732:1 2733:1 2734:1 
20.3330956699826 26:1 68:1 73:1 77:1 95:1 150:1 151:1 249:1 446:1 1737:1 1793:1 2594:1 2735:1 2736:1 2737:1 
3.183792530981802 95:1 99:1 150:1 151:1 377:1 446:1 475:1 551:1 1766:1 2738:1 
20.86038354853181 34:1 95:1 150:1 151:1 310:1 382:1 402:1 551:1 813:1 2739:1 2740:1 2741:1 2742:1 2743:1 2744:1 
14.10761494773407 3:1 68:1 73:1 95:1 108:1 134:1 150:1 151:1 237:1 377:1 551:1 1763:1 2745:1 2746:1 2747:1 2748:1 
14.50823653820307 3:1 8:1 10:1 25:1 26:1 32:1 55:1 58:1 216:1 414:1 533:1 620:1 660:1 731:1 785:1 819:1 2201:1 2749:1 2750:1 2751:1 2752:1 2753:1 2754:1 2755:1 2756:1 
6.480663992006176 14:1 22:1 26:1 33:1 34:1 73:1 95:1 269:1 551:1 554:1 2148:1 2760:1 2761:1 2762:1 2763:1 2764:1 2765:1 2766:1 2767:1 2768:1 2769:1 2770:1 2771:1 2772:1 
32 3:1 71:1 73:1 259:1 286:1 352:1 701:1 2773:1 2774:1 
23.56396012553152 3:1 26:1 259:1 582:1 2775:1 2776:1 2777:1 
32 581:1 635:1 2778:1 
23.55512757227295 581:1 1623:1 2778:1 2780:1 
8.813971192296597 581:1 2164:1 2778:1 2779:1 
32 581:1 793:1 2195:1 2778:1 
32 581:1 792:1 1568:1 2778:1 
17.30224783600007 3:1 73:1 259:1 582:1 2781:1 
10.48147575732965 498:1 581:1 2778:1 2782:1 
32 3:1 73:1 582:1 620:1 
28.13331686974124 581:1 793:1 1568:1 2778:1 
32 3:1 73:1 582:1 620:1 
32 3:1 38:1 73:1 582:1 620:1 
32 3:1 26:1 259:1 582:1 1589:1 2783:1 
32 3:1 73:1 582:1 620:1 
11.91686966191391 3:1 18:1 26:1 73:1 582:1 2784:1 2785:1 
-32 3:1 73:1 75:1 151:1 371:1 565:1 580:1 581:1 582:1 583:1 
-14.87178861550924 3:1 73:1 259:1 582:1 584:1 585:1 586:1 587:1 588:1 589:1 590:1 591:1 592:1 593:1 594:1 595:1 596:1 597:1 598:1 
-32 3:1 10:1 55:1 162:1 249:1 565:1 582:1 599:1 600:1 601:1 602:1 603:1 604:1 605:1 606:1 607:1 
-10.23248549268111 3:1 22:1 26:1 33:1 70:1 71:1 73:1 75:1 551:1 581:1 582:1 608:1 609:1 610:1 611:1 612:1 613:1 614:1 615:1 616:1 617:1 
-29.07625070476326 631:1 632:1 633:1 634:1 635:1 636:1 637:1 638:1 639:1 640:1 641:1 
-26.049933765193 22:1 25:1 310:1 581:1 620:1 642:1 643:1 644:1 645:1 646:1 647:1 648:1 649:1 650:1 
-32 631:1 651:1 652:1 653:1 654:1 655:1 656:1 657:1 658:1 
-13.17719708135831 382:1 707:1 708:1 709:1 710:1 711:1 712:1 713:1 714:1 715:1 
-32 382:1 707:1 708:1 709:1 710:1 711:1 712:1 713:1 714:1 715:1 
-4.281524205742961 3:1 10:1 70:1 170:1 592:1 595:1 701:1 716:1 717:1 718:1 719:1 720:1 721:1 722:1 723:1 
-32 95:1 701:1 733:1 734:1 735:1 736:1 737:1 
-32 26:1 738:1 739:1 740:1 741:1 742:1 
-29.90315817666464 7:1 8:1 14:1 141:1 214:1 594:1 743:1 744:1 745:1 746:1 747:1 748:1 749:1 750:1 751:1 
-32 3:1 26:1 55:1 582:1 594:1 744:1 763:1 764:1 
-32 96:1 595:1 609:1 740:1 775:1 776:1 
-32 23:1 63:1 597:1 631:1 746:1 777:1 778:1 779:1 780:1 781:1 782:1 783:1 784:1 
-32 14:1 26:1 476:1 740:1 785:1 786:1 787:1 788:1 789:1 790:1 
-18.30277633922078 3:1 73:1 75:1 96:1 128:1 162:1 565:1 582:1 631:1 746:1 791:1 792:1 793:1 794:1 795:1 796:1 797:1 798:1 
-0.9640497641011275 3:1 22:1 26:1 38:1 44:1 55:1 58:1 75:1 81:1 249:1 581:1 582:1 815:1 816:1 817:1 818:1 819:1 820:1 821:1 822:1 
-23.02892671288786 259:1 701:1 792:1 807:1 823:1 824:1 
-26.28970156880916 594:1 595:1 839:1 840:1 841:1 842:1 843:1 844:1 845:1 846:1 
-4.634323658850224 38:1 594:1 595:1 596:1 633:1 847:1 848:1 849:1 850:1 851:1 852:1 
-17.04337568651149 22:1 594:1 595:1 854:1 855:1 856:1 857:1 858:1 859:1 860:1 861:1 862:1 863:1 
-24.63129975569893 82:1 83:1 594:1 595:1 763:1 844:1 864:1 865:1 866:1 867:1 
-20.88668761345768 26:1 633:1 635:1 697:1 723:1 1504:1 1505:1 1506:1 
-32 26:1 697:1 723:1 1504:1 1505:1 1507:1 1508:1 1509:1 
-32 26:1 635:1 697:1 723:1 1505:1 1510:1 1511:1 1512:1 
-32 3:1 26:1 54:1 57:1 73:1 620:1 723:1 1513:1 1514:1 1515:1 1516:1 1517:1 1518:1 1519:1 1520:1 1521:1 
-20.41558383665044 3:1 58:1 68:1 174:1 237:1 310:1 400:1 574:1 620:1 723:1 785:1 1522:1 1523:1 1524:1 1525:1 1526:1 1527:1 1528:1 1529:1 1530:1 1531:1 
-32 14:1 22:1 182:1 582:1 612:1 722:1 1543:1 1544:1 1545:1 1546:1 1547:1 1548:1 1549:1 1550:1 
-30.67044550084683 3:1 26:1 95:1 108:1 150:1 582:1 665:1 694:1 735:1 738:1 1568:1 1569:1 1570:1 1571:1 1572:1 1573:1 1574:1 1575:1 1576:1 1577:1 1578:1 1579:1 
-32 701:1 819:1 1580:1 
-10.3980541397492 55:1 205:1 701:1 1598:1 1599:1 1600:1 1601:1 1602:1 1603:1 1604:1 1605:1 1606:1 1607:1 1608:1 1609:1 1610:1 1611:1 
-32 33:1 38:1 73:1 108:1 694:1 748:1 1612:1 1613:1 1614:1 1615:1 1616:1 1617:1 1618:1 
-18.90095735552997 3:1 26:1 55:1 205:1 259:1 701:1 1627:1 1628:1 1629:1 1630:1 1631:1 1632:1 1633:1 1634:1 1635:1 
-25.00269554388755 3:1 18:1 71:1 89:1 249:1 259:1 318:1 351:1 414:1 530:1 701:1 1539:1 1636:1 1637:1 1638:1 1639:1 1640:1 1641:1 1642:1 1643:1 
-3.62510563631837 237:1 620:1 631:1 701:1 723:1 1614:1 1644:1 1645:1 1646:1 1647:1 
-9.548654881068289 26:1 44:1 73:1 96:1 162:1 174:1 303:1 565:1 695:1 701:1 762:1 804:1 813:1 865:1 879:1 880:1 1682:1 1683:1 1684:1 1685:1 1686:1 1687:1 
-26.81794575359699 5:1 22:1 95:1 106:1 340:1 370:1 377:1 551:1 582:1 612:1 810:1 830:1 1589:1 1688:1 1689:1 1690:1 1691:1 
-22.43931736614146 205:1 615:1 660:1 701:1 1508:1 1692:1 1693:1 1694:1 1695:1 
-32 3:1 8:1 26:1 425:1 582:1 807:1 819:1 879:1 1719:1 1720:1 1721:1 1722:1 1723:1 
-20.39298622394984 3:1 26:1 73:1 95:1 150:1 531:1 581:1 582:1 1564:1 1729:1 1730:1 1731:1 1732:1 1733:1 1734:1 1735:1 1736:1 1737:1 1738:1 
-26.72623224876544 3:1 95:1 96:1 512:1 582:1 807:1 1623:1 1757:1 1758:1 1759:1 1760:1 1761:1 1762:1 
-32 3:1 52:1 95:1 237:1 259:1 551:1 582:1 593:1 1639:1 1685:1 1763:1 1764:1 1765:1 1766:1 1767:1 
-32 22:1 23:1 96:1 117:1 156:1 237:1 310:1 582:1 807:1 1768:1 1769:1 1770:1 1771:1 
-12.83118194600617 3:1 18:1 73:1 117:1 259:1 581:1 582:1 697:1 717:1 793:1 816:1 1521:1 1772:1 1773:1 1774:1 1775:1 
-3.272961908471602 3:1 8:1 22:1 44:1 73:1 162:1 259:1 335:1 565:1 581:1 582:1 660:1 792:1 793:1 1519:1 1520:1 1521:1 1776:1 1777:1 1778:1 
-32 3:1 26:1 73:1 259:1 582:1 593:1 620:1 793:1 1787:1 1788:1 1789:1 1790:1 
-11.01524312046043 3:1 581:1 582:1 637:1 1521:1 1612:1 1720:1 1794:1 1795:1 1796:1 1797:1 
-26.55507201628002 3:1 7:1 8:1 14:1 22:1 58:1 87:1 96:1 582:1 733:1 807:1 819:1 1673:1 1798:1 1799:1 1800:1 1801:1 1802:1 1803:1 1804:1 
-5.72338774783841 3:1 581:1 582:1 647:1 793:1 804:1 813:1 830:1 1526:1 1727:1 1805:1 1806:1 1807:1 1808:1 1809:1 1810:1 1811:1 1812:1 1813:1 
-32 58:1 649:1 807:1 859:1 1622:1 1623:1 1839:1 1840:1 1841:1 1842:1 
-32 96:1 581:1 601:1 1624:1 1845:1 1846:1 1847:1 1848:1 
-4.439337691879154 22:1 58:1 581:1 633:1 734:1 1622:1 1623:1 1839:1 1849:1 1850:1 1851:1 1852:1 1853:1 
-32 22:1 46:1 58:1 108:1 117:1 376:1 581:1 793:1 1622:1 1623:1 1860:1 1861:1 
-32 3:1 8:1 14:1 22:1 34:1 58:1 106:1 371:1 582:1 631:1 792:1 807:1 1795:1 1865:1 
-3.08787814657208 581:1 792:1 793:1 816:1 859:1 1866:1 1867:1 1868:1 1869:1 1870:1 1871:1 1872:1 
-32 3:1 8:1 10:1 22:1 26:1 33:1 73:1 95:1 217:1 475:1 593:1 792:1 793:1 1655:1 1763:1 1784:1 1873:1 1874:1 1875:1 1876:1 
-16.78933747537152 18:1 22:1 58:1 73:1 75:1 104:1 105:1 581:1 609:1 792:1 793:1 820:1 830:1 1868:1 1877:1 1878:1 
-19.32081293486129 38:1 40:1 581:1 859:1 1589:1 1719:1 1869:1 1886:1 1887:1 1888:1 1889:1 1890:1 1891:1 
-8.01041223854287 22:1 25:1 206:1 631:1 648:1 766:1 792:1 807:1 1639:1 1900:1 1901:1 1902:1 1903:1 
-25.71975193620647 34:1 68:1 151:1 246:1 581:1 620:1 792:1 1534:1 1904:1 1905:1 1906:1 1907:1 1908:1 1909:1 
-32 3:1 73:1 582:1 620:1 633:1 1691:1 1937:1 1938:1 1939:1 
-18.12338503858838 3:1 14:1 33:1 73:1 249:1 523:1 581:1 582:1 631:1 1381:1 2058:1 2059:1 2060:1 2061:1 2062:1 2063:1 
-4.184270671056204 3:1 22:1 33:1 55:1 121:1 249:1 523:1 581:1 582:1 792:1 1685:1 2065:1 2066:1 2067:1 2068:1 2069:1 2070:1 2071:1 2072:1 
-32 70:1 581:1 582:1 1834:1 2073:1 
-20.03194724526878 3:1 18:1 73:1 259:1 581:1 582:1 717:1 793:1 816:1 1521:1 1772:1 1773:1 1774:1 2087:1 2088:1 
-9.891672850850368 26:1 58:1 59:1 237:1 259:1 310:1 603:1 604:1 647:1 701:1 1559:1 1622:1 2067:1 2089:1 2090:1 2091:1 2092:1 2093:1 
-16.59395742750379 8:1 391:1 593:1 652:1 660:1 724:1 792:1 793:1 1534:1 1639:1 1898:1 2099:1 2100:1 2101:1 2102:1 2103:1 2104:1 2105:1 
-26.1452563443218 96:1 581:1 633:1 1504:1 2106:1 2107:1 2108:1 2109:1 
-32 581:1 715:1 1924:1 2110:1 2111:1 2112:1 2113:1 2114:1 2115:1 
-32 38:1 593:1 596:1 715:1 734:1 850:1 2116:1 2117:1 2118:1 2119:1 2120:1 2121:1 2122:1 2123:1 
-10.77839139335061 22:1 58:1 59:1 70:1 73:1 95:1 96:1 259:1 310:1 318:1 512:1 581:1 582:1 609:1 612:1 1717:1 2149:1 2150:1 2151:1 2152:1 
-13.51101887710766 10:1 73:1 259:1 340:1 551:1 581:1 701:1 804:1 1729:1 2106:1 2153:1 2154:1 2155:1 2156:1 2157:1 
-32 10:1 18:1 22:1 37:1 55:1 71:1 259:1 275:1 462:1 576:1 582:1 612:1 705:1 756:1 1834:1 2194:1 2195:1 2196:1 2197:1 2198:1 
-1.497362953795665 3:1 7:1 162:1 370:1 594:1 637:1 701:1 854:1 1784:1 2199:1 2200:1 2201:1 2202:1 2203:1 2204:1 
-4.687126348167203 8:1 10:1 71:1 594:1 701:1 854:1 2200:1 2201:1 2202:1 2205:1 2206:1 2207:1 2208:1 2209:1 2210:1 2211:1 
-7.665194605467331 10:1 22:1 507:1 701:1 816:1 1521:1 1734:1 2212:1 2213:1 2214:1 2215:1 2216:1 2217:1 2218:1 2219:1 2220:1 2221:1 
-4.687126348167648 8:1 10:1 71:1 594:1 701:1 854:1 2200:1 2201:1 2202:1 2205:1 2206:1 2207:1 2208:1 2209:1 2210:1 2222:1 
-25.45606160503267 3:1 75:1 249:1 701:1 1519:1 1520:1 2233:1 2234:1 2235:1 2239:1 
-32 812:1 2201:1 2412:1 2413:1 2414:1 2415:1 2416:1 2417:1 2418:1 2419:1 2420:1 
-32 33:1 205:1 701:1 1612:1 1617:1 2421:1 2422:1 
-26.04426766700697 8:1 23:1 26:1 55:1 259:1 625:1 701:1 804:1 1676:1 2424:1 2425:1 2426:1 2427:1 2428:1 
-27.8397973194562 5:1 22:1 26:1 73:1 119:1 310:1 582:1 612:1 1655:1 2164:1 2444:1 2445:1 2446:1 2447:1 2448:1 2449:1 2450:1 2451:1 
-32 3:1 5:1 73:1 701:1 2452:1 2453:1 2454:1 
-5.377886069783304 3:1 10:1 44:1 425:1 595:1 701:1 804:1 819:1 820:1 2212:1 2455:1 2456:1 2457:1 2458:1 2459:1 
-18.45260830102897 14:1 25:1 55:1 212:1 259:1 551:1 595:1 701:1 2462:1 2463:1 2464:1 2465:1 2466:1 2467:1 2468:1 2469:1 
-15.52226616582561 166:1 581:1 620:1 652:1 792:1 793:1 1589:1 1905:1 2520:1 
-32 581:1 792:1 793:1 2531:1 2532:1 2533:1 
-32 34:1 73:1 151:1 259:1 310:1 551:1 565:1 701:1 1381:1 2059:1 2553:1 2554:1 2555:1 
-26.72229094213208 205:1 701:1 724:1 1644:1 1773:1 2478:1 2556:1 2557:1 2558:1 
-25.30861870168244 3:1 14:1 33:1 55:1 58:1 68:1 99:1 144:1 498:1 581:1 582:1 600:1 601:1 1759:1 2551:1 2565:1 2566:1 2567:1 
-21.16046312136052 10:1 14:1 33:1 68:1 73:1 91:1 151:1 212:1 237:1 310:1 565:1 609:1 820:1 1874:1 2564:1 2568:1 2569:1 2570:1 2571:1 2572:1 2573:1 2574:1 
-11.72543836947631 26:1 63:1 303:1 594:1 1733:1 2451:1 2572:1 2579:1 2580:1 2581:1 2582:1 2583:1 2584:1 2585:1 2586:1 2587:1 
-31.4307167449029 33:1 68:1 73:1 91:1 101:1 150:1 376:1 475:1 632:1 671:1 809:1 810:1 1763:1 2331:1 2588:1 2589:1 2590:1 2591:1 2592:1 2593:1 
-32 3:1 8:1 22:1 73:1 95:1 294:1 447:1 793:1 810:1 813:1 880:1 1760:1 1800:1 2594:1 2595:1 2596:1 2597:1 
-14.32236935595533 3:1 33:1 95:1 150:1 259:1 432:1 551:1 725:1 810:1 1800:1 2598:1 2599:1 2600:1 2601:1 2602:1 2603:1 2604:1 2605:1 2606:1 2607:1 2608:1 
-32 3:1 73:1 75:1 95:1 117:1 150:1 151:1 565:1 582:1 635:1 810:1 1564:1 2609:1 
-7.528910989099573 10:1 14:1 26:1 38:1 73:1 95:1 99:1 237:1 551:1 771:1 806:1 810:1 1523:1 1533:1 1628:1 1729:1 2564:1 2608:1 2610:1 2611:1 2612:1 2613:1 
-10.35059066805771 3:1 8:1 10:1 22:1 26:1 146:1 425:1 807:1 810:1 1723:1 1874:1 2116:1 2572:1 2614:1 2615:1 2616:1 2617:1 2618:1 2619:1 
-32 8:1 58:1 73:1 370:1 530:1 558:1 660:1 1533:1 1589:1 2564:1 2608:1 2620:1 
-24.92020475106423 8:1 33:1 68:1 73:1 370:1 558:1 660:1 804:1 1533:1 1589:1 2564:1 2608:1 2621:1 2622:1 2623:1 
-32 99:1 495:1 1533:1 2564:1 2624:1 2625:1 
-32 14:1 44:1 73:1 150:1 151:1 237:1 269:1 565:1 706:1 804:1 879:1 880:1 1523:1 2564:1 2572:1 2626:1 2627:1 2628:1 2629:1 2630:1 
