svm_type c_svc
kernel_type rbf
gamma 0.125
nr_class 2
total_sv 533
rho -0.489909
label 0 1
probA -8.11886
probB 2.72683
nr_sv 419 114
SV
0.3598630466998347 1:1 2:1 3:1 4:1 5:1 6:1 7:1 8:1 9:1 10:1 11:1 12:1 13:1 14:1 15:1 16:1 
0.3986040571967263 8:1 10:1 17:1 18:1 19:1 20:1 21:1 22:1 23:1 24:1 25:1 26:1 27:1 28:1 29:1 30:1 31:1 32:1 33:1 34:1 35:1 36:1 
0.4330700526063964 14:1 37:1 38:1 39:1 40:1 41:1 42:1 43:1 44:1 45:1 46:1 47:1 48:1 
0.01239401156046801 33:1 49:1 50:1 51:1 52:1 53:1 
0.3343615397947777 54:1 55:1 56:1 57:1 58:1 59:1 
0.2264783749647952 22:1 60:1 61:1 62:1 63:1 64:1 
0.2897822772753894 33:1 65:1 66:1 67:1 68:1 69:1 70:1 71:1 72:1 
0.1249853988044916 10:1 50:1 71:1 73:1 74:1 75:1 76:1 77:1 
0.3320615279246228 78:1 79:1 80:1 81:1 82:1 83:1 84:1 85:1 
0.2376798448759606 14:1 18:1 52:1 71:1 86:1 87:1 88:1 89:1 90:1 91:1 92:1 93:1 94:1 95:1 96:1 97:1 
0.3924485415185942 8:1 10:1 18:1 22:1 25:1 33:1 57:1 59:1 98:1 99:1 100:1 101:1 102:1 103:1 104:1 105:1 106:1 107:1 108:1 109:1 110:1 
0.2439927193719469 10:1 113:1 114:1 115:1 116:1 117:1 118:1 119:1 120:1 
0.308821766443106 3:1 14:1 26:1 52:1 121:1 122:1 123:1 124:1 125:1 126:1 127:1 128:1 129:1 130:1 131:1 
0.232719661749095 58:1 71:1 134:1 135:1 136:1 137:1 138:1 139:1 
0.2346194497706011 140:1 141:1 142:1 143:1 144:1 145:1 146:1 
0.3649281059855285 8:1 10:1 14:1 58:1 73:1 151:1 155:1 156:1 157:1 158:1 159:1 160:1 161:1 162:1 163:1 164:1 165:1 166:1 167:1 168:1 169:1 170:1 
0.3586873157297046 3:1 5:1 8:1 22:1 33:1 55:1 95:1 117:1 158:1 171:1 172:1 173:1 174:1 175:1 176:1 177:1 178:1 179:1 180:1 
0.3559689360002291 95:1 181:1 182:1 183:1 184:1 185:1 186:1 187:1 188:1 189:1 190:1 
0.4464028009982737 8:1 18:1 58:1 91:1 128:1 144:1 146:1 150:1 191:1 192:1 193:1 194:1 195:1 196:1 197:1 198:1 199:1 200:1 201:1 202:1 203:1 204:1 205:1 206:1 207:1 208:1 
0.4083429724277211 7:1 8:1 26:1 87:1 162:1 205:1 209:1 210:1 211:1 212:1 213:1 214:1 215:1 216:1 217:1 218:1 
0.1506486769438086 8:1 22:1 33:1 46:1 50:1 68:1 73:1 128:1 163:1 221:1 222:1 223:1 224:1 225:1 
0.1972966404634782 10:1 14:1 226:1 227:1 228:1 229:1 230:1 231:1 
0.3595348076088117 5:1 8:1 33:1 55:1 232:1 233:1 234:1 235:1 236:1 237:1 238:1 239:1 240:1 241:1 242:1 
0.3571315362150652 38:1 73:1 156:1 243:1 244:1 245:1 246:1 247:1 248:1 249:1 250:1 251:1 252:1 253:1 254:1 255:1 256:1 
0.1424947602860089 237:1 259:1 260:1 261:1 
0.1669653861796987 8:1 22:1 239:1 264:1 265:1 266:1 267:1 268:1 269:1 270:1 
0.1826549176133253 68:1 147:1 151:1 259:1 271:1 272:1 273:1 274:1 275:1 
0.3845711861976835 10:1 14:1 55:1 118:1 276:1 277:1 278:1 279:1 280:1 281:1 282:1 283:1 284:1 285:1 
0.0405607848100506 8:1 46:1 286:1 287:1 288:1 289:1 
0.1605421992910474 8:1 14:1 23:1 33:1 91:1 143:1 146:1 156:1 259:1 290:1 291:1 292:1 293:1 294:1 
0.3452791355900844 3:1 14:1 22:1 33:1 68:1 71:1 76:1 164:1 205:1 234:1 295:1 296:1 297:1 298:1 299:1 300:1 301:1 302:1 
0.3115161851588213 3:1 8:1 22:1 26:1 54:1 67:1 91:1 109:1 303:1 304:1 305:1 306:1 307:1 308:1 309:1 310:1 311:1 
0.2292832835720425 7:1 151:1 174:1 305:1 312:1 313:1 314:1 315:1 316:1 317:1 
0.3272010052907443 58:1 318:1 319:1 320:1 321:1 322:1 323:1 
0.4456616738119048 8:1 10:1 26:1 55:1 77:1 91:1 216:1 275:1 324:1 325:1 326:1 327:1 328:1 329:1 330:1 331:1 332:1 333:1 334:1 335:1 336:1 337:1 338:1 339:1 
0.1739223060973162 343:1 344:1 345:1 346:1 347:1 
0.01325113641946566 348:1 349:1 350:1 
0.4073169671673926 3:1 8:1 10:1 14:1 22:1 33:1 50:1 87:1 216:1 237:1 315:1 351:1 352:1 353:1 354:1 355:1 356:1 357:1 358:1 359:1 360:1 361:1 362:1 363:1 364:1 
0.3668107043462958 5:1 8:1 59:1 71:1 128:1 150:1 151:1 180:1 259:1 335:1 365:1 366:1 367:1 368:1 369:1 370:1 371:1 372:1 373:1 
0.2539530088594986 14:1 18:1 22:1 33:1 58:1 68:1 76:1 106:1 108:1 318:1 374:1 375:1 
0.2886748013381829 10:1 18:1 22:1 95:1 117:1 237:1 376:1 377:1 378:1 379:1 
0.2561405851536392 23:1 141:1 237:1 380:1 381:1 382:1 383:1 384:1 
0.2681745963034038 10:1 33:1 73:1 87:1 216:1 237:1 352:1 385:1 386:1 387:1 388:1 389:1 390:1 391:1 392:1 
0.2462362110661843 3:1 8:1 22:1 23:1 52:1 73:1 163:1 252:1 357:1 393:1 394:1 395:1 396:1 397:1 398:1 399:1 400:1 401:1 
0.4130401569243566 8:1 14:1 22:1 33:1 46:1 52:1 55:1 68:1 91:1 96:1 118:1 150:1 203:1 357:1 405:1 406:1 407:1 408:1 409:1 410:1 411:1 412:1 413:1 414:1 415:1 
0.255444906028819 71:1 416:1 419:1 420:1 421:1 422:1 423:1 424:1 425:1 426:1 
0.4594846736402623 26:1 181:1 427:1 428:1 429:1 430:1 431:1 432:1 433:1 434:1 435:1 436:1 437:1 438:1 439:1 440:1 441:1 442:1 443:1 444:1 
0.28235529657626 22:1 33:1 106:1 108:1 397:1 445:1 446:1 447:1 448:1 449:1 450:1 
0.3866834789307994 48:1 95:1 202:1 259:1 335:1 451:1 452:1 453:1 454:1 455:1 456:1 457:1 458:1 459:1 460:1 461:1 462:1 
0.4132393932841756 3:1 8:1 10:1 22:1 25:1 68:1 73:1 74:1 96:1 416:1 463:1 464:1 465:1 466:1 467:1 468:1 469:1 470:1 471:1 472:1 473:1 474:1 
0.3759205113420837 5:1 22:1 33:1 73:1 96:1 106:1 108:1 178:1 475:1 476:1 477:1 478:1 479:1 480:1 481:1 482:1 483:1 484:1 485:1 
0.3911926513876204 5:1 10:1 14:1 18:1 52:1 71:1 73:1 91:1 96:1 237:1 259:1 486:1 487:1 488:1 489:1 490:1 491:1 492:1 493:1 494:1 495:1 496:1 497:1 
0.3901741076548628 8:1 22:1 58:1 68:1 259:1 269:1 498:1 499:1 500:1 501:1 502:1 503:1 504:1 505:1 506:1 507:1 508:1 
0.4002177821121788 8:1 10:1 54:1 466:1 509:1 510:1 511:1 512:1 513:1 514:1 515:1 516:1 517:1 518:1 519:1 520:1 521:1 522:1 
0.4003810547207035 5:1 8:1 22:1 33:1 68:1 73:1 144:1 156:1 163:1 237:1 259:1 399:1 523:1 524:1 525:1 526:1 527:1 528:1 529:1 530:1 531:1 532:1 533:1 534:1 
0.3796880482262424 3:1 5:1 14:1 22:1 38:1 119:1 269:1 425:1 535:1 536:1 537:1 538:1 539:1 540:1 541:1 542:1 
0.2713168518822772 3:1 33:1 67:1 87:1 151:1 252:1 543:1 544:1 545:1 546:1 547:1 548:1 549:1 550:1 551:1 
0.3016883061654828 8:1 10:1 14:1 33:1 58:1 59:1 73:1 99:1 108:1 178:1 246:1 335:1 412:1 552:1 553:1 554:1 555:1 
0.3976456196393436 3:1 8:1 22:1 23:1 26:1 38:1 73:1 77:1 151:1 205:1 255:1 357:1 556:1 557:1 558:1 559:1 560:1 561:1 562:1 563:1 564:1 565:1 566:1 
0.2649254782496369 10:1 22:1 567:1 568:1 569:1 570:1 571:1 572:1 
0.3397407911435451 8:1 10:1 26:1 246:1 259:1 269:1 340:1 573:1 574:1 575:1 576:1 577:1 578:1 579:1 
0.4133266967661828 3:1 8:1 73:1 96:1 582:1 618:1 619:1 620:1 621:1 
0.3977421919105521 3:1 10:1 14:1 22:1 73:1 75:1 91:1 95:1 96:1 108:1 353:1 544:1 564:1 620:1 622:1 623:1 624:1 625:1 626:1 627:1 628:1 
1.137191166971165 3:1 582:1 629:1 630:1 631:1 
0.4752962938984263 3:1 8:1 26:1 50:1 58:1 73:1 318:1 599:1 631:1 659:1 660:1 661:1 662:1 663:1 664:1 665:1 666:1 667:1 668:1 669:1 670:1 
0.2439728446288252 3:1 8:1 22:1 82:1 128:1 200:1 235:1 259:1 620:1 671:1 672:1 673:1 
0.4502438829472431 3:1 8:1 10:1 38:1 101:1 162:1 294:1 325:1 551:1 565:1 620:1 674:1 675:1 676:1 677:1 678:1 679:1 680:1 
0.4302356333257661 11:1 14:1 22:1 58:1 205:1 264:1 681:1 682:1 683:1 684:1 685:1 686:1 687:1 688:1 689:1 
0.2021699109617452 22:1 117:1 135:1 180:1 335:1 612:1 690:1 691:1 
0.3611524341997367 3:1 8:1 22:1 33:1 54:1 55:1 59:1 119:1 237:1 269:1 479:1 665:1 692:1 693:1 694:1 695:1 696:1 697:1 698:1 699:1 
1.006062966625268 151:1 237:1 565:1 700:1 701:1 702:1 703:1 704:1 705:1 706:1 
0.4982672260530401 8:1 10:1 22:1 23:1 58:1 73:1 108:1 118:1 141:1 150:1 162:1 163:1 201:1 246:1 531:1 701:1 724:1 725:1 726:1 727:1 728:1 729:1 730:1 731:1 732:1 
0.4048932011895125 8:1 18:1 32:1 33:1 71:1 73:1 237:1 259:1 399:1 696:1 746:1 752:1 753:1 754:1 755:1 756:1 757:1 758:1 759:1 760:1 761:1 762:1 
0.4231382866274838 3:1 8:1 14:1 18:1 33:1 55:1 68:1 237:1 620:1 622:1 746:1 765:1 766:1 767:1 768:1 769:1 770:1 771:1 772:1 773:1 774:1 
0.412754534253298 3:1 55:1 95:1 237:1 746:1 799:1 800:1 801:1 802:1 803:1 
0.3909387498382655 5:1 8:1 10:1 73:1 178:1 336:1 368:1 454:1 536:1 612:1 825:1 826:1 827:1 828:1 829:1 830:1 831:1 
0.4654481136497478 3:1 8:1 33:1 59:1 73:1 95:1 99:1 178:1 206:1 216:1 259:1 269:1 424:1 582:1 717:1 734:1 832:1 833:1 834:1 835:1 836:1 837:1 838:1 
0.2658074084754185 52:1 91:1 128:1 239:1 246:1 249:1 259:1 269:1 270:1 629:1 854:1 868:1 869:1 870:1 871:1 
0.2183594948137257 872:1 873:1 874:1 875:1 876:1 877:1 
0.2852110158755601 255:1 879:1 880:1 881:1 882:1 883:1 884:1 885:1 886:1 887:1 
0.173903439687687 888:1 889:1 890:1 891:1 892:1 
0.04651401252443594 879:1 880:1 893:1 894:1 
0.04617888430398494 879:1 880:1 895:1 896:1 
0.1741720498722269 897:1 898:1 899:1 900:1 901:1 
0.04776588642091622 879:1 880:1 902:1 903:1 
0.02801014934161015 904:1 905:1 906:1 
0.02792583764900909 907:1 908:1 909:1 
0.02783127671391964 910:1 911:1 912:1 
0.0281218830230203 913:1 914:1 915:1 
0.1151893066464131 916:1 917:1 918:1 919:1 
0.367237882482816 920:1 921:1 922:1 923:1 924:1 925:1 926:1 927:1 928:1 929:1 930:1 931:1 
0.02819070604709204 932:1 933:1 934:1 
0.2185732834102416 935:1 936:1 937:1 938:1 939:1 940:1 
0.02790725682866844 949:1 950:1 951:1 
0.3290094407758565 952:1 953:1 954:1 955:1 956:1 957:1 958:1 959:1 960:1 961:1 
0.1155537982354989 962:1 963:1 964:1 965:1 
0.2186201088358948 941:1 942:1 943:1 944:1 945:1 946:1 
0.253927222026875 966:1 967:1 968:1 969:1 970:1 971:1 972:1 973:1 974:1 975:1 
0.1157909228884267 978:1 979:1 980:1 981:1 
0.1934333836542494 966:1 982:1 983:1 984:1 985:1 986:1 987:1 
0.2184862147532701 990:1 991:1 992:1 993:1 994:1 995:1 
0.1746688646757117 996:1 997:1 998:1 999:1 1000:1 
0.02796268563207793 1001:1 1002:1 1003:1 
0.1540493631052179 966:1 969:1 972:1 974:1 983:1 1004:1 1005:1 1006:1 
0.258827983391908 3:1 52:1 75:1 270:1 1008:1 1009:1 
0.1448391653712481 879:1 880:1 1010:1 1011:1 1012:1 
0.04575778252856003 879:1 880:1 1013:1 1014:1 
0.04670559166928986 879:1 880:1 1016:1 1017:1 
0.04744597707476705 879:1 880:1 1018:1 1019:1 
0.1626823532007003 1020:1 1021:1 1022:1 1023:1 1024:1 
0.0365374790801104 3:1 18:1 1025:1 1026:1 1027:1 1028:1 1029:1 
0.09929738017894982 1032:1 1033:1 1034:1 1035:1 
0.174785332657304 1038:1 1039:1 1040:1 1041:1 1042:1 
0.237222035336098 26:1 1043:1 1044:1 1045:1 1046:1 
0.1747084610386445 1047:1 1048:1 1049:1 1050:1 1051:1 
0.2541990489652313 1052:1 1053:1 1054:1 1055:1 1056:1 1057:1 1058:1 
0.3088464595130725 1059:1 1060:1 1061:1 1062:1 1063:1 1064:1 1065:1 1066:1 1067:1 
0.1171055382056125 1072:1 1073:1 1074:1 1075:1 1076:1 
0.1177889666302014 22:1 23:1 1077:1 1078:1 1079:1 1080:1 1081:1 
0.3673059028621634 1083:1 1084:1 1085:1 1086:1 1087:1 1088:1 1089:1 1090:1 1091:1 1092:1 1093:1 1094:1 1095:1 1096:1 1097:1 
0.02816840389645494 1098:1 1099:1 1100:1 
0.1742917307530362 1101:1 1102:1 1103:1 1104:1 1105:1 
0.3432932165297687 966:1 969:1 970:1 974:1 983:1 1106:1 1107:1 1108:1 1109:1 1110:1 1111:1 1112:1 1113:1 1114:1 
0.3666591600429135 1083:1 1087:1 1088:1 1091:1 1093:1 1094:1 1096:1 1116:1 1117:1 1118:1 1119:1 1120:1 1121:1 1122:1 1123:1 
0.1747200498374888 1124:1 1125:1 1126:1 1127:1 1128:1 
0.3293047841238612 966:1 1129:1 1130:1 1131:1 1132:1 1133:1 1134:1 1135:1 1136:1 1137:1 1138:1 
0.2179920801110608 1139:1 1140:1 1141:1 1142:1 1143:1 1144:1 
0.1745561418900578 1145:1 1146:1 1147:1 1148:1 1149:1 
0.2185395973227856 1151:1 1152:1 1153:1 1154:1 1155:1 1156:1 
0.2831527150257985 1157:1 1158:1 1159:1 1160:1 1161:1 1162:1 1163:1 1164:1 
0.3499373265928203 1165:1 1166:1 1167:1 1168:1 1169:1 1170:1 1171:1 1172:1 1173:1 1174:1 1175:1 
0.3087850965062343 1176:1 1177:1 1178:1 1179:1 1180:1 1181:1 1182:1 1183:1 1184:1 
0.09187650716475877 1020:1 1189:1 1190:1 1191:1 
0.2834186934142605 1192:1 1193:1 1194:1 1195:1 1196:1 1197:1 1198:1 1199:1 
0.174720049837489 1200:1 1201:1 1202:1 1203:1 1204:1 
0.114892733332559 1205:1 1206:1 1207:1 1208:1 
0.3308957906735694 1209:1 1210:1 1211:1 1212:1 1213:1 1214:1 1215:1 1216:1 1217:1 1218:1 
0.1748329795718324 1219:1 1220:1 1221:1 1222:1 1223:1 
0.1160131921511076 1072:1 1073:1 1225:1 1226:1 1227:1 
0.2188187251299976 1228:1 1229:1 1230:1 1231:1 1232:1 1233:1 
0.02809512533884983 1234:1 1235:1 1236:1 
0.253338376321376 1237:1 1238:1 1239:1 1240:1 1241:1 1242:1 1243:1 
0.02848014443390039 1244:1 1245:1 1246:1 
0.2491351247825908 1249:1 1250:1 1251:1 1252:1 1253:1 1254:1 1255:1 
0.0281819200689889 1257:1 1258:1 1259:1 
0.3087556136761149 1260:1 1261:1 1262:1 1263:1 1264:1 1265:1 1266:1 1267:1 1268:1 
0.4008151855604472 1072:1 1269:1 1270:1 1271:1 1272:1 1273:1 1274:1 1275:1 1276:1 1277:1 1278:1 1279:1 1280:1 1281:1 1282:1 
0.4198064226325168 1285:1 1286:1 1287:1 1288:1 1289:1 1290:1 1291:1 1292:1 1293:1 1294:1 1295:1 1296:1 1297:1 1298:1 1299:1 1300:1 
0.3829557752980879 1301:1 1302:1 1303:1 1304:1 1305:1 1306:1 1307:1 1308:1 1309:1 1310:1 1311:1 1312:1 1313:1 
0.02814323358115032 1318:1 1319:1 1320:1 
0.02889224756585419 1322:1 1323:1 1324:1 
0.1160016159619757 1327:1 1328:1 1329:1 1330:1 
0.02860125953427173 1331:1 1332:1 1333:1 
0.3037524466919093 80:1 1338:1 1339:1 1340:1 1341:1 1342:1 1343:1 1344:1 1345:1 1346:1 
0.283473581171586 1347:1 1348:1 1349:1 1350:1 1351:1 1352:1 1353:1 1354:1 
0.02816840336109333 1355:1 1356:1 1357:1 
0.3442287958502454 1360:1 1361:1 1362:1 1363:1 1364:1 1365:1 1366:1 1367:1 1368:1 1369:1 1370:1 1371:1 1372:1 
0.3044492023231303 1360:1 1361:1 1362:1 1363:1 1364:1 1373:1 1374:1 1375:1 1376:1 1377:1 1378:1 
0.3843384076530823 26:1 80:1 1379:1 1380:1 1381:1 1382:1 1383:1 1384:1 1385:1 1386:1 1387:1 1388:1 
0.09914083789917433 1034:1 1389:1 1390:1 1391:1 
0.2565976223855093 1392:1 1393:1 1394:1 1395:1 1396:1 1397:1 1398:1 1399:1 1400:1 
0.2570910730787352 1392:1 1393:1 1394:1 1395:1 1401:1 1402:1 1403:1 1404:1 1405:1 
0.420717053030137 1406:1 1407:1 1408:1 1409:1 1410:1 1411:1 1412:1 1413:1 1414:1 1415:1 1416:1 1417:1 1418:1 1419:1 1420:1 1421:1 1422:1 
0.1156055390762746 1423:1 1424:1 1425:1 1426:1 
0.3983808481347133 80:1 1407:1 1415:1 1427:1 1428:1 1429:1 1430:1 1431:1 1432:1 1433:1 1434:1 1435:1 1436:1 1437:1 1438:1 1439:1 
0.3224670757076472 1420:1 1440:1 1441:1 1442:1 1443:1 1444:1 1445:1 1446:1 1447:1 1448:1 
0.4309778796977868 1420:1 1431:1 1432:1 1449:1 1450:1 1451:1 1452:1 1453:1 1454:1 1455:1 1456:1 1457:1 1458:1 1459:1 1460:1 1461:1 1462:1 1463:1 
0.02819070591141952 1464:1 1465:1 1466:1 
0.1499154373702282 1467:1 1468:1 1469:1 1470:1 1471:1 
0.028181919877051 1472:1 1473:1 1474:1 
0.07998182782025519 1467:1 1475:1 1476:1 1477:1 
0.383021577119682 1478:1 1479:1 1480:1 1481:1 1482:1 1483:1 1484:1 1485:1 1486:1 1487:1 1488:1 1489:1 1490:1 
0.1746772309034831 1491:1 1492:1 1493:1 1494:1 1495:1 
0.174698934339035 1496:1 1497:1 1498:1 1499:1 1500:1 
0.08083173714911408 1467:1 1501:1 1502:1 1503:1 
0.2744472354420535 8:1 22:1 23:1 26:1 33:1 91:1 95:1 163:1 351:1 533:1 612:1 666:1 1551:1 1552:1 1553:1 1554:1 1555:1 1556:1 1557:1 
0.4341780071262822 10:1 23:1 87:1 117:1 128:1 147:1 178:1 310:1 340:1 612:1 665:1 1558:1 1559:1 1560:1 1561:1 1562:1 1563:1 1564:1 1565:1 1566:1 1567:1 
0.5935154907414052 7:1 8:1 22:1 33:1 54:1 58:1 73:1 75:1 82:1 96:1 178:1 180:1 366:1 620:1 701:1 1581:1 1582:1 1583:1 1584:1 1585:1 
0.3712876735377605 3:1 10:1 73:1 288:1 1586:1 1587:1 1588:1 1589:1 1590:1 1591:1 1592:1 1593:1 1594:1 1595:1 1596:1 1597:1 
0.0938928711550881 18:1 59:1 163:1 744:1 1619:1 1620:1 
0.2857308701273366 22:1 73:1 612:1 766:1 1652:1 1653:1 1654:1 1655:1 1656:1 
0.2808850690937717 3:1 33:1 91:1 108:1 206:1 298:1 523:1 694:1 1657:1 1658:1 1659:1 1660:1 1661:1 
0.4436725188455973 5:1 8:1 10:1 14:1 18:1 55:1 96:1 240:1 259:1 335:1 414:1 424:1 564:1 620:1 626:1 634:1 677:1 694:1 1640:1 1662:1 1663:1 1664:1 1665:1 1666:1 1667:1 
0.4294567694386297 10:1 18:1 22:1 59:1 67:1 81:1 95:1 163:1 178:1 212:1 286:1 310:1 476:1 519:1 612:1 620:1 828:1 1668:1 1669:1 1670:1 1671:1 1672:1 1673:1 
0.4634952551829414 8:1 22:1 55:1 164:1 243:1 466:1 511:1 609:1 694:1 1674:1 1675:1 1676:1 1677:1 1678:1 1679:1 1680:1 1681:1 
0.6202467335400123 3:1 8:1 10:1 22:1 73:1 174:1 195:1 204:1 523:1 547:1 701:1 869:1 1696:1 1697:1 1698:1 1699:1 
0.3327095006980173 58:1 61:1 300:1 1588:1 1700:1 1701:1 1702:1 1703:1 1704:1 
0.6899149116667178 8:1 26:1 44:1 81:1 128:1 162:1 565:1 609:1 701:1 1705:1 1706:1 1707:1 1708:1 1709:1 1710:1 1711:1 1712:1 1713:1 
0.2917955322857136 8:1 141:1 150:1 151:1 156:1 462:1 564:1 612:1 665:1 836:1 1562:1 1714:1 1715:1 1716:1 1717:1 1718:1 
0.483781497200532 10:1 33:1 73:1 89:1 96:1 106:1 119:1 128:1 163:1 313:1 353:1 479:1 551:1 557:1 564:1 581:1 838:1 1724:1 1725:1 1726:1 1727:1 1728:1 
0.4361784250133732 3:1 7:1 8:1 10:1 14:1 150:1 314:1 451:1 582:1 1739:1 1740:1 1741:1 1742:1 1743:1 1744:1 1745:1 1746:1 1747:1 1748:1 1749:1 1750:1 
0.3507494324638777 3:1 8:1 22:1 23:1 33:1 58:1 73:1 109:1 206:1 289:1 475:1 476:1 479:1 487:1 604:1 1556:1 1751:1 1752:1 1753:1 1754:1 1755:1 1756:1 
0.4987909257499867 3:1 14:1 582:1 593:1 632:1 793:1 1779:1 1780:1 
0.564768164795564 3:1 5:1 26:1 58:1 71:1 123:1 580:1 582:1 830:1 1713:1 1729:1 1781:1 1782:1 1783:1 1784:1 1785:1 1786:1 
0.0969003857136591 22:1 73:1 91:1 96:1 157:1 180:1 593:1 1556:1 1791:1 1792:1 1793:1 
0.3811487143830231 26:1 43:1 60:1 163:1 530:1 582:1 619:1 1814:1 1815:1 1816:1 1817:1 1818:1 1819:1 
0.5985901197125315 3:1 8:1 33:1 132:1 177:1 581:1 1556:1 1820:1 1821:1 1822:1 
0.7039150970969659 3:1 8:1 22:1 309:1 340:1 403:1 581:1 582:1 601:1 671:1 819:1 1080:1 1823:1 1824:1 1825:1 1826:1 1827:1 1828:1 1829:1 
1.097753641374041 3:1 75:1 259:1 310:1 370:1 425:1 582:1 593:1 595:1 793:1 1589:1 1830:1 1831:1 
0.4421040956649378 3:1 8:1 14:1 18:1 33:1 68:1 73:1 163:1 233:1 462:1 475:1 479:1 581:1 600:1 601:1 1556:1 1620:1 1832:1 
0.7917537384064862 3:1 14:1 44:1 162:1 565:1 582:1 593:1 632:1 660:1 793:1 1780:1 1833:1 1834:1 
0.1936342609267238 33:1 425:1 1552:1 1835:1 1836:1 1837:1 1838:1 
0.2319267156533693 106:1 593:1 1623:1 1801:1 1843:1 1844:1 
0.4910407050857692 8:1 10:1 25:1 52:1 58:1 73:1 91:1 106:1 110:1 117:1 150:1 479:1 564:1 696:1 697:1 807:1 1622:1 1623:1 1739:1 1854:1 1855:1 1856:1 1857:1 1858:1 1859:1 
0.3206050491701967 33:1 52:1 73:1 90:1 91:1 128:1 259:1 357:1 397:1 402:1 425:1 487:1 593:1 792:1 1862:1 1863:1 1864:1 
0.6524753449746027 8:1 25:1 96:1 156:1 164:1 259:1 581:1 697:1 792:1 1620:1 1741:1 1879:1 1880:1 1881:1 1882:1 1883:1 1884:1 1885:1 
0.436339213171374 3:1 26:1 73:1 259:1 501:1 604:1 792:1 1892:1 1893:1 1894:1 1895:1 1896:1 1897:1 1898:1 1899:1 
0.5907970775973601 3:1 57:1 70:1 807:1 1697:1 1896:1 1910:1 1911:1 1912:1 1913:1 
0.632717413036473 3:1 593:1 792:1 1914:1 1915:1 
0.2723249455505323 8:1 83:1 601:1 1568:1 1916:1 1917:1 1918:1 1919:1 1920:1 1921:1 
0.1853357719293981 38:1 73:1 101:1 325:1 463:1 1568:1 1922:1 1923:1 1924:1 1925:1 
0.5210625560111891 3:1 10:1 22:1 26:1 58:1 94:1 129:1 371:1 451:1 461:1 534:1 582:1 644:1 717:1 1568:1 1668:1 1723:1 1727:1 1926:1 1927:1 1928:1 1929:1 1930:1 1931:1 1932:1 
0.3538558689785539 32:1 33:1 173:1 237:1 314:1 335:1 499:1 659:1 734:1 831:1 1568:1 1933:1 1934:1 1935:1 1936:1 
0.48013585445775 1940:1 1941:1 1942:1 1943:1 1944:1 1945:1 1946:1 1947:1 1948:1 1949:1 1950:1 1951:1 1952:1 1953:1 1954:1 1955:1 1956:1 1957:1 1958:1 1959:1 1960:1 1961:1 1962:1 1963:1 1964:1 1965:1 
0.4741895355188271 34:1 1966:1 1967:1 1968:1 1969:1 1970:1 1971:1 1972:1 1973:1 1974:1 1975:1 1976:1 1977:1 1978:1 1979:1 1980:1 1981:1 1982:1 1983:1 1984:1 1985:1 1986:1 1987:1 1988:1 
0.4726701340169282 1989:1 1990:1 1991:1 1992:1 1993:1 1994:1 1995:1 1996:1 1997:1 1998:1 1999:1 2000:1 2001:1 2002:1 2003:1 2004:1 2005:1 2006:1 2007:1 2008:1 2009:1 2010:1 2011:1 2012:1 
0.4810682812704434 101:1 1963:1 2013:1 2014:1 2015:1 2016:1 2017:1 2018:1 2019:1 2020:1 2021:1 2022:1 2023:1 2024:1 2025:1 2026:1 2027:1 2028:1 2029:1 2030:1 2031:1 2032:1 2033:1 2034:1 2035:1 2036:1 
0.4707384379049183 1958:1 1981:1 2019:1 2037:1 2038:1 2039:1 2040:1 2041:1 2042:1 2043:1 2044:1 2045:1 2046:1 2047:1 2048:1 2049:1 2050:1 2051:1 2052:1 2053:1 2054:1 2055:1 2056:1 2057:1 
0.9554890981202802 3:1 8:1 26:1 70:1 73:1 310:1 582:1 593:1 723:1 1533:1 1720:1 1721:1 1894:1 2064:1 
0.6255375841351576 3:1 38:1 59:1 73:1 163:1 356:1 581:1 582:1 600:1 601:1 1666:1 2074:1 2075:1 2076:1 2077:1 2078:1 2079:1 2080:1 
0.6475122099519863 3:1 18:1 19:1 22:1 26:1 33:1 59:1 73:1 105:1 237:1 259:1 340:1 565:1 581:1 582:1 631:1 1545:1 1691:1 2081:1 2082:1 2083:1 2084:1 2085:1 2086:1 
0.2727420009358562 22:1 57:1 106:1 236:1 447:1 593:1 2094:1 2095:1 2096:1 2097:1 2098:1 
0.4231260780889685 8:1 10:1 14:1 52:1 91:1 128:1 162:1 259:1 294:1 499:1 521:1 551:1 632:1 734:1 1529:1 2116:1 2124:1 2125:1 2126:1 2127:1 2128:1 2129:1 
0.3949721121013294 14:1 77:1 289:1 1730:1 2116:1 2130:1 2131:1 2132:1 2133:1 2134:1 2135:1 2136:1 2137:1 2138:1 2139:1 2140:1 
0.3800449783500906 7:1 14:1 33:1 294:1 721:1 793:1 1896:1 2116:1 2141:1 2142:1 
0.548935853693046 5:1 8:1 26:1 91:1 96:1 259:1 340:1 553:1 581:1 2143:1 2144:1 2145:1 2146:1 2147:1 2148:1 
0.490288960632281 22:1 73:1 95:1 118:1 237:1 377:1 479:1 581:1 612:1 665:1 666:1 696:1 880:1 2165:1 2166:1 2167:1 2168:1 2169:1 2170:1 2171:1 2172:1 2173:1 2174:1 
0.4030806568150105 22:1 33:1 73:1 99:1 117:1 179:1 252:1 376:1 485:1 523:1 612:1 773:1 2145:1 2164:1 2175:1 2176:1 2177:1 2178:1 
0.1929813916575383 10:1 73:1 152:1 286:1 694:1 1652:1 2179:1 2180:1 2181:1 2182:1 2183:1 
0.1748586644771712 694:1 1739:1 2184:1 2185:1 2186:1 2187:1 
1.150370334712963 58:1 701:1 2188:1 2189:1 2190:1 2191:1 2192:1 2193:1 
0.599221796333483 8:1 18:1 33:1 55:1 523:1 701:1 726:1 1752:1 2223:1 2224:1 2225:1 2226:1 2227:1 2228:1 2229:1 2230:1 2231:1 2232:1 
0.468955246935731 1575:1 1981:1 1991:1 2240:1 2241:1 2242:1 2243:1 2244:1 2245:1 2246:1 2247:1 2248:1 2249:1 2250:1 2251:1 2252:1 2253:1 2254:1 2255:1 2256:1 2257:1 2258:1 2259:1 
0.4653621800968863 110:1 349:1 1959:1 1984:1 1990:1 2040:1 2045:1 2118:1 2173:1 2260:1 2261:1 2262:1 2263:1 2264:1 2265:1 2266:1 2267:1 2268:1 2269:1 2270:1 2271:1 2272:1 2273:1 2274:1 2275:1 2276:1 
0.4537700414563218 349:1 1680:1 1942:1 1959:1 1961:1 1984:1 1990:1 2031:1 2037:1 2045:1 2173:1 2260:1 2261:1 2262:1 2263:1 2264:1 2268:1 2277:1 2278:1 2279:1 2280:1 2281:1 2282:1 2283:1 
0.4022033775022414 73:1 528:1 2284:1 2285:1 2286:1 2287:1 2288:1 2289:1 2290:1 2291:1 2292:1 2293:1 2294:1 2295:1 2296:1 2297:1 2298:1 2299:1 
0.464324143386644 1945:1 1981:1 2019:1 2040:1 2240:1 2243:1 2248:1 2274:1 2300:1 2301:1 2302:1 2303:1 2304:1 2305:1 2306:1 2307:1 2308:1 2309:1 2310:1 2311:1 2312:1 2313:1 2314:1 
0.4411524165622389 821:1 2053:1 2315:1 2316:1 2317:1 2318:1 2319:1 2320:1 2321:1 2322:1 2323:1 2324:1 2325:1 2326:1 2327:1 2328:1 2329:1 2330:1 
0.4583119784029686 3:1 26:1 33:1 64:1 110:1 121:1 150:1 154:1 401:1 597:1 861:1 1576:1 2331:1 2332:1 2333:1 2334:1 2335:1 2336:1 2337:1 2338:1 2339:1 
0.445105325742573 34:1 73:1 1542:1 2340:1 2341:1 2342:1 2343:1 2344:1 2345:1 2346:1 2347:1 2348:1 2349:1 2350:1 2351:1 2352:1 2353:1 2354:1 2355:1 2356:1 2357:1 2358:1 
0.6534989466902174 14:1 71:1 96:1 259:1 565:1 582:1 793:1 807:1 1864:1 2359:1 2360:1 2361:1 2362:1 2363:1 2364:1 2365:1 2366:1 
0.456969949014827 1968:1 1998:1 2001:1 2003:1 2281:1 2312:1 2368:1 2369:1 2370:1 2371:1 2372:1 2373:1 2374:1 2375:1 2376:1 2377:1 2378:1 2379:1 2380:1 2381:1 2382:1 
0.4853207569792703 1967:1 2016:1 2118:1 2309:1 2383:1 2384:1 2385:1 2386:1 2387:1 2388:1 2389:1 2390:1 2391:1 2392:1 2393:1 2394:1 2395:1 2396:1 2397:1 2398:1 2399:1 2400:1 2401:1 2402:1 2403:1 2404:1 
0.4378401128275378 14:1 96:1 141:1 142:1 163:1 201:1 564:1 582:1 761:1 2363:1 2405:1 2406:1 2407:1 2408:1 2409:1 2410:1 2411:1 
0.2174783881640356 3:1 22:1 33:1 68:1 73:1 91:1 108:1 163:1 205:1 485:1 523:1 620:1 694:1 1668:1 2423:1 
0.3608693258600971 612:1 2429:1 2430:1 2431:1 2432:1 2433:1 2434:1 2435:1 2436:1 2437:1 
0.3929536476308116 3:1 22:1 33:1 34:1 81:1 128:1 163:1 173:1 178:1 269:1 424:1 551:1 612:1 802:1 1763:1 2438:1 2439:1 2440:1 2441:1 2442:1 2443:1 
0.1729565729012718 22:1 33:1 68:1 91:1 479:1 612:1 1551:1 1741:1 1753:1 2460:1 2461:1 
0.4129944360952019 8:1 10:1 26:1 164:1 206:1 612:1 659:1 665:1 703:1 722:1 1522:1 2470:1 2471:1 2472:1 2473:1 2474:1 2475:1 2476:1 
0.4618842994723192 18:1 33:1 90:1 95:1 96:1 249:1 534:1 612:1 677:1 880:1 2439:1 2477:1 2478:1 2479:1 2480:1 2481:1 2482:1 2483:1 2484:1 2485:1 2486:1 2487:1 
0.2988832703064271 3:1 8:1 89:1 129:1 163:1 340:1 582:1 593:1 1542:1 1671:1 2488:1 2489:1 2490:1 2491:1 2492:1 
0.355411810563372 163:1 259:1 340:1 582:1 593:1 2488:1 2489:1 2490:1 2491:1 2493:1 2494:1 
0.4925309265798517 3:1 8:1 10:1 99:1 582:1 593:1 1924:1 2495:1 2496:1 2497:1 2498:1 2499:1 2500:1 2501:1 2502:1 2503:1 
0.3347138671412935 7:1 22:1 60:1 73:1 91:1 464:1 582:1 593:1 660:1 2504:1 2505:1 
0.4062513815396552 3:1 91:1 99:1 101:1 128:1 151:1 259:1 416:1 425:1 582:1 604:1 666:1 879:1 880:1 2366:1 2511:1 2512:1 2513:1 
0.4309114561575241 10:1 14:1 18:1 237:1 269:1 565:1 593:1 792:1 2514:1 2515:1 2516:1 2517:1 2518:1 2519:1 
0.6305609075696139 3:1 807:1 1623:1 2524:1 2525:1 2526:1 2527:1 2528:1 2529:1 2530:1 
0.3998651528045446 73:1 564:1 593:1 792:1 1916:1 2534:1 2535:1 2536:1 2537:1 2538:1 2539:1 2540:1 2541:1 
0.3763246383753377 48:1 50:1 77:1 91:1 106:1 213:1 216:1 335:1 665:1 694:1 1249:1 1545:1 2542:1 2543:1 2544:1 2545:1 2546:1 2547:1 2548:1 
0.3410351757755106 3:1 8:1 22:1 139:1 159:1 162:1 268:1 475:1 612:1 728:1 2366:1 2549:1 2550:1 2551:1 2552:1 
0.4208510670196257 5:1 22:1 52:1 73:1 96:1 103:1 128:1 151:1 310:1 335:1 414:1 533:1 612:1 666:1 1640:1 2559:1 2560:1 2561:1 2562:1 2563:1 2564:1 
0.3086920367852099 14:1 66:1 73:1 96:1 129:1 259:1 335:1 619:1 766:1 1759:1 2564:1 2575:1 2576:1 2577:1 2578:1 
0.3200940797612053 10:1 14:1 18:1 22:1 58:1 73:1 338:1 619:1 2564:1 2577:1 2631:1 2632:1 2633:1 2634:1 2635:1 2636:1 2637:1 
0.7081170979075968 96:1 152:1 162:1 1533:1 2564:1 2638:1 2639:1 2640:1 
0.4571694403536757 10:1 18:1 55:1 68:1 73:1 74:1 95:1 121:1 177:1 178:1 179:1 237:1 298:1 310:1 322:1 414:1 487:1 551:1 665:1 1533:1 2581:1 2641:1 2642:1 2643:1 2644:1 2645:1 
0.7844216185467797 8:1 58:1 212:1 803:1 1533:1 2564:1 2646:1 
0.09648826499387542 416:1 549:1 1824:1 2170:1 2647:1 
0.2988917469378784 22:1 26:1 54:1 58:1 73:1 91:1 95:1 99:1 150:1 249:1 259:1 357:1 530:1 813:1 1763:1 2582:1 2648:1 2649:1 2650:1 2651:1 
0.4277128391452924 12:1 14:1 26:1 73:1 87:1 90:1 96:1 146:1 169:1 205:1 252:1 259:1 582:1 2652:1 2653:1 2654:1 2655:1 2656:1 2657:1 2658:1 2659:1 
0.4340658369124683 3:1 14:1 23:1 26:1 54:1 73:1 147:1 156:1 259:1 338:1 407:1 478:1 576:1 582:1 620:1 782:1 953:1 1772:1 1864:1 2660:1 2661:1 2662:1 2663:1 2664:1 
0.3105241701359908 14:1 26:1 52:1 71:1 73:1 91:1 95:1 151:1 164:1 249:1 697:1 1519:1 2565:1 2665:1 2666:1 2667:1 2668:1 2669:1 2670:1 2671:1 2672:1 
0.2145052337470016 22:1 26:1 73:1 141:1 150:1 259:1 391:1 1763:1 2673:1 2674:1 2675:1 2676:1 2677:1 2678:1 
0.3331576750921702 5:1 14:1 18:1 22:1 23:1 58:1 73:1 95:1 156:1 175:1 447:1 475:1 551:1 553:1 1554:1 2564:1 2679:1 2680:1 2681:1 2682:1 
0.3791908816486209 3:1 18:1 22:1 26:1 34:1 73:1 87:1 95:1 117:1 151:1 376:1 377:1 696:1 762:1 804:1 1556:1 1763:1 2236:1 2683:1 2684:1 2685:1 2686:1 2687:1 2688:1 
0.51993457158752 3:1 22:1 26:1 33:1 55:1 73:1 75:1 151:1 582:1 665:1 695:1 1739:1 2597:1 2689:1 2690:1 2691:1 2692:1 2693:1 2694:1 
0.5568396044951796 14:1 26:1 99:1 205:1 237:1 582:1 2695:1 2696:1 2697:1 2698:1 2699:1 2700:1 2701:1 
0.3903911563563832 3:1 68:1 95:1 150:1 151:1 551:1 582:1 1029:1 1766:1 2702:1 2703:1 2704:1 2705:1 
0.4758613708847924 38:1 73:1 105:1 162:1 804:1 819:1 1576:1 2564:1 2692:1 2702:1 2706:1 2707:1 2708:1 2709:1 2710:1 2711:1 2712:1 2713:1 2714:1 
0.436219537683265 55:1 58:1 68:1 73:1 151:1 313:1 551:1 659:1 697:1 804:1 2715:1 2716:1 2717:1 2718:1 2719:1 2720:1 2721:1 2722:1 2723:1 2724:1 2725:1 
0.5712161444353716 34:1 73:1 95:1 259:1 475:1 635:1 793:1 809:1 1691:1 1759:1 2726:1 2727:1 
0.5757042584263292 3:1 5:1 7:1 14:1 22:1 34:1 55:1 87:1 117:1 551:1 565:1 582:1 665:1 1572:1 1723:1 1729:1 2157:1 2728:1 2729:1 
0.6137516933723267 23:1 26:1 451:1 530:1 595:1 697:1 2467:1 2514:1 2730:1 2731:1 
0.3416528779109185 22:1 23:1 26:1 95:1 108:1 224:1 310:1 497:1 886:1 1766:1 2596:1 2732:1 2733:1 2734:1 
0.1789525940911968 26:1 68:1 73:1 77:1 95:1 150:1 151:1 249:1 446:1 1737:1 1793:1 2594:1 2735:1 2736:1 2737:1 
0.08335789337435839 95:1 99:1 150:1 151:1 377:1 446:1 475:1 551:1 1766:1 2738:1 
0.3446389432549309 34:1 95:1 150:1 151:1 310:1 382:1 402:1 551:1 813:1 2739:1 2740:1 2741:1 2742:1 2743:1 2744:1 
0.3153550835748417 3:1 68:1 73:1 95:1 108:1 134:1 150:1 151:1 237:1 377:1 551:1 1763:1 2745:1 2746:1 2747:1 2748:1 
0.5439536141533905 3:1 8:1 10:1 25:1 26:1 32:1 55:1 58:1 216:1 414:1 533:1 620:1 660:1 731:1 785:1 819:1 2201:1 2749:1 2750:1 2751:1 2752:1 2753:1 2754:1 2755:1 2756:1 
0.1601976323732542 3:1 22:1 23:1 26:1 73:1 95:1 150:1 151:1 156:1 180:1 294:1 533:1 1793:1 1839:1 2757:1 2758:1 2759:1 
0.3992271178451681 14:1 22:1 26:1 33:1 34:1 73:1 95:1 269:1 551:1 554:1 2148:1 2760:1 2761:1 2762:1 2763:1 2764:1 2765:1 2766:1 2767:1 2768:1 2769:1 2770:1 2771:1 2772:1 
0.9817016074611585 3:1 71:1 73:1 259:1 286:1 352:1 701:1 2773:1 2774:1 
0.5950287159999591 3:1 26:1 259:1 582:1 2775:1 2776:1 2777:1 
0.9620520827325767 581:1 635:1 2778:1 
0.577627660930329 581:1 1623:1 2778:1 2780:1 
0.214489768473734 581:1 2164:1 2778:1 2779:1 
1.21742172322644 581:1 793:1 2195:1 2778:1 
1.563365510419803 581:1 792:1 1568:1 2778:1 
0.4867021209667088 3:1 73:1 259:1 582:1 2781:1 
0.1773453113504689 498:1 581:1 2778:1 2782:1 
0.8255472364644399 3:1 38:1 73:1 582:1 620:1 
1.013632482449571 3:1 26:1 259:1 582:1 1589:1 2783:1 
1.912321480094104 3:1 73:1 582:1 620:1 
0.3388279498781018 3:1 18:1 26:1 73:1 582:1 2784:1 2785:1 
0.5857664462875949 3:1 52:1 54:1 70:1 212:1 384:1 412:1 425:1 581:1 600:1 654:1 661:1 804:1 1552:1 1627:1 2786:1 2787:1 2788:1 
0.4639075867298109 55:1 159:1 640:1 810:1 2789:1 2790:1 2791:1 2792:1 2793:1 2794:1 2795:1 2796:1 
0.7257632545386967 3:1 14:1 793:1 804:1 807:1 1800:1 2797:1 2798:1 2799:1 2800:1 2801:1 
0.6088002482543199 8:1 22:1 25:1 68:1 146:1 150:1 151:1 200:1 310:1 637:1 701:1 732:1 748:1 1752:1 2802:1 2803:1 
0.4704973659716415 22:1 33:1 55:1 68:1 77:1 95:1 108:1 109:1 151:1 269:1 310:1 512:1 523:1 530:1 582:1 659:1 667:1 810:1 1759:1 2505:1 2804:1 2805:1 2806:1 
0.4153602228479214 26:1 44:1 95:1 150:1 151:1 484:1 565:1 810:1 1766:1 1821:1 2567:1 2608:1 2807:1 2808:1 2809:1 2810:1 2811:1 
0.5284000852379258 8:1 14:1 55:1 96:1 259:1 565:1 860:1 1570:1 1773:1 1846:1 1847:1 2201:1 2812:1 2813:1 2814:1 2815:1 2816:1 2817:1 2818:1 2819:1 2820:1 2821:1 2822:1 2823:1 2824:1 
0.5164520234827651 10:1 58:1 338:1 370:1 804:1 861:1 862:1 884:1 1576:1 1589:1 1689:1 1864:1 2331:1 2595:1 2831:1 2832:1 2833:1 2834:1 2835:1 2836:1 2837:1 2838:1 2839:1 
0.3392425003752275 18:1 22:1 33:1 95:1 150:1 151:1 180:1 310:1 447:1 512:1 697:1 736:1 810:1 1542:1 2840:1 2841:1 2842:1 
0.2377933201452788 33:1 73:1 91:1 95:1 310:1 475:1 804:1 810:1 2843:1 2844:1 
0.5132162740981909 22:1 55:1 73:1 89:1 95:1 106:1 150:1 151:1 259:1 310:1 551:1 565:1 582:1 811:1 1535:1 1836:1 2845:1 2846:1 2847:1 2848:1 2849:1 2850:1 2851:1 
0.641733110688913 3:1 10:1 75:1 106:1 119:1 582:1 596:1 804:1 2237:1 2852:1 2853:1 2854:1 2855:1 2856:1 
2 3:1 117:1 631:1 701:1 2857:1 2858:1 
0.4842191396874638 7:1 22:1 87:1 106:1 206:1 249:1 264:1 307:1 370:1 793:1 799:1 804:1 1589:1 2830:1 2859:1 2860:1 2861:1 2862:1 2863:1 2864:1 2865:1 2866:1 2867:1 
0.5532858894226454 3:1 8:1 206:1 370:1 561:1 595:1 804:1 1523:1 1589:1 1606:1 1666:1 2825:1 2826:1 2827:1 2828:1 2829:1 2830:1 
0.4662002227346188 10:1 22:1 26:1 95:1 117:1 447:1 609:1 804:1 1576:1 1665:1 2868:1 2869:1 2870:1 2871:1 2872:1 2873:1 2874:1 2875:1 2876:1 2877:1 2878:1 
0.3509168408324042 22:1 26:1 52:1 73:1 99:1 151:1 356:1 451:1 476:1 620:1 628:1 697:1 2879:1 2880:1 2881:1 2882:1 2883:1 2884:1 2885:1 2886:1 
0.4948982492538564 22:1 26:1 99:1 205:1 384:1 558:1 580:1 705:1 816:1 1072:1 2887:1 2888:1 2889:1 2890:1 2891:1 2892:1 
0.4645508836626017 3:1 14:1 22:1 52:1 55:1 73:1 89:1 95:1 96:1 246:1 249:1 325:1 512:1 601:1 813:1 837:1 1763:1 2237:1 2743:1 2893:1 2894:1 2895:1 2896:1 2897:1 
0.4650138844806514 3:1 8:1 10:1 22:1 26:1 68:1 73:1 150:1 151:1 206:1 249:1 374:1 399:1 565:1 582:1 1637:1 2752:1 2774:1 2898:1 2899:1 2900:1 2901:1 2902:1 2903:1 2904:1 2905:1 2906:1 
0.3594717161183453 23:1 26:1 106:1 156:1 530:1 582:1 1029:1 2907:1 2908:1 2909:1 2910:1 
0.1457086254860776 22:1 26:1 33:1 73:1 75:1 95:1 150:1 151:1 180:1 252:1 523:1 551:1 667:1 1766:1 2650:1 2911:1 2912:1 2913:1 2914:1 
0.5459485151628429 3:1 22:1 26:1 58:1 73:1 94:1 582:1 595:1 804:1 1666:1 2143:1 2150:1 2597:1 2915:1 2916:1 2917:1 2918:1 2919:1 2920:1 2921:1 2922:1 
0.147754221081056 22:1 26:1 33:1 73:1 75:1 95:1 150:1 151:1 180:1 252:1 523:1 551:1 667:1 1766:1 2650:1 2912:1 2913:1 2914:1 2923:1 
0.4010026255088615 14:1 73:1 87:1 96:1 99:1 214:1 259:1 530:1 1519:1 1824:1 2564:1 2924:1 2925:1 2926:1 2927:1 
0.4625145789409373 5:1 26:1 213:1 804:1 879:1 880:1 1529:1 2564:1 2726:1 2830:1 2928:1 2929:1 2930:1 2931:1 2932:1 2933:1 2934:1 2935:1 
0.3872422911494546 26:1 33:1 34:1 73:1 95:1 173:1 206:1 252:1 662:1 804:1 1716:1 2825:1 2936:1 2937:1 2938:1 2939:1 2940:1 2941:1 2942:1 2943:1 2944:1 
0.4241540970887152 5:1 18:1 26:1 68:1 117:1 146:1 249:1 259:1 269:1 371:1 804:1 2499:1 2514:1 2597:1 2702:1 2722:1 2750:1 2908:1 2945:1 2946:1 2947:1 2948:1 
0.4850412180156884 22:1 26:1 652:1 1851:1 1852:1 2564:1 2949:1 2950:1 2951:1 2952:1 2953:1 
0.4206048342589886 26:1 151:1 164:1 177:1 249:1 425:1 697:1 731:1 804:1 1864:1 2216:1 2608:1 2645:1 2954:1 2955:1 2956:1 2957:1 2958:1 
0.3873376114634239 14:1 22:1 23:1 58:1 73:1 95:1 151:1 351:1 512:1 697:1 766:1 810:1 880:1 1644:1 2457:1 2959:1 2960:1 2961:1 2962:1 2963:1 
0.4591272524937779 34:1 150:1 151:1 551:1 721:1 738:1 793:1 2580:1 2710:1 2964:1 2965:1 2966:1 
0.5954724497206948 3:1 22:1 25:1 55:1 58:1 87:1 134:1 206:1 237:1 318:1 351:1 581:1 1729:1 1739:1 1839:1 2830:1 2967:1 2968:1 2969:1 
0.4901964982158544 3:1 26:1 95:1 159:1 294:1 370:1 804:1 865:1 1589:1 1777:1 2155:1 2566:1 2567:1 2809:1 2970:1 2971:1 2972:1 2973:1 2974:1 2975:1 
0.8175759381661141 58:1 635:1 793:1 1381:1 1622:1 1623:1 2553:1 2976:1 2977:1 2978:1 2979:1 2980:1 
0.5119418489769165 22:1 26:1 38:1 44:1 73:1 151:1 310:1 565:1 582:1 767:1 791:1 879:1 880:1 2114:1 2750:1 2981:1 2982:1 2983:1 2984:1 2985:1 2986:1 2987:1 
0.2644361156451747 26:1 33:1 46:1 73:1 95:1 391:1 697:1 1844:1 1949:1 2988:1 2989:1 2990:1 
0.2574065851246494 3:1 7:1 22:1 55:1 73:1 95:1 286:1 620:1 1029:1 1763:1 2991:1 2992:1 2993:1 2994:1 
0.3725579993508705 23:1 26:1 71:1 73:1 141:1 151:1 177:1 205:1 697:1 731:1 804:1 2565:1 2855:1 2995:1 2996:1 2997:1 2998:1 2999:1 3000:1 3001:1 3002:1 
0.4324493992078756 32:1 54:1 73:1 91:1 95:1 96:1 150:1 151:1 249:1 315:1 483:1 551:1 555:1 567:1 697:1 816:1 1469:1 1604:1 1605:1 1803:1 2145:1 2853:1 3003:1 3004:1 3005:1 3006:1 
0.4652004986628607 5:1 73:1 151:1 249:1 310:1 551:1 565:1 879:1 880:1 1027:1 1763:1 3007:1 3008:1 3009:1 3010:1 
0.3463427068098949 87:1 95:1 697:1 756:1 804:1 813:1 1763:1 3011:1 
0.5104700176966535 26:1 144:1 371:1 1639:1 2331:1 2413:1 3012:1 3013:1 3014:1 3015:1 3016:1 3017:1 3018:1 3019:1 3020:1 3021:1 3022:1 3023:1 3024:1 
0.471372146414257 14:1 26:1 33:1 68:1 73:1 99:1 159:1 235:1 237:1 310:1 476:1 660:1 697:1 1642:1 1843:1 1854:1 2957:1 3025:1 3026:1 3027:1 3028:1 3029:1 3030:1 
0.7803695356650076 3:1 206:1 495:1 582:1 793:1 820:1 1723:1 2985:1 3031:1 3032:1 
0.6679397238109585 22:1 34:1 58:1 151:1 310:1 479:1 580:1 581:1 600:1 819:1 1080:1 1770:1 2106:1 2830:1 3033:1 3034:1 3035:1 3036:1 
0.4449975889286547 3:1 22:1 26:1 55:1 73:1 159:1 206:1 582:1 619:1 1518:1 1801:1 1935:1 2564:1 2774:1 3037:1 3038:1 3039:1 3040:1 3041:1 3042:1 3043:1 
0.4337443255047102 14:1 22:1 26:1 96:1 785:1 1666:1 2564:1 2602:1 2974:1 3044:1 3045:1 3046:1 3047:1 3048:1 3049:1 
0.4158759867801479 23:1 34:1 73:1 91:1 95:1 150:1 151:1 216:1 237:1 310:1 351:1 384:1 807:1 1623:1 1930:1 2830:1 3050:1 3051:1 3052:1 3053:1 3054:1 
0.3878381771422181 22:1 26:1 73:1 208:1 1519:1 2543:1 2564:1 3055:1 3056:1 3057:1 3058:1 3059:1 3060:1 3061:1 3062:1 3063:1 3064:1 
0.2897888575329013 18:1 23:1 25:1 26:1 73:1 156:1 447:1 551:1 820:1 1766:1 2718:1 2906:1 3065:1 3066:1 3067:1 3068:1 
0.4011734459313586 7:1 10:1 14:1 22:1 26:1 34:1 73:1 95:1 99:1 134:1 205:1 697:1 1585:1 1729:1 1964:1 2651:1 3069:1 3070:1 3071:1 3072:1 3073:1 3074:1 
0.3803345224866603 23:1 26:1 33:1 38:1 68:1 73:1 249:1 671:1 777:1 831:1 1678:1 2213:1 3075:1 3076:1 3077:1 3078:1 3079:1 3080:1 
0.4011674755698875 3:1 22:1 26:1 68:1 99:1 141:1 151:1 162:1 819:1 3081:1 3082:1 3083:1 3084:1 3085:1 3086:1 3087:1 3088:1 3089:1 
0.3453001163376395 26:1 73:1 165:1 259:1 288:1 530:1 804:1 2138:1 2806:1 2815:1 3090:1 3091:1 3092:1 3093:1 3094:1 
0.4016547258888276 26:1 59:1 73:1 95:1 551:1 804:1 1729:1 1766:1 1924:1 2150:1 2509:1 2608:1 2850:1 3095:1 3096:1 
0.3650926758498232 14:1 18:1 26:1 73:1 95:1 96:1 150:1 151:1 159:1 463:1 547:1 565:1 810:1 2608:1 2774:1 3097:1 3098:1 3099:1 3100:1 3101:1 
0.3778700499697228 5:1 14:1 18:1 26:1 71:1 73:1 90:1 95:1 99:1 150:1 205:1 423:1 2698:1 3028:1 3102:1 3103:1 3104:1 3105:1 3106:1 3107:1 3108:1 3109:1 3110:1 
0.7163224976962713 91:1 96:1 151:1 156:1 402:1 582:1 810:1 819:1 3111:1 
0.5605128139510953 14:1 26:1 95:1 96:1 579:1 582:1 2154:1 2166:1 3112:1 3113:1 
0.3808914280700572 14:1 26:1 33:1 50:1 68:1 71:1 73:1 90:1 141:1 146:1 151:1 205:1 249:1 551:1 565:1 696:1 2908:1 3114:1 3115:1 3116:1 3117:1 3118:1 3119:1 
0.475657678940515 3:1 68:1 73:1 106:1 150:1 151:1 164:1 235:1 425:1 551:1 565:1 582:1 813:1 1335:1 2995:1 3120:1 3121:1 3122:1 3123:1 
0.4058951421547081 3:1 22:1 26:1 73:1 633:1 2916:1 3124:1 3125:1 3126:1 3127:1 3128:1 
0.3868676159632956 73:1 87:1 95:1 141:1 192:1 242:1 793:1 1733:1 2564:1 2662:1 3129:1 3130:1 3131:1 3132:1 
0.4587130491870939 26:1 33:1 34:1 58:1 64:1 68:1 73:1 89:1 95:1 117:1 152:1 310:1 447:1 530:1 553:1 574:1 865:1 880:1 1717:1 3134:1 3135:1 3136:1 3137:1 3138:1 3139:1 3140:1 3141:1 
0.424153266148176 3:1 14:1 23:1 71:1 73:1 87:1 95:1 143:1 150:1 151:1 252:1 582:1 810:1 1723:1 2166:1 2439:1 2969:1 3142:1 3143:1 3144:1 3145:1 3146:1 3147:1 
0.6380260773778751 7:1 8:1 68:1 335:1 447:1 701:1 793:1 1916:1 2509:1 2597:1 2995:1 3148:1 3149:1 3150:1 3151:1 3152:1 3153:1 3154:1 
0.4209725595896147 8:1 22:1 26:1 95:1 150:1 151:1 423:1 476:1 480:1 565:1 810:1 2417:1 2564:1 2608:1 2702:1 3155:1 3156:1 3157:1 3158:1 
0.3539398769323199 3:1 73:1 582:1 620:1 782:1 3159:1 3160:1 
0.5231589579881327 3:1 73:1 582:1 635:1 804:1 1729:1 2960:1 3161:1 3162:1 3163:1 3164:1 3165:1 
0.1918123189157032 22:1 23:1 26:1 73:1 171:1 259:1 357:1 1589:1 1763:1 2809:1 3166:1 3167:1 3168:1 3169:1 
0.4432602732345421 3:1 22:1 26:1 150:1 151:1 180:1 205:1 259:1 356:1 554:1 595:1 1801:1 2571:1 2759:1 2806:1 2951:1 3170:1 3171:1 3172:1 3173:1 3174:1 3175:1 
0.3483560640673478 22:1 34:1 59:1 73:1 91:1 95:1 108:1 150:1 151:1 205:1 377:1 447:1 451:1 475:1 551:1 1766:1 2059:1 2702:1 3176:1 3177:1 3178:1 3179:1 3180:1 
0.2494251949120251 18:1 26:1 33:1 35:1 68:1 73:1 91:1 95:1 150:1 151:1 205:1 1671:1 1763:1 2365:1 2850:1 3181:1 3182:1 3183:1 3184:1 
0.7501640565044085 26:1 54:1 109:1 389:1 581:1 2492:1 3185:1 3186:1 
0.4463601785276144 22:1 26:1 55:1 95:1 170:1 259:1 310:1 619:1 697:1 756:1 1763:1 3136:1 3187:1 3188:1 3189:1 3190:1 3191:1 3192:1 
0.4156842627266155 26:1 33:1 108:1 143:1 146:1 150:1 151:1 205:1 269:1 402:1 424:1 475:1 523:1 530:1 551:1 697:1 813:1 2547:1 3193:1 3194:1 3195:1 3196:1 3197:1 3198:1 
0.3811800727035219 21:1 22:1 23:1 26:1 55:1 73:1 91:1 95:1 103:1 106:1 171:1 259:1 310:1 424:1 530:1 564:1 804:1 1708:1 1875:1 2675:1 2853:1 3199:1 3200:1 3201:1 
1.385804195691233 594:1 1508:1 1760:1 2117:1 
0.4634647759661326 22:1 26:1 259:1 582:1 747:1 2505:1 2974:1 3202:1 3203:1 3204:1 3205:1 3206:1 3207:1 3208:1 
0.628115168770475 23:1 71:1 254:1 269:1 310:1 482:1 701:1 1837:1 2564:1 3040:1 3209:1 3210:1 3211:1 3212:1 3213:1 3214:1 
0.4383537206231518 22:1 26:1 44:1 95:1 141:1 150:1 151:1 216:1 416:1 512:1 736:1 810:1 816:1 1542:1 1628:1 1777:1 2518:1 2608:1 3082:1 3215:1 3216:1 3217:1 
0.3485326531241554 18:1 22:1 23:1 26:1 33:1 58:1 87:1 95:1 99:1 100:1 150:1 205:1 351:1 423:1 2698:1 3218:1 3219:1 3220:1 3221:1 3222:1 3223:1 
0.3457192143494897 26:1 52:1 73:1 77:1 95:1 259:1 298:1 819:1 2157:1 3224:1 3225:1 3226:1 3227:1 3228:1 3229:1 
0.3896118767629612 3:1 22:1 73:1 240:1 259:1 554:1 582:1 620:1 748:1 2644:1 3230:1 
0.4182154818474886 26:1 38:1 44:1 73:1 249:1 816:1 880:1 884:1 1685:1 2172:1 2179:1 2195:1 2702:1 2745:1 3231:1 3232:1 3233:1 3234:1 
0.5849778577336224 8:1 14:1 22:1 26:1 38:1 58:1 240:1 259:1 294:1 357:1 370:1 595:1 660:1 1673:1 2564:1 3235:1 3236:1 3237:1 
0.3924948587662629 5:1 26:1 33:1 55:1 68:1 73:1 246:1 475:1 620:1 1664:1 1729:1 1753:1 1818:1 3238:1 3239:1 3240:1 3241:1 
0.4345382672316226 3:1 5:1 18:1 26:1 66:1 73:1 95:1 96:1 739:1 813:1 3242:1 3243:1 3244:1 3245:1 3246:1 3247:1 3248:1 
0.3245898764601912 22:1 95:1 151:1 162:1 237:1 249:1 475:1 697:1 726:1 810:1 813:1 1560:1 3249:1 
0.441601190008984 3:1 22:1 26:1 73:1 80:1 259:1 582:1 1624:1 2895:1 3167:1 3250:1 3251:1 3252:1 3253:1 3254:1 3255:1 3256:1 3257:1 
0.5956391850869576 73:1 249:1 633:1 748:1 3258:1 3259:1 3260:1 
0.3385619418050384 14:1 22:1 26:1 66:1 73:1 150:1 151:1 335:1 565:1 804:1 809:1 813:1 1729:1 2608:1 3126:1 3261:1 3262:1 3263:1 
0.5650974749528748 26:1 55:1 96:1 259:1 582:1 884:1 1548:1 1737:1 3264:1 3265:1 3266:1 3267:1 3268:1 3269:1 3270:1 3271:1 3272:1 
0.236102485594168 5:1 22:1 23:1 25:1 26:1 73:1 109:1 156:1 205:1 217:1 357:1 1874:1 2698:1 3273:1 
0.2716113439410037 18:1 23:1 26:1 77:1 95:1 151:1 859:1 1753:1 1766:1 1793:1 2564:1 3274:1 3275:1 3276:1 3277:1 
0.4407063303728285 73:1 96:1 249:1 804:1 1874:1 2201:1 2686:1 2830:1 3278:1 3279:1 3280:1 3281:1 3282:1 3283:1 
0.2930983327155005 14:1 26:1 55:1 73:1 249:1 2817:1 3126:1 3284:1 3285:1 3286:1 3287:1 3288:1 3289:1 
0.2567465671957624 22:1 33:1 50:1 73:1 95:1 150:1 151:1 336:1 446:1 530:1 810:1 3290:1 3291:1 3292:1 3293:1 3294:1 
0.3547575507719092 23:1 26:1 55:1 73:1 75:1 96:1 156:1 217:1 884:1 3295:1 
0.5751420522696503 3:1 8:1 26:1 55:1 95:1 150:1 252:1 551:1 582:1 619:1 1564:1 1691:1 1721:1 1729:1 1766:1 2564:1 3296:1 3297:1 3298:1 3299:1 
0.3177638208014693 22:1 26:1 73:1 249:1 264:1 476:1 697:1 2717:1 2882:1 2883:1 3300:1 3301:1 3302:1 3303:1 
0.4584635525888225 14:1 55:1 73:1 234:1 353:1 1519:1 1520:1 2234:1 2564:1 3304:1 3305:1 3306:1 3307:1 
0.4373092878033552 10:1 18:1 26:1 73:1 95:1 150:1 234:1 351:1 565:1 869:1 1733:1 2564:1 3308:1 3309:1 3310:1 3311:1 3312:1 3313:1 3314:1 3315:1 3316:1 3317:1 3318:1 
0.3623238409532454 22:1 26:1 47:1 68:1 73:1 95:1 141:1 150:1 151:1 314:1 357:1 497:1 534:1 756:1 819:1 1739:1 2809:1 3250:1 3319:1 3320:1 3321:1 3322:1 3323:1 3324:1 
0.6438408864572304 26:1 33:1 52:1 205:1 551:1 819:1 2186:1 3325:1 
0.3141614330939925 26:1 73:1 95:1 100:1 141:1 151:1 205:1 252:1 269:1 391:1 475:1 1738:1 1793:1 1837:1 2758:1 3326:1 3327:1 3328:1 3329:1 
0.3193705446290345 22:1 33:1 73:1 95:1 96:1 105:1 106:1 134:1 150:1 151:1 475:1 551:1 1766:1 2588:1 2693:1 2774:1 3330:1 3331:1 3332:1 3333:1 3334:1 
0.4255414551958318 5:1 14:1 26:1 73:1 74:1 95:1 96:1 177:1 237:1 582:1 618:1 2410:1 3335:1 3336:1 3337:1 3338:1 3339:1 
0.5342859412223768 22:1 23:1 58:1 70:1 73:1 451:1 495:1 594:1 3340:1 3341:1 
0.4079334821882134 26:1 38:1 54:1 73:1 249:1 519:1 610:1 1552:1 2201:1 2644:1 2785:1 3342:1 3343:1 3344:1 3345:1 3346:1 3347:1 3348:1 3349:1 
0.4053741810708696 10:1 14:1 22:1 26:1 34:1 71:1 151:1 388:1 530:1 582:1 769:1 782:1 1818:1 1935:1 2505:1 2984:1 3350:1 3351:1 3352:1 3353:1 
0.4073601155505518 7:1 22:1 26:1 33:1 59:1 73:1 91:1 152:1 370:1 518:1 530:1 551:1 576:1 731:1 819:1 1589:1 1766:1 1844:1 1916:1 3354:1 3355:1 3356:1 
0.4098268328290011 8:1 22:1 23:1 34:1 73:1 77:1 105:1 117:1 151:1 156:1 200:1 218:1 551:1 585:1 594:1 620:1 1818:1 2809:1 3357:1 3358:1 3359:1 3360:1 
0.3224373698044138 26:1 52:1 73:1 95:1 249:1 259:1 563:1 3361:1 3362:1 3363:1 3364:1 3365:1 3366:1 3367:1 3368:1 3369:1 3370:1 
0.7565862683385638 73:1 75:1 581:1 2132:1 3371:1 3372:1 3373:1 3374:1 3375:1 3376:1 
-1.469865420708069 3:1 73:1 75:1 151:1 371:1 565:1 580:1 581:1 582:1 583:1 
-1.43375714156473 3:1 73:1 259:1 582:1 584:1 585:1 586:1 587:1 588:1 589:1 590:1 591:1 592:1 593:1 594:1 595:1 596:1 597:1 598:1 
-1.517167749256967 3:1 10:1 55:1 162:1 249:1 565:1 582:1 599:1 600:1 601:1 602:1 603:1 604:1 605:1 606:1 607:1 
-1.361285813911772 3:1 22:1 26:1 33:1 70:1 71:1 73:1 75:1 551:1 581:1 582:1 608:1 609:1 610:1 611:1 612:1 613:1 614:1 615:1 616:1 617:1 
-1.559055550815491 631:1 632:1 633:1 634:1 635:1 636:1 637:1 638:1 639:1 640:1 641:1 
-1.420353768091674 22:1 25:1 310:1 581:1 620:1 642:1 643:1 644:1 645:1 646:1 647:1 648:1 649:1 650:1 
-1.828198274122834 631:1 651:1 652:1 653:1 654:1 655:1 656:1 657:1 658:1 
-1.792017158308921 382:1 707:1 708:1 709:1 710:1 711:1 712:1 713:1 714:1 715:1 
-1.155461174874755 3:1 10:1 70:1 170:1 592:1 595:1 701:1 716:1 717:1 718:1 719:1 720:1 721:1 722:1 723:1 
-1.455653690464293 95:1 701:1 733:1 734:1 735:1 736:1 737:1 
-2 26:1 738:1 739:1 740:1 741:1 742:1 
-1.643772238707309 7:1 8:1 14:1 141:1 214:1 594:1 743:1 744:1 745:1 746:1 747:1 748:1 749:1 750:1 751:1 
-1.894376378530451 3:1 26:1 55:1 582:1 594:1 744:1 763:1 764:1 
-1.694792461873171 96:1 595:1 609:1 740:1 775:1 776:1 
-1.68418740849796 23:1 63:1 597:1 631:1 746:1 777:1 778:1 779:1 780:1 781:1 782:1 783:1 784:1 
-1.854072951273072 14:1 26:1 476:1 740:1 785:1 786:1 787:1 788:1 789:1 790:1 
-1.314904750061358 3:1 73:1 75:1 96:1 128:1 162:1 565:1 582:1 631:1 746:1 791:1 792:1 793:1 794:1 795:1 796:1 797:1 798:1 
-1.241764163380687 3:1 22:1 26:1 38:1 44:1 55:1 58:1 75:1 81:1 249:1 581:1 582:1 815:1 816:1 817:1 818:1 819:1 820:1 821:1 822:1 
-0.8186723638878743 259:1 701:1 792:1 807:1 823:1 824:1 
-1.368478088008779 594:1 595:1 839:1 840:1 841:1 842:1 843:1 844:1 845:1 846:1 
-0.8307598718477189 38:1 594:1 595:1 596:1 633:1 847:1 848:1 849:1 850:1 851:1 852:1 
-0.7128857062746846 38:1 594:1 595:1 596:1 633:1 839:1 848:1 849:1 850:1 851:1 853:1 
-1.400835381655867 22:1 594:1 595:1 854:1 855:1 856:1 857:1 858:1 859:1 860:1 861:1 862:1 863:1 
-1.351035152834148 82:1 83:1 594:1 595:1 763:1 844:1 864:1 865:1 866:1 867:1 
-0.7305533399746275 26:1 633:1 635:1 697:1 723:1 1504:1 1505:1 1506:1 
-1.501589350731348 26:1 697:1 723:1 1504:1 1505:1 1507:1 1508:1 1509:1 
-1.555402856187317 26:1 635:1 697:1 723:1 1505:1 1510:1 1511:1 1512:1 
-1.600059456411603 3:1 26:1 54:1 57:1 73:1 620:1 723:1 1513:1 1514:1 1515:1 1516:1 1517:1 1518:1 1519:1 1520:1 1521:1 
-1.487341308710577 3:1 58:1 68:1 174:1 237:1 310:1 400:1 574:1 620:1 723:1 785:1 1522:1 1523:1 1524:1 1525:1 1526:1 1527:1 1528:1 1529:1 1530:1 1531:1 
-0.4097155303304873 33:1 144:1 205:1 595:1 631:1 701:1 844:1 1523:1 1532:1 1533:1 1534:1 1535:1 1536:1 1537:1 1538:1 
-0.7026470955646682 144:1 205:1 595:1 620:1 701:1 844:1 1523:1 1532:1 1533:1 1534:1 1535:1 1536:1 1538:1 1539:1 1540:1 
-0.7537206266260734 144:1 205:1 595:1 631:1 701:1 836:1 1523:1 1533:1 1534:1 1535:1 1536:1 1537:1 1538:1 1541:1 1542:1 
-1.658632077408156 14:1 22:1 182:1 582:1 612:1 722:1 1543:1 1544:1 1545:1 1546:1 1547:1 1548:1 1549:1 1550:1 
-1.537487449117832 3:1 26:1 95:1 108:1 150:1 582:1 665:1 694:1 735:1 738:1 1568:1 1569:1 1570:1 1571:1 1572:1 1573:1 1574:1 1575:1 1576:1 1577:1 1578:1 1579:1 
-2 701:1 819:1 1580:1 
-1.340411162109602 55:1 205:1 701:1 1598:1 1599:1 1600:1 1601:1 1602:1 1603:1 1604:1 1605:1 1606:1 1607:1 1608:1 1609:1 1610:1 1611:1 
-1.72124327827234 33:1 38:1 73:1 108:1 694:1 748:1 1612:1 1613:1 1614:1 1615:1 1616:1 1617:1 1618:1 
-0.9812080572619649 58:1 77:1 96:1 365:1 701:1 807:1 1529:1 1621:1 1622:1 1623:1 1624:1 1625:1 1626:1 
-1.327052662405071 3:1 26:1 55:1 205:1 259:1 701:1 1627:1 1628:1 1629:1 1630:1 1631:1 1632:1 1633:1 1634:1 1635:1 
-1.477198545356904 3:1 18:1 71:1 89:1 249:1 259:1 318:1 351:1 414:1 530:1 701:1 1539:1 1636:1 1637:1 1638:1 1639:1 1640:1 1641:1 1642:1 1643:1 
-0.9213134175752044 237:1 620:1 631:1 701:1 723:1 1614:1 1644:1 1645:1 1646:1 1647:1 
-1.197815183682135 3:1 8:1 73:1 259:1 582:1 620:1 631:1 701:1 723:1 804:1 1614:1 1646:1 1648:1 1649:1 1650:1 1651:1 
-1.417819196376533 26:1 44:1 73:1 96:1 162:1 174:1 303:1 565:1 695:1 701:1 762:1 804:1 813:1 865:1 879:1 880:1 1682:1 1683:1 1684:1 1685:1 1686:1 1687:1 
-1.527435035394524 5:1 22:1 95:1 106:1 340:1 370:1 377:1 551:1 582:1 612:1 810:1 830:1 1589:1 1688:1 1689:1 1690:1 1691:1 
-1.237783654284348 205:1 615:1 660:1 701:1 1508:1 1692:1 1693:1 1694:1 1695:1 
-1.5600258687521 3:1 8:1 26:1 425:1 582:1 807:1 819:1 879:1 1719:1 1720:1 1721:1 1722:1 1723:1 
-1.452618162389473 3:1 26:1 73:1 95:1 150:1 531:1 581:1 582:1 1564:1 1729:1 1730:1 1731:1 1732:1 1733:1 1734:1 1735:1 1736:1 1737:1 1738:1 
-1.496856874364174 3:1 95:1 96:1 512:1 582:1 807:1 1623:1 1757:1 1758:1 1759:1 1760:1 1761:1 1762:1 
-1.770305033012574 3:1 52:1 95:1 237:1 259:1 551:1 582:1 593:1 1639:1 1685:1 1763:1 1764:1 1765:1 1766:1 1767:1 
-1.637825834573146 22:1 23:1 96:1 117:1 156:1 237:1 310:1 582:1 807:1 1768:1 1769:1 1770:1 1771:1 
-0.8871301031152903 3:1 18:1 73:1 117:1 259:1 581:1 582:1 697:1 717:1 793:1 816:1 1521:1 1772:1 1773:1 1774:1 1775:1 
-1.15706568754336 3:1 8:1 22:1 44:1 73:1 162:1 259:1 335:1 565:1 581:1 582:1 660:1 792:1 793:1 1519:1 1520:1 1521:1 1776:1 1777:1 1778:1 
-2 3:1 26:1 73:1 259:1 582:1 593:1 620:1 793:1 1787:1 1788:1 1789:1 1790:1 
-1.104009543665825 3:1 581:1 582:1 637:1 1521:1 1612:1 1720:1 1794:1 1795:1 1796:1 1797:1 
-1.406425120998324 3:1 7:1 8:1 14:1 22:1 58:1 87:1 96:1 582:1 733:1 807:1 819:1 1673:1 1798:1 1799:1 1800:1 1801:1 1802:1 1803:1 1804:1 
-1.330491421785783 3:1 581:1 582:1 647:1 793:1 804:1 813:1 830:1 1526:1 1727:1 1805:1 1806:1 1807:1 1808:1 1809:1 1810:1 1811:1 1812:1 1813:1 
-1.416082401826676 3:1 14:1 22:1 73:1 174:1 237:1 310:1 336:1 447:1 551:1 582:1 645:1 647:1 804:1 805:1 806:1 807:1 808:1 809:1 810:1 811:1 812:1 813:1 814:1 
-1.409144979411686 58:1 649:1 807:1 859:1 1622:1 1623:1 1839:1 1840:1 1841:1 1842:1 
-1.578083138309276 96:1 581:1 601:1 1624:1 1845:1 1846:1 1847:1 1848:1 
-1.154326440301775 22:1 58:1 581:1 633:1 734:1 1622:1 1623:1 1839:1 1849:1 1850:1 1851:1 1852:1 1853:1 
-1.381992490528792 22:1 46:1 58:1 108:1 117:1 376:1 581:1 793:1 1622:1 1623:1 1860:1 1861:1 
-1.329367739200931 3:1 8:1 14:1 22:1 34:1 58:1 106:1 371:1 582:1 631:1 792:1 807:1 1795:1 1865:1 
-1.114794656000777 581:1 792:1 793:1 816:1 859:1 1866:1 1867:1 1868:1 1869:1 1870:1 1871:1 1872:1 
-1.619636150480522 3:1 8:1 10:1 22:1 26:1 33:1 73:1 95:1 217:1 475:1 593:1 792:1 793:1 1655:1 1763:1 1784:1 1873:1 1874:1 1875:1 1876:1 
-1.219038173642227 18:1 22:1 58:1 73:1 75:1 104:1 105:1 581:1 609:1 792:1 793:1 820:1 830:1 1868:1 1877:1 1878:1 
-1.382535404879474 38:1 40:1 581:1 859:1 1589:1 1719:1 1869:1 1886:1 1887:1 1888:1 1889:1 1890:1 1891:1 
-1.400835324051868 22:1 25:1 206:1 631:1 648:1 766:1 792:1 807:1 1639:1 1900:1 1901:1 1902:1 1903:1 
-1.432562965014051 34:1 68:1 151:1 246:1 581:1 620:1 792:1 1534:1 1904:1 1905:1 1906:1 1907:1 1908:1 1909:1 
-2 3:1 73:1 582:1 620:1 633:1 1691:1 1937:1 1938:1 1939:1 
-1.434990532104766 3:1 14:1 33:1 73:1 249:1 523:1 581:1 582:1 631:1 1381:1 2058:1 2059:1 2060:1 2061:1 2062:1 2063:1 
-1.28090413112114 3:1 22:1 33:1 55:1 121:1 249:1 523:1 581:1 582:1 792:1 1685:1 2065:1 2066:1 2067:1 2068:1 2069:1 2070:1 2071:1 2072:1 
-1.891542376828256 70:1 581:1 582:1 1834:1 2073:1 
-0.8492972769492316 3:1 18:1 73:1 259:1 581:1 582:1 717:1 793:1 816:1 1521:1 1772:1 1773:1 1774:1 2087:1 2088:1 
-1.346775530151965 26:1 58:1 59:1 237:1 259:1 310:1 603:1 604:1 647:1 701:1 1559:1 1622:1 2067:1 2089:1 2090:1 2091:1 2092:1 2093:1 
-1.418381399058053 8:1 391:1 593:1 652:1 660:1 724:1 792:1 793:1 1534:1 1639:1 1898:1 2099:1 2100:1 2101:1 2102:1 2103:1 2104:1 2105:1 
-1.193342685237582 96:1 581:1 633:1 1504:1 2106:1 2107:1 2108:1 2109:1 
-1.547895837192609 581:1 715:1 1924:1 2110:1 2111:1 2112:1 2113:1 2114:1 2115:1 
-1.587312110715569 38:1 593:1 596:1 715:1 734:1 850:1 2116:1 2117:1 2118:1 2119:1 2120:1 2121:1 2122:1 2123:1 
-1.343167932578095 22:1 58:1 59:1 70:1 73:1 95:1 96:1 259:1 310:1 318:1 512:1 581:1 582:1 609:1 612:1 1717:1 2149:1 2150:1 2151:1 2152:1 
-1.256789048582777 10:1 73:1 259:1 340:1 551:1 581:1 701:1 804:1 1729:1 2106:1 2153:1 2154:1 2155:1 2156:1 2157:1 
-1.093305798341572 3:1 8:1 44:1 58:1 212:1 582:1 631:1 701:1 793:1 804:1 807:1 819:1 2158:1 2159:1 2160:1 2161:1 2162:1 2163:1 2164:1 
-1.568432751576628 10:1 18:1 22:1 37:1 55:1 71:1 259:1 275:1 462:1 576:1 582:1 612:1 705:1 756:1 1834:1 2194:1 2195:1 2196:1 2197:1 2198:1 
-1.179090191416304 3:1 7:1 162:1 370:1 594:1 637:1 701:1 854:1 1784:1 2199:1 2200:1 2201:1 2202:1 2203:1 2204:1 
-0.7304937904160346 8:1 10:1 71:1 594:1 701:1 854:1 2200:1 2201:1 2202:1 2205:1 2206:1 2207:1 2208:1 2209:1 2210:1 2211:1 
-1.35705797606637 10:1 22:1 507:1 701:1 816:1 1521:1 1734:1 2212:1 2213:1 2214:1 2215:1 2216:1 2217:1 2218:1 2219:1 2220:1 2221:1 
-0.7287480911014711 8:1 10:1 71:1 594:1 701:1 854:1 2200:1 2201:1 2202:1 2205:1 2206:1 2207:1 2208:1 2209:1 2210:1 2222:1 
-1.163725753028381 3:1 5:1 10:1 22:1 73:1 75:1 249:1 294:1 365:1 582:1 701:1 1519:1 1520:1 1709:1 1734:1 2233:1 2234:1 2235:1 2236:1 2237:1 2238:1 
-1.128152605542221 3:1 75:1 249:1 701:1 1519:1 1520:1 2233:1 2234:1 2235:1 2239:1 
-1.770726239818914 812:1 2201:1 2412:1 2413:1 2414:1 2415:1 2416:1 2417:1 2418:1 2419:1 2420:1 
-1.076825312259021 33:1 205:1 701:1 1612:1 1617:1 2421:1 2422:1 
-1.463107508714493 8:1 23:1 26:1 55:1 259:1 625:1 701:1 804:1 1676:1 2424:1 2425:1 2426:1 2427:1 2428:1 
-1.597566199248022 5:1 22:1 26:1 73:1 119:1 310:1 582:1 612:1 1655:1 2164:1 2444:1 2445:1 2446:1 2447:1 2448:1 2449:1 2450:1 2451:1 
-2 3:1 5:1 73:1 701:1 2452:1 2453:1 2454:1 
-1.172420896810132 3:1 10:1 44:1 425:1 595:1 701:1 804:1 819:1 820:1 2212:1 2455:1 2456:1 2457:1 2458:1 2459:1 
-1.306897170128355 14:1 25:1 55:1 212:1 259:1 551:1 595:1 701:1 2462:1 2463:1 2464:1 2465:1 2466:1 2467:1 2468:1 2469:1 
-1.308640478388299 3:1 22:1 37:1 58:1 75:1 370:1 582:1 793:1 804:1 807:1 1589:1 1806:1 2498:1 2506:1 2507:1 2508:1 2509:1 2510:1 
-1.058238820181351 166:1 581:1 620:1 652:1 792:1 793:1 1589:1 1905:1 2520:1 
-0.9481414477414472 33:1 581:1 633:1 792:1 1612:1 1617:1 1794:1 2521:1 2522:1 2523:1 
-1.441284556713351 581:1 792:1 793:1 2531:1 2532:1 2533:1 
-1.561812979146676 34:1 73:1 151:1 259:1 310:1 551:1 565:1 701:1 1381:1 2059:1 2553:1 2554:1 2555:1 
-1.19430905562624 205:1 701:1 724:1 1644:1 1773:1 2478:1 2556:1 2557:1 2558:1 
-1.405325932185682 3:1 14:1 33:1 55:1 58:1 68:1 99:1 144:1 498:1 581:1 582:1 600:1 601:1 1759:1 2551:1 2565:1 2566:1 2567:1 
-1.5864768985825 10:1 14:1 33:1 68:1 73:1 91:1 151:1 212:1 237:1 310:1 565:1 609:1 820:1 1874:1 2564:1 2568:1 2569:1 2570:1 2571:1 2572:1 2573:1 2574:1 
-1.503621858773051 26:1 63:1 303:1 594:1 1733:1 2451:1 2572:1 2579:1 2580:1 2581:1 2582:1 2583:1 2584:1 2585:1 2586:1 2587:1 
-1.688079884531627 33:1 68:1 73:1 91:1 101:1 150:1 376:1 475:1 632:1 671:1 809:1 810:1 1763:1 2331:1 2588:1 2589:1 2590:1 2591:1 2592:1 2593:1 
-1.729741819608894 3:1 8:1 22:1 73:1 95:1 294:1 447:1 793:1 810:1 813:1 880:1 1760:1 1800:1 2594:1 2595:1 2596:1 2597:1 
-1.565105263383003 3:1 33:1 95:1 150:1 259:1 432:1 551:1 725:1 810:1 1800:1 2598:1 2599:1 2600:1 2601:1 2602:1 2603:1 2604:1 2605:1 2606:1 2607:1 2608:1 
-1.856429463117871 3:1 73:1 75:1 95:1 117:1 150:1 151:1 565:1 582:1 635:1 810:1 1564:1 2609:1 
-1.537705111775441 10:1 14:1 26:1 38:1 73:1 95:1 99:1 237:1 551:1 771:1 806:1 810:1 1523:1 1533:1 1628:1 1729:1 2564:1 2608:1 2610:1 2611:1 2612:1 2613:1 
-1.489903740269913 3:1 8:1 10:1 22:1 26:1 146:1 425:1 807:1 810:1 1723:1 1874:1 2116:1 2572:1 2614:1 2615:1 2616:1 2617:1 2618:1 2619:1 
-1.612753823323912 8:1 58:1 73:1 370:1 530:1 558:1 660:1 1533:1 1589:1 2564:1 2608:1 2620:1 
-1.354550091743024 8:1 33:1 68:1 73:1 370:1 558:1 660:1 804:1 1533:1 1589:1 2564:1 2608:1 2621:1 2622:1 2623:1 
-2 99:1 495:1 1533:1 2564:1 2624:1 2625:1 
-1.650709078748445 14:1 44:1 73:1 150:1 151:1 237:1 269:1 565:1 706:1 804:1 879:1 880:1 1523:1 2564:1 2572:1 2626:1 2627:1 2628:1 2629:1 2630:1 
